801 20
10100 -0.289591 -0.075978 0.447957 0.046813 -0.490792 0.036209 -0.483707 0.119734 -0.242371 0.397828 0.149903 -0.299996 0.356003 0.441356 -0.211894 -0.219386 -0.540367 0.044039 -0.265490 0.329467 
10201 -0.300949 -0.046576 0.443995 0.056191 -0.468390 0.049564 -0.483890 0.116548 -0.262300 0.410600 0.191834 -0.216236 0.258104 0.476213 -0.146226 -0.180923 -0.609237 0.045444 -0.306494 0.318992 
10202 -0.294108 -0.054390 0.449958 0.066719 -0.477316 0.043650 -0.487352 0.118319 -0.259378 0.393833 0.162656 -0.276295 0.375050 0.469344 -0.193343 -0.210453 -0.543895 0.029352 -0.244979 0.312870 
10300 -0.292501 -0.058367 0.448725 0.068625 -0.478751 0.045087 -0.488569 0.123987 -0.252991 0.394539 0.123415 -0.328762 0.384728 0.432474 -0.225323 -0.242660 -0.516597 0.025634 -0.229434 0.334381 
10400 -0.305197 0.010816 0.467613 0.210413 -0.430225 0.078522 -0.524523 0.163136 -0.259464 0.288937 0.128025 -0.321258 0.452308 0.449131 -0.239880 -0.250273 -0.459499 0.028189 -0.198102 0.320538 
10501 -0.301969 -0.031025 0.457545 0.116365 -0.460226 0.062477 -0.505488 0.140578 -0.255979 0.358394 0.128072 -0.328086 0.445650 0.443950 -0.232107 -0.245184 -0.483993 0.019643 -0.207622 0.297541 
10502 -0.303726 -0.015501 0.462819 0.153697 -0.451706 0.065901 -0.513615 0.147394 -0.258160 0.330353 0.158433 -0.312049 0.473623 0.449768 -0.234012 -0.242216 -0.467365 0.033116 -0.175336 0.295323 
10503 -0.303652 0.004190 0.458453 0.192331 -0.434875 0.072987 -0.526708 0.156127 -0.259536 0.311462 0.132459 -0.311161 0.456591 0.443110 -0.232440 -0.261214 -0.472839 0.023412 -0.201824 0.306094 
10600 -0.294485 -0.060911 0.456085 0.076921 -0.481449 0.048261 -0.489834 0.130640 -0.248560 0.377796 0.118496 -0.324797 0.416320 0.481914 -0.190349 -0.229219 -0.501266 -0.004506 -0.195513 0.310828 
10701 -0.307032 -0.036725 0.447561 0.072379 -0.465572 0.048917 -0.483429 0.116144 -0.267461 0.401191 0.181893 -0.267544 0.340159 0.451567 -0.172865 -0.181897 -0.585156 0.031940 -0.256959 0.321387 
10702 -0.295911 -0.059476 0.463780 0.095763 -0.481552 0.048360 -0.492822 0.134311 -0.245135 0.359723 0.136301 -0.298195 0.396378 0.457414 -0.169643 -0.214432 -0.550619 -0.008731 -0.216153 0.318464 
20100 -0.296861 -0.050672 0.446198 0.062086 -0.471898 0.047481 -0.486549 0.119004 -0.258151 0.404824 0.202389 -0.180156 0.160622 0.472595 -0.122774 -0.121234 -0.637852 0.060721 -0.359406 0.328560 
20200 -0.281042 -0.082716 0.449933 0.052330 -0.492004 0.035842 -0.482699 0.121108 -0.244632 0.397658 0.231684 -0.148536 0.082153 0.426736 -0.098641 -0.071063 -0.658957 0.098699 -0.434497 0.296434 
20301 -0.298599 -0.052018 0.442223 0.049550 -0.468938 0.049896 -0.486783 0.116648 -0.258521 0.412706 0.218294 -0.153516 0.055179 0.431963 -0.068028 -0.068668 -0.673321 0.093346 -0.415517 0.308335 
20302 -0.302966 -0.038084 0.442407 0.062683 -0.463167 0.050907 -0.486830 0.116405 -0.267584 0.409680 0.226909 -0.141020 0.087364 0.426219 -0.097950 -0.091549 -0.677186 0.072709 -0.395667 0.317704 
20400 -0.292516 -0.068441 0.454415 0.062926 -0.481895 0.044836 -0.488219 0.126768 -0.245547 0.387742 0.214519 -0.182203 0.216720 0.452937 -0.118049 -0.136059 -0.639060 0.051231 -0.345834 0.324952 
20500 -0.316423 -0.035270 0.457710 0.072763 -0.468594 0.038076 -0.464495 0.101911 -0.278391 0.398957 0.211617 -0.168691 0.144306 0.424650 -0.100176 -0.138084 -0.672513 0.052289 -0.356697 0.338032 
20601 -0.289722 -0.071647 0.449309 0.048201 -0.483277 0.038251 -0.484486 0.116800 -0.251429 0.400152 0.225724 -0.139040 0.053689 0.381066 -0.092547 -0.044671 -0.698454 0.068844 -0.418793 0.321088 
20602 -0.316976 -0.003990 0.436616 0.080142 -0.439146 0.059782 -0.482469 0.107765 -0.286881 0.423487 0.222214 -0.138664 0.088367 0.446415 -0.095338 -0.080667 -0.660024 0.082134 -0.415068 0.306662 
20701 -0.293704 -0.055605 0.445873 0.053664 -0.474594 0.046600 -0.482577 0.116869 -0.260528 0.408827 0.205393 -0.141015 0.023453 0.298653 -0.068132 -0.042223 -0.743424 0.027322 -0.427015 0.325565 
20702 -0.302857 -0.048900 0.446394 0.055408 -0.469711 0.050607 -0.482168 0.117616 -0.261134 0.407245 0.203150 -0.152780 0.011367 0.354047 -0.057001 -0.041235 -0.717729 0.051716 -0.437346 0.309644 
20801 -0.293036 -0.060667 0.448749 0.057683 -0.480125 0.041943 -0.481613 0.118138 -0.256943 0.401920 0.228664 -0.097221 0.043998 0.338025 -0.084360 -0.083293 -0.724241 0.060653 -0.408524 0.336028 
20802 -0.310720 -0.017532 0.437506 0.077771 -0.450832 0.050451 -0.485047 0.106984 -0.281500 0.417051 0.207189 -0.163481 0.055398 0.392518 -0.105416 -0.099878 -0.705682 0.063095 -0.388689 0.314758 
20901 -0.296521 -0.050765 0.446317 0.063878 -0.471237 0.047911 -0.484249 0.119949 -0.259969 0.406683 0.194350 -0.170830 0.117140 0.390725 -0.120413 -0.128040 -0.685114 0.042945 -0.365298 0.362071 
20902 -0.279066 -0.063749 0.461824 0.105944 -0.483966 0.035157 -0.490516 0.131152 -0.255947 0.367122 0.193957 -0.212045 0.299655 0.449493 -0.178190 -0.199330 -0.603017 0.046705 -0.280262 0.331269 
30101 -0.270051 0.057746 0.457726 0.385114 -0.361053 0.116670 -0.563111 0.229988 -0.206965 0.095486 0.168971 -0.266609 0.493444 0.443692 -0.254346 -0.280970 -0.447554 0.033740 -0.156620 0.300682 
30102 -0.263456 0.055607 0.458770 0.397952 -0.359657 0.119756 -0.559308 0.238076 -0.198103 0.078852 0.157102 -0.292539 0.505353 0.424799 -0.249894 -0.282254 -0.437013 0.034640 -0.170723 0.300770 
30103 -0.269778 0.046512 0.461020 0.384970 -0.367879 0.113574 -0.560703 0.230881 -0.200467 0.090554 0.159265 -0.295520 0.491743 0.436697 -0.237646 -0.272744 -0.453616 0.029358 -0.152148 0.306827 
30104 -0.264784 0.052848 0.457806 0.392499 -0.359568 0.118949 -0.563956 0.236075 -0.199402 0.080484 0.153181 -0.300308 0.494857 0.421173 -0.266426 -0.267799 -0.449436 0.028625 -0.172343 0.298106 
30200 -0.274586 -0.008972 0.485542 0.280109 -0.440933 0.055821 -0.522647 0.175719 -0.247240 0.218190 0.138731 -0.296480 0.423612 0.438196 -0.248203 -0.245901 -0.500526 0.022896 -0.206114 0.325245 
30300 -0.300215 -0.050173 0.480224 0.132912 -0.479585 0.042929 -0.486295 0.132304 -0.255496 0.328578 0.173453 -0.259074 0.399858 0.417280 -0.215848 -0.245209 -0.546719 0.031877 -0.224169 0.334511 
30400 -0.130512 -0.114234 0.443258 0.204654 -0.507108 -0.079319 -0.428060 0.104662 -0.313909 0.418782 0.208279 -0.175679 0.299916 0.402128 -0.233353 -0.233930 -0.612285 0.044049 -0.241656 0.360127 
30500 -0.120398 -0.062961 0.469176 0.374405 -0.470891 -0.083453 -0.428118 0.131047 -0.328422 0.290194 0.145233 -0.278614 0.413975 0.431051 -0.251100 -0.277682 -0.505732 0.036800 -0.197599 0.328296 
30601 -0.251013 0.051105 0.456004 0.402508 -0.366609 0.103979 -0.557883 0.228113 -0.213773 0.101228 0.149761 -0.280722 0.490190 0.400299 -0.291538 -0.307755 -0.442591 0.032453 -0.155792 0.311966 
30603 -0.070690 -0.025175 0.441088 0.477946 -0.419485 -0.074668 -0.450594 0.161929 -0.323905 0.235933 0.174532 -0.259689 0.490933 0.426452 -0.266915 -0.283571 -0.453077 0.045113 -0.161230 0.307015 
30604 -0.162496 -0.004090 0.465687 0.435030 -0.416276 -0.004117 -0.498279 0.187758 -0.280411 0.178872 0.161833 -0.272929 0.488052 0.419500 -0.300577 -0.288742 -0.430137 0.059703 -0.166557 0.308387 
30701 0.066034 -0.067638 0.393072 0.534123 -0.409360 -0.164020 -0.386200 0.138784 -0.345607 0.262562 0.188935 -0.229530 0.491409 0.394261 -0.296662 -0.310702 -0.451670 0.064312 -0.147617 0.316572 
30702 0.104557 -0.061924 0.374675 0.568577 -0.392128 -0.201447 -0.332974 0.119501 -0.368740 0.257109 0.208856 -0.196745 0.502999 0.378813 -0.329427 -0.307336 -0.434954 0.085603 -0.142447 0.318405 
30703 0.141504 -0.057255 0.335180 0.543412 -0.372183 -0.230570 -0.313723 0.097630 -0.396051 0.335505 0.201726 -0.167509 0.448340 0.365551 -0.324547 -0.332671 -0.477349 0.071385 -0.142909 0.356692 
30706 0.109191 -0.048401 0.361576 0.583653 -0.370251 -0.168718 -0.381688 0.153986 -0.344895 0.245854 0.198629 -0.233759 0.489900 0.386932 -0.325708 -0.287362 -0.435006 0.089708 -0.165755 0.320578 
30800 0.095830 -0.099940 0.381770 0.487643 -0.427028 -0.220321 -0.327303 0.099778 -0.376706 0.327721 0.229469 -0.163203 0.399476 0.399814 -0.302038 -0.272396 -0.521230 0.083523 -0.202175 0.341056 
30900 0.122743 -0.190513 0.375772 0.370261 -0.482855 -0.248491 -0.305277 0.079516 -0.344030 0.396952 0.249368 -0.056287 0.190205 0.352339 -0.277357 -0.258038 -0.635417 0.105687 -0.247212 0.393418 
31000 0.449444 -0.155784 0.132778 0.533744 -0.246434 -0.410319 -0.042542 0.011203 -0.358928 0.333710 0.258031 0.037121 0.126883 0.160765 -0.376334 -0.318947 -0.622347 0.137922 -0.237600 0.428894 
31100 0.391257 -0.111188 0.166369 0.563795 -0.259664 -0.352023 -0.145387 0.061043 -0.375440 0.363107 0.305897 0.085063 0.213375 0.265086 -0.376424 -0.356352 -0.518257 0.200450 -0.185879 0.413992 
31200 0.445198 -0.142266 0.137084 0.572784 -0.248363 -0.362711 -0.130925 0.070130 -0.338067 0.324182 0.291466 0.067056 0.247048 0.261402 -0.399938 -0.375769 -0.494335 0.185502 -0.163674 0.417693 
31300 0.572725 -0.131132 -0.005770 0.573821 -0.118401 -0.396060 -0.020841 0.056734 -0.282357 0.266883 0.372371 0.105291 0.339014 0.280795 -0.385596 -0.354291 -0.397775 0.268830 -0.165130 0.352857 
31400 0.649193 0.051090 -0.163018 0.423108 -0.139440 -0.396604 -0.056719 0.330017 -0.229400 0.169856 0.360972 0.179623 0.254265 0.252931 -0.435510 -0.404340 -0.298259 0.340088 -0.142885 0.361408 
31501 0.619746 -0.115994 -0.060264 0.572639 -0.068062 -0.379494 -0.017583 0.095300 -0.243685 0.231282 0.334673 0.142354 0.251051 0.164230 -0.429553 -0.417972 -0.405663 0.272743 -0.125259 0.404813 
31502 0.637937 -0.114729 -0.085732 0.546405 -0.057795 -0.379771 -0.021097 0.119725 -0.228620 0.243624 0.339021 0.197267 0.216573 0.180269 -0.439068 -0.430614 -0.369104 0.279120 -0.097239 0.406127 
31700 0.610551 -0.138769 -0.058834 0.524130 -0.062945 -0.415887 0.047122 0.039506 -0.265417 0.280439 0.304456 0.131363 0.172884 0.206982 -0.409068 -0.401756 -0.479844 0.227392 -0.135922 0.433754 
31800 0.605131 -0.158359 -0.052558 0.500675 -0.077377 -0.432934 0.076825 0.011282 -0.268653 0.289271 0.226827 0.075709 0.069599 0.096328 -0.387766 -0.381528 -0.605609 0.140029 -0.173618 0.465032 
31900 0.606920 -0.163835 -0.051672 0.486532 -0.067000 -0.443072 0.066171 0.036030 -0.261236 0.301164 0.265376 0.145710 0.073181 0.129097 -0.397699 -0.350329 -0.574245 0.169582 -0.193270 0.457777 
32100 0.633698 0.005239 -0.179178 0.352900 -0.028483 -0.408873 -0.103221 0.399502 -0.174337 0.270402 0.352196 0.225913 0.186870 0.157668 -0.427390 -0.428335 -0.361687 0.304204 -0.113340 0.403491 
40100 -0.179790 -0.108592 0.450936 0.147215 -0.509781 -0.062728 -0.425585 0.092573 -0.307132 0.427824 0.233489 -0.079314 0.091134 0.364284 -0.164753 -0.160956 -0.685333 0.090694 -0.352583 0.378038 
40201 0.038321 -0.140204 0.405380 0.349171 -0.483507 -0.244763 -0.269838 0.035629 -0.395324 0.410572 0.215040 -0.043068 -0.010992 0.193500 -0.172720 -0.136743 -0.752350 0.067810 -0.364711 0.402700 
40202 -0.274108 -0.086286 0.463706 0.074283 -0.500517 0.013020 -0.461696 0.108848 -0.263276 0.389700 0.216130 -0.097082 0.049825 0.272461 -0.157803 -0.119601 -0.721839 0.073798 -0.407714 0.367709 
40300 -0.277140 -0.164322 0.537666 0.097193 -0.517867 -0.092524 -0.337453 0.037816 -0.299761 0.340224 0.217387 -0.117632 -0.022288 0.262714 -0.075649 -0.069271 -0.743650 0.083833 -0.429273 0.338451 
40401 0.531709 -0.155388 0.031696 0.509725 -0.156916 -0.442779 0.065475 -0.025446 -0.331655 0.310982 0.219713 -0.048960 0.032622 0.193925 -0.243430 -0.222022 -0.719265 0.101341 -0.309954 0.422400 
40402 0.422908 -0.169683 0.151271 0.495168 -0.276794 -0.424500 -0.016279 -0.021410 -0.377564 0.352405 0.221549 0.008388 0.049348 0.163175 -0.314413 -0.276441 -0.675893 0.119282 -0.296839 0.432823 
40600 0.584043 -0.158548 -0.028808 0.502535 -0.106024 -0.438716 0.084959 -0.019001 -0.291702 0.289834 0.218339 0.043757 -0.034816 0.152313 -0.280148 -0.262812 -0.708274 0.109840 -0.269223 0.438464 
40700 0.597171 -0.173299 -0.038242 0.490409 -0.103154 -0.440046 0.089363 -0.012416 -0.278210 0.285603 0.206212 -0.026478 -0.035919 0.106094 -0.172705 -0.161825 -0.763461 0.054775 -0.364148 0.411992 
40800 0.601542 -0.159110 -0.054453 0.496697 -0.086771 -0.435018 0.084246 -0.011771 -0.275827 0.288223 0.207504 0.014838 -0.092310 0.099174 -0.197858 -0.162245 -0.742433 0.087256 -0.351626 0.436387 
40900 0.599364 -0.155362 -0.047896 0.498403 -0.087713 -0.437349 0.088447 -0.005494 -0.280598 0.283496 0.219684 0.083785 -0.019032 0.102997 -0.321885 -0.286840 -0.678786 0.112979 -0.255174 0.457420 
50100 0.404050 -0.201250 0.103436 0.393916 0.176902 -0.623637 0.112842 0.244658 -0.213960 0.302960 0.262344 0.183711 -0.002094 0.049004 -0.359860 -0.373253 -0.579097 0.177811 -0.189222 0.472682 
50200 0.593410 -0.168978 -0.039386 0.485663 -0.054855 -0.460786 0.089008 0.027860 -0.267247 0.294005 0.242600 0.177986 -0.120222 0.029738 -0.310811 -0.308835 -0.633494 0.156506 -0.228348 0.473492 
50300 0.607256 -0.164503 -0.051991 0.493005 -0.080723 -0.434439 0.085916 0.000952 -0.269303 0.288551 0.210737 0.110710 -0.162856 -0.007035 -0.242867 -0.213209 -0.704460 0.094263 -0.329442 0.445689 
50500 -0.053978 -0.172146 0.271078 0.061160 0.471130 -0.606112 0.091559 0.503619 -0.024565 0.195639 0.253206 0.242566 -0.138264 -0.062148 -0.333595 -0.342590 -0.549059 0.204904 -0.251907 0.467448 
50600 -0.006375 -0.179674 0.257730 0.091482 0.452328 -0.620926 0.092598 0.498889 -0.039753 0.209018 0.274736 0.287192 -0.100786 -0.078536 -0.369815 -0.427597 -0.428090 0.249592 -0.138641 0.491258 
50700 -0.214469 -0.136473 0.293402 -0.069154 0.513196 -0.521811 0.070439 0.533836 0.047527 0.129048 0.298069 0.346323 -0.143080 -0.116855 -0.338025 -0.439017 -0.363572 0.290330 -0.105408 0.471704 
50800 -0.224831 -0.133945 0.296812 -0.076054 0.514996 -0.516554 0.073021 0.531492 0.049165 0.123876 0.278030 0.326429 -0.172792 -0.121163 -0.323071 -0.407878 -0.431383 0.254210 -0.157150 0.474823 
50900 -0.229845 -0.134630 0.297412 -0.076496 0.515852 -0.513380 0.072495 0.531663 0.047454 0.122084 0.263304 0.305945 -0.208536 -0.153387 -0.277061 -0.368289 -0.487246 0.219907 -0.183576 0.488043 
51000 -0.245107 -0.132196 0.298708 -0.085129 0.516635 -0.506077 0.075014 0.531172 0.047249 0.113770 0.255516 0.329790 -0.217500 -0.188235 -0.237303 -0.384761 -0.449991 0.247722 -0.201175 0.484281 
51100 -0.232350 -0.126927 0.295686 -0.084473 0.511782 -0.514171 0.072582 0.535968 0.048793 0.118883 0.291589 0.362467 -0.174566 -0.097657 -0.321993 -0.411123 -0.385947 0.280312 -0.158735 0.467071 
51200 -0.229757 -0.127465 0.293734 -0.084170 0.511763 -0.514024 0.070683 0.538065 0.051429 0.119679 0.290997 0.356519 -0.142980 -0.099592 -0.359069 -0.458368 -0.311994 0.308206 -0.121530 0.460131 
51300 -0.230971 -0.126054 0.294034 -0.086565 0.511873 -0.511588 0.069011 0.539900 0.053496 0.118152 0.288710 0.365943 -0.161222 -0.081532 -0.313587 -0.474153 -0.277945 0.335881 -0.093810 0.477562 
51400 -0.236570 -0.131951 0.299299 -0.083382 0.516753 -0.508006 0.071000 0.531986 0.052168 0.119233 0.299719 0.366260 -0.158884 -0.111700 -0.264388 -0.462947 -0.310791 0.338503 -0.139095 0.472819 
60100 0.396261 -0.196223 0.093770 0.370004 0.216096 -0.614150 0.081875 0.301927 -0.189132 0.318223 0.292187 0.204617 0.089758 0.102736 -0.421920 -0.425334 -0.452919 0.230521 -0.109519 0.474292 
60200 0.410987 -0.201870 0.092264 0.377033 0.191577 -0.617694 0.097636 0.274777 -0.199957 0.310493 0.258268 0.180499 0.038847 0.048332 -0.414476 -0.410389 -0.527369 0.184409 -0.155470 0.469432 
60300 0.054897 -0.187403 0.239436 0.139023 0.428507 -0.637738 0.094240 0.479417 -0.062710 0.228533 0.293830 0.323780 -0.073871 -0.066291 -0.390359 -0.466635 -0.349142 0.289050 -0.120143 0.457129 
60400 0.156423 -0.175392 0.162685 0.135083 0.397268 -0.612487 0.032351 0.538405 -0.048343 0.271717 0.325435 0.352339 -0.025857 -0.052577 -0.409425 -0.442787 -0.309849 0.312576 -0.127529 0.439151 
60500 0.280691 -0.032529 0.012698 0.134387 0.327558 -0.552756 -0.051402 0.614951 -0.086036 0.317633 0.340852 0.289916 0.063880 0.059007 -0.419540 -0.448989 -0.343856 0.318047 -0.095090 0.431473 
60800 0.320329 0.457926 -0.274638 -0.159883 -0.289175 -0.277366 -0.039380 0.627228 -0.173674 -0.031966 0.381450 0.297195 0.152692 0.202104 -0.428472 -0.429212 -0.260657 0.337185 -0.090412 0.379984 
60900 0.217174 0.468406 -0.253592 -0.290099 -0.363643 -0.213067 -0.022573 0.610731 -0.123720 -0.136100 0.399624 0.324212 0.150550 0.239900 -0.407856 -0.421939 -0.177680 0.386005 -0.115315 0.341648 
61000 0.246476 0.342193 -0.205967 -0.150837 0.044330 -0.355435 -0.114805 0.765810 -0.095154 0.141353 0.389495 0.351513 0.087127 0.092236 -0.418721 -0.448281 -0.219357 0.364865 -0.074474 0.381523 
61100 0.181725 0.105468 -0.021310 -0.048616 0.277208 -0.501577 -0.065771 0.753109 -0.050833 0.224785 0.355929 0.360911 0.026032 -0.016333 -0.418612 -0.462673 -0.250187 0.344045 -0.078971 0.406958 
61200 0.140895 -0.027733 0.065914 0.011227 0.370535 -0.547569 -0.042308 0.685888 -0.024566 0.254843 0.336439 0.360528 -0.010512 -0.029629 -0.415669 -0.472162 -0.253493 0.338156 -0.079473 0.418567 
61500 -0.074097 0.057564 0.117131 -0.139448 0.411548 -0.493083 -0.020787 0.721232 0.015350 0.157114 0.344155 0.385562 -0.032771 -0.043941 -0.395602 -0.461871 -0.231724 0.352248 -0.088654 0.417653 
61800 0.178297 0.501386 -0.243496 -0.282383 -0.273848 -0.241035 -0.026534 0.644167 -0.141560 -0.094904 0.384987 0.404301 0.060702 0.130785 -0.404814 -0.448323 -0.138334 0.368907 -0.060402 0.379198 
61901 0.148566 0.512736 -0.217761 -0.292284 -0.355758 -0.241696 0.032223 0.584186 -0.164450 -0.166863 0.388483 0.397968 0.059300 0.181509 -0.390424 -0.447971 -0.039512 0.429585 -0.067238 0.332426 
61902 0.146592 0.476235 -0.198658 -0.301247 -0.435966 -0.251641 0.069813 0.539637 -0.152133 -0.221089 0.367904 0.366930 0.053332 0.292801 -0.417486 -0.420914 -0.092312 0.392366 -0.103223 0.341820 
62000 0.158726 0.504332 -0.232475 -0.295469 -0.317872 -0.257202 0.009153 0.610991 -0.152885 -0.123066 0.392244 0.393767 0.082996 0.174708 -0.385812 -0.451493 -0.031270 0.430829 -0.054393 0.333817 
62100 0.102204 0.393964 -0.135025 -0.289803 -0.075230 -0.375719 -0.011491 0.758252 -0.097722 -0.026027 0.397305 0.412270 0.040547 0.059152 -0.367724 -0.450297 -0.130430 0.405554 -0.060772 0.379305 
62200 0.045935 0.290574 -0.055186 -0.273007 0.068787 -0.437868 -0.017122 0.797630 -0.051569 0.015894 0.372664 0.400880 0.001572 0.036357 -0.397409 -0.452635 -0.192657 0.373424 -0.078969 0.391768 
62300 -0.084549 0.087226 0.115370 -0.192746 0.321265 -0.505141 -0.001953 0.755337 0.020010 0.073923 0.338313 0.405113 -0.049284 -0.020465 -0.380944 -0.472895 -0.202434 0.357385 -0.084551 0.417109 
62400 -0.177621 -0.072484 0.239400 -0.121267 0.465101 -0.520832 0.043737 0.620623 0.048860 0.118835 0.333069 0.383637 -0.078284 -0.072278 -0.365883 -0.450959 -0.274425 0.342584 -0.101031 0.436373 
62500 -0.216024 -0.114563 0.281452 -0.088139 0.506872 -0.514370 0.062471 0.556684 0.049392 0.124460 0.308158 0.366226 -0.109221 -0.090354 -0.361506 -0.452423 -0.296350 0.323828 -0.104457 0.460273 
62600 -0.230566 -0.118345 0.290435 -0.094451 0.505510 -0.514021 0.070300 0.546992 0.051539 0.114035 0.305108 0.379264 -0.113997 -0.064273 -0.336453 -0.478247 -0.250709 0.345254 -0.098764 0.460664 
62700 -0.170295 -0.010091 0.219052 -0.165302 0.392952 -0.536387 0.060592 0.665680 0.027330 0.076933 0.317324 0.400049 -0.114295 -0.033266 -0.352454 -0.478970 -0.189244 0.369654 -0.082481 0.438407 
62800 -0.120713 0.155411 0.129534 -0.229285 0.234220 -0.542269 0.075402 0.731929 -0.037601 0.013798 0.345067 0.413443 -0.068986 -0.006241 -0.358586 -0.474140 -0.174858 0.375526 -0.079154 0.417064 
62900 -0.012037 0.324871 -0.006608 -0.297383 -0.066814 -0.482386 0.084390 0.734820 -0.092689 -0.114019 0.373034 0.435171 -0.058516 0.059214 -0.344903 -0.443094 -0.163174 0.405549 -0.117165 0.380036 
63000 0.141754 0.413046 -0.159398 -0.325806 -0.321355 -0.321037 0.045709 0.656049 -0.113545 -0.161324 0.386601 0.456422 -0.013026 0.146032 -0.340026 -0.420378 -0.045125 0.444056 -0.126232 0.336499 
63100 0.149670 0.491994 -0.204447 -0.293781 -0.375783 -0.248423 0.040272 0.586619 -0.151322 -0.189383 0.376933 0.426985 0.011555 0.188847 -0.366825 -0.447829 -0.020569 0.434038 -0.065705 0.334017 
63200 0.130144 0.493297 -0.188612 -0.303058 -0.444991 -0.255605 0.093580 0.504973 -0.180170 -0.229640 0.370163 0.389317 0.067266 0.349730 -0.363066 -0.407869 0.084392 0.449267 -0.126498 0.247864 
63301 0.133519 0.501046 -0.198396 -0.307339 -0.430674 -0.249456 0.084647 0.516415 -0.181290 -0.207084 0.374856 0.426582 0.052008 0.302968 -0.340089 -0.430608 0.114058 0.433045 -0.011087 0.285083 
63302 0.122892 0.494567 -0.181847 -0.307950 -0.442716 -0.258333 0.099890 0.503187 -0.184999 -0.228621 0.363449 0.429429 0.046977 0.311022 -0.331452 -0.433011 0.142630 0.439591 -0.052237 0.266236 
63303 0.118900 0.497769 -0.177533 -0.297835 -0.443117 -0.267138 0.103677 0.495225 -0.189987 -0.240954 0.353105 0.449940 0.013701 0.379126 -0.362220 -0.370284 0.090244 0.411706 -0.170119 0.232479 
63400 0.136605 0.516240 -0.210184 -0.301465 -0.392728 -0.248000 0.063140 0.540784 -0.182624 -0.185072 0.404543 0.452206 0.002759 0.234368 -0.320248 -0.394023 0.014426 0.473794 -0.109806 0.286983 
70101 0.110788 0.497704 -0.172968 -0.303564 -0.449166 -0.266126 0.117792 0.486379 -0.193958 -0.239408 0.309884 0.409507 -0.075914 0.404867 -0.355819 -0.374168 0.099808 0.429743 -0.203896 0.252531 
70102 0.121888 0.504113 -0.180704 -0.296187 -0.440235 -0.254871 0.105487 0.499357 -0.190392 -0.234802 0.368180 0.449380 -0.008666 0.342388 -0.316099 -0.364225 0.116489 0.463841 -0.135241 0.256144 
70103 0.115328 0.493481 -0.167556 -0.301938 -0.448744 -0.266528 0.119975 0.489749 -0.194506 -0.243816 0.337977 0.448676 -0.034430 0.359810 -0.311755 -0.415516 0.104819 0.430417 -0.121247 0.270224 
70200 0.128508 0.486335 -0.182725 -0.310643 -0.444450 -0.261292 0.097470 0.508077 -0.177209 -0.228519 0.346196 0.437498 -0.038457 0.267883 -0.321266 -0.433618 0.138793 0.468936 -0.069885 0.283228 
70300 0.124969 0.497360 -0.191226 -0.301664 -0.409289 -0.269713 0.080265 0.534412 -0.174888 -0.215777 0.340027 0.429550 -0.045901 0.266008 -0.316658 -0.450951 0.026455 0.441603 -0.086343 0.346704 
70400 0.044992 0.439595 -0.087088 -0.315943 -0.272894 -0.393137 0.120939 0.625346 -0.166473 -0.186825 0.356706 0.456842 -0.104617 0.150026 -0.289591 -0.436482 -0.061747 0.451293 -0.131744 0.362477 
70500 -0.000547 0.378247 -0.029963 -0.302743 -0.149613 -0.456567 0.113041 0.694032 -0.129913 -0.149010 0.311052 0.435732 -0.157488 0.053171 -0.267056 -0.490143 -0.064994 0.435246 -0.105184 0.411665 
70600 -0.171156 0.035290 0.194204 -0.187574 0.363887 -0.535536 0.060357 0.685378 0.016891 0.060641 0.296656 0.395333 -0.122978 0.034591 -0.251869 -0.510234 -0.114904 0.422530 -0.088169 0.464868 
70700 -0.235495 -0.120157 0.290210 -0.093976 0.505043 -0.513180 0.071851 0.546202 0.048395 0.113082 0.294591 0.388081 -0.123985 -0.049238 -0.209333 -0.511984 -0.170840 0.413352 -0.130891 0.470835 
71000 0.114815 0.504274 -0.179117 -0.304714 -0.433426 -0.262434 0.106854 0.501574 -0.193006 -0.224981 0.262295 0.418758 -0.126806 0.266654 -0.216414 -0.486750 0.101592 0.467529 -0.149418 0.365607 
71100 0.116162 0.494692 -0.170923 -0.298364 -0.446971 -0.265686 0.114638 0.493247 -0.191971 -0.244725 0.282548 0.454256 -0.189141 0.334872 -0.255275 -0.425417 0.109662 0.433516 -0.105084 0.329779 
71200 0.114716 0.494021 -0.170126 -0.302126 -0.450830 -0.266471 0.120004 0.486955 -0.194984 -0.242406 0.304201 0.423178 -0.081608 0.386247 -0.247667 -0.394346 0.208653 0.466785 -0.144914 0.270671 
71300 0.116431 0.496360 -0.173436 -0.301656 -0.446270 -0.263820 0.111993 0.492777 -0.191412 -0.241299 0.311342 0.426240 -0.100850 0.485120 -0.258678 -0.339170 0.141801 0.423592 -0.179364 0.249427 
71400 0.113556 0.501279 -0.169052 -0.290671 -0.445155 -0.261697 0.116424 0.489939 -0.192651 -0.255732 0.243059 0.380245 -0.118326 0.548586 -0.307743 -0.356502 0.185723 0.351749 -0.275988 0.158743 
71500 0.335479 0.253937 -0.025788 -0.004700 0.018554 -0.535157 -0.084217 0.717606 0.101422 -0.056646 0.140128 0.265694 -0.144745 0.629439 -0.251334 -0.355286 0.262201 0.330269 -0.301264 0.186123 
71600 0.110031 0.496449 -0.169941 -0.300760 -0.451179 -0.268681 0.121671 0.482062 -0.195527 -0.246828 0.216676 0.373192 -0.188380 0.542027 -0.194771 -0.391815 0.218105 0.381629 -0.145826 0.280300 
71700 0.110728 0.495788 -0.165622 -0.300699 -0.456158 -0.265921 0.127958 0.477189 -0.198333 -0.248736 0.143301 0.324811 -0.237517 0.598914 -0.163561 -0.396300 0.230280 0.330955 -0.133899 0.307501 
71800 0.111267 0.495520 -0.176896 -0.300705 -0.450862 -0.268022 0.112137 0.492033 -0.186153 -0.236491 0.167213 0.330272 -0.182078 0.483450 -0.173280 -0.458353 0.295409 0.397132 -0.114646 0.312805 
80100 0.114926 0.254294 -0.284973 -0.472211 -0.168675 -0.171353 -0.316090 0.365580 -0.366000 0.438866 0.080400 0.213500 -0.254076 0.731638 -0.233663 -0.296816 0.265800 0.258928 -0.174067 0.193429 
80201 0.180323 0.293234 -0.529575 0.011819 -0.248171 -0.037079 -0.374391 0.560170 0.284522 0.055071 0.090829 0.185484 -0.238144 0.709955 -0.219240 -0.334688 0.262893 0.306126 -0.180889 0.202404 
80202 0.102834 0.705163 -0.214213 -0.250416 -0.234118 0.019516 -0.015226 0.534852 -0.160631 -0.127601 0.106282 0.180297 -0.208469 0.741240 -0.201986 -0.281306 0.306247 0.304790 -0.195252 0.136239 
80300 0.667795 0.262235 -0.351713 -0.249127 -0.270740 0.212892 -0.089439 0.373489 0.123436 -0.134768 0.076335 0.233686 -0.191510 0.707401 -0.159880 -0.379851 0.299315 0.257134 -0.150422 0.233001 
80400 0.105518 0.476360 -0.269854 -0.236812 -0.383659 -0.244404 0.050927 0.564999 -0.225576 -0.231120 0.072244 0.271640 -0.208719 0.613452 -0.142244 -0.450525 0.314536 0.279993 -0.111016 0.297062 
81000 -0.026078 0.314111 -0.047328 0.064856 -0.352374 -0.210550 -0.287427 0.729040 -0.111738 -0.314817 0.022015 0.111769 -0.287960 0.696394 -0.213488 -0.289796 0.408947 0.291773 -0.121641 0.149710 
81100 0.241811 0.312263 -0.423236 0.114677 -0.050619 -0.556165 -0.187241 0.436257 0.107912 0.320677 0.010711 0.072303 -0.302268 0.735796 -0.279661 -0.270707 0.327146 0.250640 -0.171058 0.106291 
81201 0.082249 0.078649 -0.233525 0.477014 0.621707 -0.404599 0.029866 0.099298 -0.261530 0.274961 0.002060 0.095834 -0.341477 0.708330 -0.292005 -0.286646 0.333658 0.233467 -0.185657 0.068836 
81202 0.255886 0.634052 -0.228947 -0.426064 -0.152410 -0.009618 -0.165524 0.497757 0.006569 -0.005263 0.036714 0.093480 -0.175139 0.723793 -0.304354 -0.329361 0.338329 0.247091 -0.207315 0.125510 
81300 0.126272 -0.001848 -0.740010 -0.032306 -0.035293 0.381945 -0.166307 0.491387 -0.058257 -0.125509 -0.018032 0.014427 -0.231940 0.703697 -0.330503 -0.324143 0.390398 0.213074 -0.195827 -0.004558 
81401 0.465456 0.434406 -0.487215 -0.149818 -0.300432 0.073880 -0.286212 0.376321 -0.085353 -0.090997 -0.025011 0.091188 -0.247099 0.688383 -0.354674 -0.319695 0.395413 0.157305 -0.216877 -0.000618 
81402 0.336417 0.162183 -0.283168 0.174470 -0.079051 -0.049748 -0.326286 0.794261 -0.058818 0.020012 -0.089982 -0.019633 -0.216413 0.633096 -0.419073 -0.394225 0.372413 0.068063 -0.254177 -0.070044 
81403 0.601721 -0.357280 -0.273171 0.138951 -0.162705 -0.346672 -0.080166 0.491096 0.129608 -0.072798 -0.094040 -0.080399 -0.134932 0.581205 -0.394713 -0.454587 0.454517 0.099065 -0.210400 -0.074630 
81500 -0.103117 0.152811 0.380140 0.576345 -0.056600 -0.590290 0.085650 0.336870 0.092992 0.090688 -0.042681 -0.003384 -0.297792 0.713325 -0.372211 -0.249101 0.348613 0.195783 -0.195326 0.045255 
81600 0.333395 -0.328573 0.200980 0.283733 -0.445283 0.194548 -0.111139 0.366490 0.222790 0.477034 -0.076156 0.040314 -0.284073 0.705597 -0.313809 -0.332688 0.364160 0.160390 -0.185433 0.110136 
81700 0.300773 -0.011115 0.473702 0.032955 0.129784 0.532549 -0.371967 0.465585 -0.077199 -0.149636 -0.071510 0.007936 -0.340916 0.677001 -0.299451 -0.338791 0.362063 0.212462 -0.164244 0.112309 
81800 -0.486501 -0.017275 0.122682 -0.453771 0.621801 -0.298975 0.101423 -0.177143 0.145056 0.057700 -0.139579 0.064329 -0.303973 0.646567 -0.202270 -0.379389 0.356889 0.128217 -0.191534 0.317155 
81900 0.408252 0.496508 -0.275404 -0.350187 -0.375810 -0.149161 -0.014999 0.458807 0.114901 -0.030306 -0.074913 0.099314 -0.300029 0.660440 -0.165860 -0.387004 0.323592 0.210345 -0.181613 0.314811 
90100 0.187122 -0.053664 0.014578 -0.351008 0.232549 -0.298754 -0.598547 -0.312577 -0.341401 -0.350479 0.364362 -0.349757 0.290848 0.175061 0.185487 0.265388 -0.000997 0.421121 -0.579927 -0.105720 
90200 0.185609 -0.054750 0.015036 -0.349522 0.234355 -0.299998 -0.594812 -0.317231 -0.341237 -0.352647 0.435822 -0.276233 0.310651 0.142489 0.169823 0.251039 -0.067378 0.437852 -0.558594 -0.129638 
90300 0.192025 -0.054227 0.020719 -0.351649 0.239502 -0.290663 -0.592617 -0.314892 -0.347534 -0.350887 0.376300 -0.328764 0.314052 0.203343 0.198877 0.250409 0.014553 0.410655 -0.563490 -0.147338 
100100 0.207002 -0.037868 0.059149 -0.351922 0.262220 -0.256604 -0.558611 -0.310597 -0.392376 -0.362337 0.381129 -0.219023 0.220190 0.190134 0.125023 0.284047 -0.117674 0.348956 -0.689008 -0.124388 
100200 0.206897 -0.042666 0.056863 -0.355670 0.256756 -0.258668 -0.564206 -0.309296 -0.384745 -0.361642 0.374397 -0.271147 0.285980 0.125932 0.113090 0.256858 -0.115241 0.362570 -0.672880 -0.111318 
100300 0.201516 -0.044317 0.045156 -0.353191 0.252529 -0.271406 -0.574157 -0.312810 -0.373066 -0.355708 0.335439 -0.307729 0.308429 0.152333 0.186602 0.250487 -0.008156 0.358308 -0.654316 -0.142498 
100400 0.185264 -0.048037 0.023308 -0.346823 0.242750 -0.291089 -0.588399 -0.318662 -0.355421 -0.353266 0.393361 -0.271497 0.299166 0.150384 0.189471 0.251174 -0.061174 0.389266 -0.622731 -0.131868 
100500 0.194439 -0.049864 0.030990 -0.353424 0.244661 -0.282921 -0.583040 -0.314870 -0.360033 -0.353881 0.319396 -0.366075 0.297903 0.144558 0.205632 0.235855 0.007725 0.374014 -0.627219 -0.151888 
100600 0.227447 -0.037199 0.088351 -0.361711 0.272400 -0.223191 -0.538999 -0.299064 -0.417921 -0.360014 0.383054 -0.248283 0.327523 0.140893 0.150072 0.251081 -0.034260 0.370206 -0.650162 -0.134173 
100700 0.246775 -0.045534 0.111669 -0.364527 0.278250 -0.197061 -0.522192 -0.285481 -0.430179 -0.369033 0.384332 -0.239486 0.295808 0.074635 0.065997 0.227098 -0.067192 0.401625 -0.681346 -0.126029 
110100 0.209846 -0.034522 0.080259 -0.348614 0.266398 -0.244591 -0.546383 -0.304599 -0.406346 -0.373597 0.425424 -0.153054 0.200899 0.144944 0.049324 0.284849 -0.265479 0.308983 -0.684437 -0.127453 
110200 0.269234 -0.012583 0.144399 -0.362739 0.313138 -0.135190 -0.493642 -0.264293 -0.472545 -0.348942 0.395602 -0.177972 0.241994 0.117352 0.113532 0.273862 -0.180618 0.337874 -0.701546 -0.112490 
110300 0.264965 -0.045589 0.130900 -0.371374 0.287743 -0.166526 -0.506024 -0.270408 -0.447054 -0.364824 0.383262 -0.252731 0.306458 0.065631 0.126586 0.261979 -0.152220 0.293367 -0.688302 -0.152842 
110400 0.282535 -0.004257 0.163361 -0.366470 0.321737 -0.101707 -0.467670 -0.248357 -0.497907 -0.342056 0.418694 -0.104244 0.258813 0.148369 0.128910 0.268910 -0.198190 0.298796 -0.703309 -0.112689 
110501 0.334939 -0.062971 0.214913 -0.396323 0.300177 -0.046702 -0.428897 -0.202146 -0.491601 -0.349021 0.440134 -0.084762 0.170139 0.124106 0.055072 0.287632 -0.296362 0.314495 -0.688634 -0.089597 
110502 0.331078 -0.002088 0.235376 -0.368277 0.341316 0.008329 -0.382773 -0.191477 -0.545528 -0.319385 0.398937 -0.121026 0.177039 0.024951 0.126191 0.307369 -0.359008 0.221154 -0.707606 -0.073032 
120100 0.199518 -0.049876 0.040031 -0.352986 0.247574 -0.274910 -0.579887 -0.311604 -0.364719 -0.358119 0.377002 -0.225216 0.214941 0.219462 0.084065 0.232737 -0.287588 0.342648 -0.670185 -0.047832 
120200 0.199727 -0.046011 0.040196 -0.349013 0.250103 -0.273322 -0.578202 -0.310509 -0.367953 -0.362197 0.409182 -0.133650 0.253367 0.176419 0.044045 0.219721 -0.331100 0.295909 -0.685575 -0.044377 
120300 0.175519 0.044655 0.017528 0.237025 0.266116 -0.458027 -0.458724 -0.370503 -0.504631 -0.166591 0.356425 -0.118973 0.034981 0.211703 0.008927 0.242978 -0.498054 0.261655 -0.658751 0.056324 
120400 0.274873 -0.003192 0.155722 -0.363172 0.322780 -0.113213 -0.473280 -0.253290 -0.496200 -0.341940 0.415703 -0.083563 0.126140 0.077842 0.036692 0.294829 -0.413960 0.237011 -0.692563 -0.052785 
130100 -0.207834 -0.130968 0.405132 -0.070058 -0.546021 -0.028194 -0.391333 0.006053 -0.189679 0.531528 0.240179 -0.156328 -0.006438 0.313164 -0.057679 0.040257 -0.657443 0.169761 -0.534875 0.260141 
130200 0.265238 -0.022088 0.203137 -0.356040 0.346233 -0.107664 -0.435841 -0.239744 -0.504842 -0.356880 0.356776 -0.016937 -0.055730 0.153586 0.059370 0.216032 -0.555596 0.211252 -0.660066 0.080834 
130300 -0.335166 -0.000154 0.448479 0.078125 -0.424317 0.029761 -0.482718 0.086951 -0.303827 0.408176 0.251547 -0.069784 -0.004248 0.319737 -0.059990 -0.000578 -0.713280 0.083804 -0.462523 0.310300 
140100 0.224506 -0.030751 0.198007 0.004578 -0.225090 0.143398 -0.748589 0.517722 -0.009919 0.098367 0.231267 -0.048920 -0.148334 0.181565 -0.060246 -0.005103 -0.740349 0.109250 -0.469040 0.324725 
140200 0.450564 -0.077235 -0.183599 0.524135 -0.070801 -0.179972 -0.201647 0.477770 -0.419804 -0.006064 0.228859 0.004730 -0.261076 0.105587 0.005616 0.136214 -0.713698 0.051937 -0.517409 0.264446 
140301 0.341765 -0.168123 0.327222 -0.239476 0.486043 -0.098047 -0.156086 0.329777 -0.377803 -0.410862 0.306234 0.026096 -0.183745 0.004787 0.013183 0.202625 -0.668181 0.119627 -0.584882 0.166315 
140302 0.175964 0.150186 0.518388 -0.048819 0.296488 0.180891 -0.033416 -0.054941 -0.708995 -0.218944 0.271419 0.002382 -0.191976 0.066733 0.043094 0.169891 -0.693709 0.087906 -0.563909 0.217592 
140400 0.263691 0.024184 0.132460 -0.169722 0.330013 -0.143500 -0.545010 -0.188289 -0.570771 -0.309453 0.380528 -0.008304 -0.078819 0.074064 0.022373 0.280285 -0.461476 0.303736 -0.674613 0.063668 
140500 0.370591 0.014638 0.466575 -0.045780 0.195350 0.258895 0.334826 -0.054966 -0.555247 -0.337704 0.363757 0.044981 -0.082093 0.023467 0.095967 0.199789 -0.597029 0.171459 -0.642292 0.104216 
140601 0.462428 -0.423152 -0.053501 0.153696 -0.159341 0.128033 -0.378013 0.154315 -0.367770 -0.486697 0.299104 0.038567 -0.206687 -0.027777 0.051063 0.200440 -0.613842 0.150365 -0.621742 0.191833 
140602 0.597826 -0.207576 0.218598 0.249091 -0.163692 0.078166 -0.310238 -0.093573 -0.592747 -0.020711 0.253559 0.004694 -0.235519 0.032451 0.054488 0.156022 -0.704882 0.062686 -0.549837 0.220777 
140701 -0.218432 -0.430437 0.510803 0.071710 -0.211832 -0.205842 -0.067017 -0.211952 -0.381918 0.467364 0.194399 0.007920 -0.279498 0.080712 0.020572 0.105456 -0.716646 0.042153 -0.510054 0.300757 
140702 0.384329 -0.044805 0.092051 0.507658 0.192264 0.027226 -0.374538 0.284272 -0.204519 0.532418 0.241980 0.024585 -0.264786 -0.001298 0.043227 0.094073 -0.716577 0.094753 -0.510053 0.278199 
140800 0.138257 -0.235446 0.685194 -0.132779 -0.254953 0.339573 -0.057041 0.295326 -0.402419 0.074881 0.208029 0.023262 -0.200049 0.041307 -0.043769 -0.052826 -0.751179 0.059966 -0.457200 0.364490 
150200 0.437621 -0.058285 0.405351 -0.341794 0.291751 0.307507 -0.079544 0.018650 -0.536003 -0.224287 0.451328 -0.001305 0.122471 -0.085455 0.047578 0.264415 -0.387195 0.285452 -0.684253 -0.047077 
150300 0.398906 -0.081362 0.310816 -0.397867 0.300234 0.096567 -0.299647 -0.117249 -0.522777 -0.321019 0.394802 -0.181921 0.236431 -0.078136 0.066053 0.277988 -0.281004 0.280345 -0.707661 -0.095127 
150401 0.342282 -0.034473 0.245006 -0.384078 0.321721 0.001980 -0.378369 -0.188549 -0.529607 -0.333774 0.376893 -0.228495 0.251834 -0.026061 0.068495 0.302497 -0.206086 0.276083 -0.712801 -0.136628 
150402 0.377767 -0.063106 0.298178 -0.386374 0.314703 0.073419 -0.314431 -0.145835 -0.534601 -0.323657 0.362796 -0.234612 0.323272 -0.096968 0.108404 0.265379 -0.235926 0.220157 -0.707915 -0.109438 
150501 0.364091 -0.085262 0.257847 -0.406410 0.291827 -0.000779 -0.374969 -0.173838 -0.499754 -0.350393 0.371698 -0.248615 0.316328 0.009932 0.163158 0.259520 -0.157152 0.273539 -0.696610 -0.145298 
150502 0.369817 -0.062179 0.275382 -0.398313 0.311028 0.044003 -0.347268 -0.155161 -0.522549 -0.329361 0.333987 -0.287103 0.344077 -0.061947 0.160642 0.266633 -0.174603 0.221864 -0.701394 -0.123433 
150600 0.388759 -0.006369 0.349585 -0.351538 0.342587 0.196285 -0.189685 -0.079270 -0.578032 -0.266005 0.287008 -0.324684 0.290132 -0.159337 0.119419 0.298723 -0.179301 0.190293 -0.717011 -0.129156 
150700 0.433629 -0.061120 0.412022 -0.341110 0.289811 0.305777 -0.071139 0.016520 -0.536038 -0.227930 0.424979 -0.100534 0.277204 -0.137673 0.034481 0.254193 -0.234732 0.294540 -0.706402 -0.082636 
150800 0.438413 -0.077218 0.453430 -0.295871 0.246709 0.408528 0.068243 0.102580 -0.487468 -0.167713 0.415868 -0.061912 0.162634 -0.158795 0.022125 0.238803 -0.302364 0.320741 -0.719339 -0.047856 
151001 0.433359 -0.053246 0.442226 -0.293570 0.269232 0.399308 0.050652 0.088029 -0.507018 -0.168235 0.440591 -0.025697 0.190827 -0.211961 0.037273 0.217087 -0.244660 0.342397 -0.701143 -0.081637 
151002 0.403900 -0.001893 0.438554 -0.223189 0.268752 0.482284 0.144700 0.141414 -0.490833 -0.089662 0.433982 0.011024 0.121961 -0.233643 0.064299 0.201321 -0.353610 0.307002 -0.690654 -0.033414 
151100 0.397773 0.007742 0.432945 -0.270254 0.305124 0.395645 0.051051 0.064683 -0.546397 -0.162057 0.430019 -0.101157 0.313799 -0.199384 0.022634 0.237567 -0.190414 0.298442 -0.686290 -0.115572 
151200 0.434659 -0.070407 0.418630 -0.343909 0.282131 0.306980 -0.062420 0.016643 -0.531436 -0.228381 0.348215 -0.233139 0.325902 -0.184615 0.104968 0.275848 -0.162215 0.222978 -0.711443 -0.121665 
160100 0.430939 -0.113430 0.360335 -0.394934 0.274848 0.158717 -0.227435 -0.065130 -0.510722 -0.313165 0.428928 0.040858 0.012696 0.002148 0.045367 0.258429 -0.454253 0.277671 -0.679576 0.008470 
160200 0.424443 -0.082860 0.469181 -0.260500 0.216016 0.461008 0.160709 0.157711 -0.447283 -0.122632 0.379735 0.009701 -0.008533 -0.105875 0.026542 0.235263 -0.484946 0.243307 -0.701263 0.047243 
160300 0.305310 -0.093598 0.314667 0.114767 0.080515 0.233388 0.271281 0.019758 -0.752370 -0.291275 0.345272 0.064743 -0.095338 -0.154117 0.066816 0.184674 -0.598386 0.134612 -0.643224 0.123539 
160400 -0.622802 -0.656306 -0.191043 -0.005669 0.082230 0.121137 0.062739 -0.164345 0.185243 -0.241153 0.264920 0.053835 -0.235156 -0.110137 0.052729 0.106847 -0.673798 0.113054 -0.562559 0.249072 
160501 -0.464624 -0.024751 -0.318922 0.102768 0.351937 0.049943 -0.239135 0.335248 -0.611093 -0.043301 0.233969 0.059785 -0.283610 -0.053135 0.028376 0.058561 -0.697592 0.094926 -0.525806 0.286485 
160502 -0.328678 -0.199656 0.144853 0.444566 0.000200 -0.095032 -0.474892 -0.053846 -0.591920 0.213694 0.216667 0.061469 -0.315170 -0.058674 0.035743 0.042433 -0.684323 0.096413 -0.527546 0.295849 
160601 0.426028 -0.531774 -0.369134 0.160961 -0.063104 -0.039243 -0.271733 0.391723 -0.101000 0.361304 0.218101 0.091230 -0.286931 0.045494 0.002475 -0.025303 -0.721874 0.088455 -0.445273 0.363139 
160602 -0.268351 -0.595305 0.062058 -0.004237 -0.059941 0.251056 -0.203606 0.551169 -0.283012 0.278873 0.205969 0.144225 -0.291993 -0.071120 -0.094758 -0.096455 -0.652800 0.128258 -0.483859 0.389177 
160700 0.382330 -0.468441 0.059672 0.043840 -0.159119 -0.422866 -0.527572 -0.116322 -0.232349 0.280928 0.214653 0.122032 -0.306313 -0.142260 -0.001852 -0.105422 -0.676772 0.126235 -0.422011 0.402244 
160800 -0.186665 -0.693111 -0.278115 -0.013491 0.031246 0.280350 0.081141 0.309561 -0.431680 -0.197212 0.226739 0.078068 -0.284112 -0.183075 0.126414 0.007009 -0.636337 0.124815 -0.547265 0.303688 
160900 -0.155824 -0.669673 -0.398975 -0.046108 -0.044383 0.226702 0.015363 0.319691 -0.361824 -0.281481 0.294064 0.096447 -0.231223 -0.186719 0.107825 0.075396 -0.611756 0.164694 -0.590744 0.219630 
161000 -0.453270 -0.327543 0.172017 0.329814 -0.367119 -0.224416 -0.104005 0.130988 -0.559756 0.149844 0.342155 0.083764 -0.140256 -0.236149 0.136293 0.169695 -0.508796 0.200706 -0.662805 0.120983 
161100 0.427619 -0.087634 0.471369 -0.248175 0.208113 0.470924 0.165213 0.163585 -0.435216 -0.130897 0.386823 0.060700 -0.018423 -0.219362 0.120838 0.179018 -0.466595 0.251022 -0.683316 0.062704 
161200 0.431316 -0.087758 0.462662 -0.251790 0.209491 0.480219 0.169434 0.173291 -0.430617 -0.100723 0.387043 0.090440 -0.052352 -0.354244 0.124559 0.176822 -0.368856 0.282081 -0.671206 0.029418 
161300 0.113482 0.007032 0.238071 -0.178515 0.451156 0.062868 -0.159328 -0.143869 -0.744746 -0.300503 0.320778 0.133297 -0.190539 -0.378496 0.171212 0.114844 -0.447869 0.213996 -0.627303 0.131820 
170100 0.309446 -0.051916 0.185837 -0.389851 0.301467 -0.090847 -0.454762 -0.230705 -0.482863 -0.350290 0.331009 -0.310090 0.377152 -0.022443 0.163863 0.257064 -0.067057 0.282766 -0.680303 -0.106451 
170200 0.391324 -0.063417 0.306504 -0.393278 0.313645 0.098765 -0.299428 -0.122450 -0.534021 -0.310279 0.311286 -0.329587 0.367810 -0.088524 0.152744 0.276750 -0.143533 0.221933 -0.685925 -0.105273 
170300 0.331758 -0.021797 0.227779 -0.374363 0.332955 -0.010637 -0.397609 -0.200706 -0.529016 -0.328975 0.322286 -0.367643 0.367555 0.019296 0.216942 0.262950 -0.044825 0.300347 -0.628878 -0.146937 
170400 0.250369 -0.043687 0.109285 -0.370588 0.280044 -0.191309 -0.526167 -0.280765 -0.429535 -0.361833 0.331679 -0.345433 0.369641 0.028546 0.206399 0.244223 0.025439 0.354637 -0.622732 -0.129460 
170500 0.210612 -0.042478 0.068102 -0.356399 0.262322 -0.249218 -0.552020 -0.310755 -0.394653 -0.366348 0.374342 -0.391644 0.360340 0.072172 0.176567 0.218956 -0.003570 0.410498 -0.545239 -0.162804 
170600 0.202794 -0.049975 0.045311 -0.355708 0.249967 -0.272019 -0.571351 -0.312675 -0.370723 -0.360103 0.354603 -0.320343 0.349308 0.103833 0.153263 0.244474 0.065665 0.402650 -0.610427 -0.128537 
170700 0.236525 -0.038148 0.107248 -0.356971 0.285892 -0.202170 -0.524130 -0.299805 -0.427145 -0.366081 0.351754 -0.390488 0.362942 0.064427 0.202250 0.224081 0.005558 0.387727 -0.568808 -0.151284 
170800 0.252298 -0.040277 0.139036 -0.363415 0.282532 -0.177786 -0.492739 -0.282378 -0.452376 -0.380417 0.308768 -0.375911 0.387751 0.027726 0.141384 0.220360 -0.002803 0.325901 -0.645171 -0.145672 
170900 0.315819 -0.065965 0.199689 -0.394108 0.293279 -0.083860 -0.439943 -0.229433 -0.481713 -0.359760 0.380546 -0.320160 0.394314 -0.026920 0.143020 0.245076 -0.022959 0.384501 -0.598669 -0.095834 
171000 0.387950 -0.090114 0.310773 -0.402133 0.295936 0.080084 -0.307769 -0.129901 -0.516639 -0.332537 0.318465 -0.349750 0.421098 -0.032066 0.186163 0.221394 -0.025732 0.289474 -0.639648 -0.143614 
171100 0.418467 -0.074047 0.366995 -0.377362 0.306129 0.199748 -0.196554 -0.059084 -0.537316 -0.279049 0.314270 -0.338469 0.353897 -0.167949 0.091558 0.262624 -0.151239 0.230417 -0.679952 -0.132544 
180100 0.373333 -0.085961 0.295268 -0.398922 0.297783 0.039217 -0.328203 -0.159659 -0.513722 -0.345803 0.350322 -0.317012 0.402613 -0.076580 0.087912 0.233602 -0.031765 0.343755 -0.645483 -0.103412 
190100 0.421587 -0.060114 0.458332 -0.245562 0.225674 0.479304 0.163776 0.162845 -0.451153 -0.103636 0.417948 0.121023 -0.016156 -0.422352 0.096773 0.188560 -0.276112 0.307939 -0.644976 -0.007228 
190200 0.427379 -0.077311 0.462645 -0.253159 0.213954 0.477197 0.164383 0.167892 -0.439047 -0.108515 0.423000 -0.030665 0.190125 -0.333570 0.064720 0.196855 -0.209732 0.327631 -0.687411 -0.076877 
190300 0.425461 -0.064491 0.457601 -0.266298 0.243629 0.451711 0.122732 0.131205 -0.472191 -0.125978 0.403543 -0.119717 0.289662 -0.275008 -0.015013 0.198820 -0.173184 0.329801 -0.689017 -0.100134 
190401 0.444023 -0.111049 0.408940 -0.368086 0.270616 0.259237 -0.121790 -0.003203 -0.507846 -0.273140 0.348829 -0.250740 0.391195 -0.166319 0.118084 0.218860 -0.086449 0.279852 -0.687992 -0.117407 
190402 0.444721 -0.075523 0.426204 -0.331474 0.273206 0.348469 -0.028438 0.052644 -0.513200 -0.204859 0.335737 -0.250756 0.341516 -0.236975 0.055149 0.215566 -0.106402 0.283177 -0.703337 -0.126129 
190601 0.428015 -0.084262 0.449540 -0.324253 0.261363 0.335131 0.002150 0.037639 -0.518938 -0.226130 0.348664 -0.264568 0.382686 -0.191386 0.042883 0.240352 -0.053221 0.320332 -0.670450 -0.103939 
190602 0.434273 -0.071618 0.456151 -0.280598 0.238749 0.435503 0.103066 0.123153 -0.475202 -0.145593 0.373521 -0.203163 0.345715 -0.298740 0.017358 0.206824 -0.086887 0.315913 -0.669957 -0.105702 
190701 0.445214 -0.122626 0.471939 -0.290724 0.196233 0.436902 0.124042 0.143143 -0.433853 -0.161262 0.412943 -0.097617 0.264503 -0.342147 -0.027191 0.223231 -0.117622 0.343766 -0.662531 -0.106740 
190702 0.433551 -0.102021 0.470846 -0.258767 0.194289 0.473765 0.174505 0.168759 -0.421956 -0.117424 0.397353 -0.088487 0.205458 -0.349205 0.079600 0.229591 -0.069937 0.362150 -0.680611 -0.108626 
190800 0.431929 -0.088414 0.462657 -0.256916 0.205574 0.480863 0.164408 0.174687 -0.428236 -0.105548 0.389982 -0.026290 0.154459 -0.416864 0.050827 0.178943 -0.194872 0.330893 -0.682655 -0.038759 
190900 0.440648 -0.131944 0.470718 -0.262029 0.171984 0.478341 0.185951 0.188937 -0.394731 -0.117086 0.352090 0.079900 -0.047167 -0.533359 0.123625 0.156501 -0.212342 0.297547 -0.639959 -0.002277 
191000 0.402091 -0.026516 0.454204 -0.248354 0.260168 0.468405 0.153099 0.139628 -0.479847 -0.096752 0.323214 0.032279 -0.007473 -0.607518 0.034698 0.116313 -0.081327 0.342682 -0.621738 0.004616 
191100 0.441619 -0.146416 0.482277 -0.264128 0.159688 0.466632 0.185467 0.181262 -0.388834 -0.139602 0.361544 -0.001410 0.067029 -0.518256 -0.006604 0.169685 -0.121446 0.344347 -0.658294 -0.026251 
191200 0.438527 -0.113216 0.469410 -0.263635 0.185868 0.474436 0.173470 0.176338 -0.412694 -0.117844 0.390186 -0.057255 0.167716 -0.383103 0.051477 0.180473 0.040788 0.427628 -0.662253 -0.106077 
191301 0.454909 -0.135202 0.469922 -0.311981 0.204114 0.398963 0.079534 0.114436 -0.446688 -0.191921 0.399550 -0.198122 0.350038 -0.214392 -0.031515 0.184207 -0.051729 0.400148 -0.650256 -0.109838 
191302 0.437791 -0.102695 0.467624 -0.273027 0.204973 0.455559 0.146184 0.150722 -0.439774 -0.132443 0.396875 -0.131936 0.328026 -0.290654 -0.033068 0.199851 0.025217 0.388517 -0.654593 -0.109064 
200100 0.443868 -0.137434 0.474473 -0.265820 0.167286 0.468701 0.183966 0.183303 -0.394948 -0.131209 0.371728 0.087899 -0.074656 -0.403362 0.158284 0.181552 -0.349603 0.261781 -0.660971 0.012971 
200200 -0.351040 -0.504085 -0.477421 0.105894 0.013699 0.118351 0.078654 0.240052 -0.525901 -0.170139 0.316264 0.117208 -0.138827 -0.529400 0.174461 0.077968 -0.295175 0.268366 -0.620419 0.078219 
200300 -0.279949 -0.602006 -0.466378 0.038984 -0.057588 0.126953 0.054079 0.263896 -0.466916 -0.173723 0.264762 0.111286 -0.203427 -0.583959 0.170670 0.046232 -0.194130 0.291715 -0.607860 0.107617 
200401 0.047258 -0.342385 -0.065187 -0.178224 0.232303 0.569795 -0.245961 0.341762 -0.492598 -0.214344 0.302388 0.110796 -0.089331 -0.635771 0.143092 0.041813 -0.146945 0.302236 -0.588545 0.050515 
200402 -0.318050 -0.535867 -0.502128 0.068500 -0.025920 0.135161 0.052985 0.247502 -0.502959 -0.137454 0.232155 0.121256 -0.187596 -0.620180 0.259040 -0.051291 -0.170933 0.282132 -0.555436 0.156612 
210100 -0.486231 -0.434641 -0.116380 0.076531 0.362992 -0.288860 0.130266 0.407573 -0.393836 -0.043251 0.214438 0.143064 -0.267177 -0.226445 0.123603 -0.157745 -0.625206 0.145469 -0.446926 0.398674 
210400 -0.229793 -0.528488 -0.329200 0.027978 0.020163 0.244386 0.144062 0.265421 -0.607814 -0.194857 0.278685 0.139259 -0.277234 -0.433536 0.225522 0.079585 -0.385803 0.221708 -0.602318 0.141948 
210501 -0.325752 -0.514165 -0.505393 0.079286 -0.014459 0.137505 0.054873 0.245302 -0.517563 -0.132811 0.246600 0.130701 -0.291044 -0.427778 0.273135 0.005103 -0.424238 0.203943 -0.563410 0.201926 
210502 -0.320970 -0.525092 -0.503948 0.071095 -0.021229 0.135185 0.053764 0.246682 -0.511918 -0.133081 0.223236 0.128675 -0.309689 -0.459941 0.276740 0.025731 -0.412410 0.159759 -0.560032 0.199167 
210601 -0.331706 -0.503675 -0.504573 0.084075 -0.009006 0.136715 0.057323 0.242171 -0.526287 -0.130140 0.196310 0.104603 -0.255118 -0.328653 0.300091 -0.094051 -0.502033 0.185100 -0.527877 0.337001 
210602 -0.331527 -0.504888 -0.504822 0.082125 -0.011201 0.134871 0.061633 0.239116 -0.526467 -0.130881 0.166300 0.135223 -0.316439 -0.362082 0.385837 -0.090516 -0.406205 0.181525 -0.522440 0.307995 
210700 -0.332559 -0.496668 -0.510915 0.083955 -0.004375 0.138890 0.054152 0.241693 -0.528081 -0.122948 0.163211 0.124524 -0.284478 -0.309498 0.285667 -0.188231 -0.498699 0.183171 -0.476560 0.393371 
210800 -0.328026 -0.505939 -0.508558 0.081076 -0.008882 0.138051 0.053504 0.242756 -0.523648 -0.126818 0.192181 0.197239 -0.204544 -0.271093 0.314095 -0.277929 -0.441094 0.247448 -0.420360 0.447701 
210900 -0.378937 -0.426904 -0.489955 0.202496 0.041794 0.132833 0.158381 0.207636 -0.536106 -0.134536 0.189310 0.238320 -0.204932 -0.258618 0.195754 -0.375512 -0.448665 0.238936 -0.316997 0.510175 
220300 -0.329257 -0.508339 -0.508911 0.078861 -0.009126 0.137321 0.054276 0.243443 -0.520818 -0.124783 0.121071 0.073699 -0.040874 -0.204295 0.451626 -0.415883 -0.239142 0.311507 -0.416681 0.481383 
220400 -0.335423 -0.488590 -0.512784 0.087767 0.002147 0.141332 0.055317 0.239866 -0.532103 -0.120051 0.142714 0.117706 -0.084441 -0.285852 0.494192 -0.333601 -0.227769 0.289698 -0.426831 0.451035 
220500 -0.333157 -0.502806 -0.506864 0.081936 -0.007977 0.135160 0.057247 0.240342 -0.526175 -0.127809 0.148109 0.129693 -0.150577 -0.317480 0.451989 -0.286208 -0.332359 0.239985 -0.450063 0.425388 
220601 -0.333860 -0.492246 -0.511472 0.084907 -0.002173 0.139333 0.056254 0.238734 -0.532080 -0.121382 0.170041 0.165256 -0.267118 -0.405549 0.475635 -0.163335 -0.264600 0.238032 -0.484218 0.306444 
220602 -0.332201 -0.509061 -0.500521 0.084548 -0.014388 0.133200 0.060821 0.240649 -0.523485 -0.138683 0.156313 0.124849 -0.258127 -0.387805 0.426619 -0.157509 -0.360694 0.203686 -0.502830 0.334241 
220701 -0.327846 -0.513835 -0.503853 0.076799 -0.016650 0.134142 0.058131 0.240012 -0.521544 -0.132137 0.198922 0.141658 -0.292400 -0.473260 0.396418 -0.026150 -0.283782 0.208447 -0.546712 0.224016 
220702 -0.326856 -0.512764 -0.505972 0.076934 -0.014494 0.135677 0.056992 0.242517 -0.520514 -0.129215 0.217014 0.145230 -0.308636 -0.474678 0.333056 -0.018252 -0.324333 0.219639 -0.550636 0.208193 
220901 -0.325516 -0.517995 -0.504140 0.075484 -0.018540 0.135671 0.057712 0.243158 -0.517047 -0.131609 0.178096 0.138445 -0.223475 -0.519342 0.434223 -0.127972 -0.193700 0.255900 -0.505713 0.256477 
220902 -0.324928 -0.520216 -0.502997 0.075933 -0.018016 0.136254 0.057844 0.244181 -0.514620 -0.135393 0.166142 0.119163 -0.235286 -0.504653 0.431081 -0.111206 -0.227746 0.225095 -0.531632 0.254552 
221000 -0.319429 -0.540887 -0.497246 0.071054 -0.028921 0.134070 0.058089 0.245290 -0.500961 -0.140677 0.154829 0.126717 -0.200284 -0.431985 0.476918 -0.180016 -0.239804 0.241292 -0.501200 0.326283 
221100 -0.336117 -0.489414 -0.509345 0.088685 -0.000289 0.138524 0.059799 0.238101 -0.534294 -0.123592 0.132374 0.099875 -0.119767 -0.377092 0.531834 -0.271658 -0.171788 0.269908 -0.462974 0.377634 
221200 -0.339291 -0.482220 -0.511276 0.089585 0.004602 0.139283 0.058655 0.235634 -0.538208 -0.121919 0.097293 0.037091 -0.054390 -0.282885 0.543859 -0.333526 -0.179511 0.276600 -0.449208 0.434321 
221300 -0.334648 -0.503021 -0.504421 0.083569 -0.010028 0.134522 0.063182 0.239151 -0.526639 -0.129715 0.100537 0.049643 -0.021825 -0.230394 0.527385 -0.377331 -0.142176 0.307637 -0.443024 0.449702 
221400 -0.321450 -0.527211 -0.506047 0.070010 -0.019855 0.133066 0.049348 0.246538 -0.508868 -0.132172 0.079692 0.000504 0.019809 -0.117176 0.526219 -0.435249 -0.088313 0.347438 -0.416747 0.459335 
221500 -0.324797 -0.529968 -0.511496 0.067555 -0.032266 0.111771 0.051992 0.253529 -0.489225 -0.166113 0.064572 -0.009325 0.048624 -0.079351 0.492137 -0.460991 -0.056261 0.349035 -0.397164 0.499642 
221600 0.262931 -0.121203 -0.173675 0.169118 0.180341 -0.477894 0.019301 0.695626 0.168923 0.289317 0.059126 0.036517 -0.011972 -0.062946 0.467131 -0.512216 -0.079086 0.334223 -0.337279 0.527988 
222200 0.328793 -0.302322 0.277709 0.154667 -0.477374 0.481822 -0.423896 0.206548 0.127730 -0.027379 0.026074 -0.070176 0.027926 0.022406 0.468427 -0.486055 0.003832 0.378898 -0.362876 0.512038 
222500 -0.329361 -0.505207 -0.508712 0.081346 -0.009138 0.139598 0.055056 0.243558 -0.522843 -0.124883 0.080502 -0.020809 0.043465 -0.202980 0.544907 -0.395913 -0.087033 0.326798 -0.425601 0.448126 
222600 -0.327827 -0.510211 -0.507320 0.078072 -0.012269 0.137309 0.055032 0.243695 -0.520423 -0.128395 0.089207 0.017879 -0.005076 -0.309509 0.548433 -0.362710 -0.141274 0.273788 -0.439030 0.419402 
222700 -0.336042 -0.491534 -0.509686 0.087415 -0.000608 0.138883 0.060081 0.236598 -0.532826 -0.123565 0.102206 0.097367 -0.150269 -0.390051 0.553353 -0.273674 -0.139056 0.253508 -0.445717 0.376815 
222800 -0.331957 -0.501589 -0.508410 0.082248 -0.007383 0.136539 0.057202 0.239474 -0.526919 -0.126518 0.102779 0.056218 -0.165904 -0.461069 0.549186 -0.227842 -0.153608 0.223137 -0.464149 0.322226 
222900 -0.318499 -0.533147 -0.501690 0.067970 -0.025940 0.133659 0.055540 0.247911 -0.507296 -0.132545 0.148794 0.123898 -0.202783 -0.520165 0.489701 -0.169233 -0.114344 0.249539 -0.482825 0.271853 
230100 -0.334944 -0.486384 -0.512701 0.089172 0.003541 0.143417 0.055825 0.239697 -0.533752 -0.119940 0.066490 -0.012833 0.008336 -0.281702 0.539995 -0.370225 -0.101788 0.293050 -0.436081 0.448242 
230200 -0.324043 -0.518194 -0.507801 0.074019 -0.015761 0.137339 0.052529 0.245471 -0.514253 -0.128642 0.084290 0.042482 -0.086903 -0.404171 0.570290 -0.301197 -0.082725 0.262041 -0.438730 0.369108 
230300 -0.334660 -0.495108 -0.508976 0.084685 -0.004766 0.136648 0.058064 0.238023 -0.531274 -0.125173 0.097147 0.049902 -0.135736 -0.495998 0.526852 -0.234227 -0.083571 0.257574 -0.456882 0.330346 
230400 -0.322370 -0.528059 -0.503246 0.072162 -0.022920 0.136561 0.056712 0.246325 -0.507976 -0.132896 0.144642 0.089823 -0.146523 -0.557606 0.452810 -0.184434 -0.073930 0.279442 -0.495697 0.265133 
230500 -0.082108 -0.611807 -0.252743 -0.004364 0.158038 0.245817 0.345419 0.195159 -0.427168 -0.360245 0.241162 0.092991 -0.116437 -0.698240 0.169431 -0.031175 -0.012603 0.331163 -0.528878 0.113478 
230600 -0.450908 -0.488049 -0.415075 0.134442 -0.069738 0.183370 0.115981 0.160953 -0.448640 -0.298338 0.221746 0.005142 -0.071813 -0.715717 0.050724 -0.009328 0.020675 0.356690 -0.536733 0.122460 
230700 -0.341055 -0.474732 -0.513384 0.091953 0.009856 0.137846 0.067488 0.229811 -0.543257 -0.121235 0.122906 0.031307 -0.121271 -0.622563 0.363527 -0.233482 -0.041274 0.308721 -0.471738 0.274605 
230800 -0.333350 -0.504808 -0.505167 0.080719 -0.012568 0.134719 0.062679 0.236586 -0.526365 -0.130644 0.098435 0.045981 -0.140049 -0.484294 0.487864 -0.281644 -0.026118 0.315507 -0.450714 0.336658 
230900 -0.331562 -0.499577 -0.508541 0.083550 -0.006881 0.137909 0.058350 0.239556 -0.528710 -0.124513 0.067297 0.013044 -0.103700 -0.455778 0.514999 -0.315630 -0.056184 0.281309 -0.438745 0.370377 
231100 -0.347196 -0.480758 -0.504787 0.084583 0.006992 0.157704 0.033198 0.245585 -0.544574 -0.058897 0.011490 -0.073201 -0.155489 -0.603126 0.374119 -0.298011 -0.000524 0.280685 -0.438759 0.326348 
231200 -0.351632 -0.474678 -0.486273 0.088943 -0.003103 0.117748 0.108721 0.232368 -0.551666 -0.150459 0.081881 -0.068223 -0.090113 -0.712986 0.243795 -0.229736 0.071212 0.329048 -0.441356 0.227636 
231500 -0.032564 -0.168449 0.110856 -0.482539 -0.276437 -0.229308 0.271706 -0.119722 -0.110345 0.704342 -0.064568 -0.267577 -0.146949 -0.746398 0.047724 -0.161341 0.124465 0.248320 -0.396115 0.288375 
240200 0.150484 0.336568 -0.244761 -0.288476 -0.406614 -0.187925 0.237831 0.656000 -0.163813 -0.081029 -0.011206 -0.003973 -0.068132 0.173553 0.334506 -0.574082 0.136406 0.400738 -0.229173 0.540290 
240300 -0.178116 0.250476 -0.248391 0.082100 -0.110087 -0.588826 0.432095 0.222756 -0.456456 -0.183262 -0.055946 -0.052169 -0.024068 0.130211 0.375955 -0.607746 0.111024 0.307958 -0.176600 0.572333 
240500 -0.325428 -0.340510 -0.067685 0.010114 0.433540 -0.370303 0.295035 0.548981 -0.103694 -0.221825 0.005258 -0.044562 -0.011930 0.004452 0.470601 -0.496233 0.017656 0.353345 -0.334614 0.541278 
240600 -0.434393 -0.323315 -0.530542 0.177858 0.095356 0.091037 0.090345 0.141317 -0.580035 -0.108200 0.023557 -0.060952 0.032395 -0.000662 0.502792 -0.466752 -0.007614 0.356089 -0.396423 0.489913 
240700 -0.334464 -0.489335 -0.512305 0.087184 0.000724 0.140416 0.057267 0.238853 -0.532698 -0.121708 0.024532 -0.030009 0.027231 -0.079547 0.509913 -0.462997 -0.009392 0.340963 -0.396309 0.493605 
240800 -0.340946 -0.473842 -0.512917 0.095412 0.009564 0.142912 0.063908 0.234245 -0.541817 -0.118352 0.068982 -0.002678 0.019814 -0.198307 0.546848 -0.379038 -0.075249 0.316758 -0.430938 0.470211 
240900 -0.349173 -0.480400 -0.499868 0.092630 -0.001840 0.133318 0.075514 0.226746 -0.544440 -0.132431 0.015919 -0.107442 -0.012166 -0.243313 0.530833 -0.412883 -0.038020 0.325018 -0.425090 0.434527 
241000 -0.382710 -0.368758 -0.537145 0.139354 0.065349 0.154588 0.042662 0.216292 -0.568630 -0.097450 0.017669 -0.083083 0.030434 -0.049211 0.506666 -0.462019 -0.008956 0.353570 -0.407433 0.477673 
241100 -0.385374 -0.361991 -0.511052 0.042739 -0.038461 0.244031 -0.183150 0.477567 -0.347422 -0.118756 -0.005336 -0.090782 -0.031881 -0.012196 0.488135 -0.481875 0.008581 0.367617 -0.372166 0.496349 
241200 -0.362860 -0.368721 -0.535834 0.225053 -0.174647 -0.016415 0.209810 0.241991 -0.494749 -0.128388 -0.031387 -0.092600 -0.015473 0.015949 0.449832 -0.531802 0.039208 0.338613 -0.289261 0.552192 
241300 0.253818 0.114908 -0.261509 -0.117366 -0.087925 -0.343564 -0.676297 0.218355 0.420319 0.180886 -0.033878 -0.084369 -0.025018 0.070579 0.442614 -0.526244 0.038355 0.341146 -0.311946 0.546008 
241400 -0.143218 0.011730 -0.398975 0.183712 0.466192 -0.048390 -0.299368 0.533273 -0.404727 0.170110 -0.082445 -0.069531 -0.071446 0.108787 0.375228 -0.608155 0.120817 0.309624 -0.196824 0.558190 
241500 -0.100970 0.278849 -0.417425 -0.038111 0.222511 -0.372084 -0.511800 0.412716 0.050907 0.336943 -0.067366 -0.045056 -0.098338 0.192554 0.349266 -0.604515 0.135430 0.334143 -0.190279 0.541351 
241600 0.431361 -0.109919 -0.376567 -0.108767 -0.256315 -0.443327 0.196042 -0.317229 -0.484381 0.110838 -0.097991 -0.034762 -0.149202 0.308306 0.250240 -0.576564 0.228733 0.347800 -0.198130 0.514092 
242000 0.395859 -0.136895 0.227932 0.322903 0.079985 -0.278194 0.096741 0.683959 -0.249545 -0.212405 -0.177242 -0.087539 -0.249146 0.386596 0.167154 -0.563216 0.217702 0.267469 -0.168846 0.506750 
242100 -0.030636 -0.618937 -0.345791 -0.117524 -0.180868 -0.048451 -0.487359 0.424935 -0.127110 0.115279 -0.155854 -0.112954 -0.208842 0.247957 0.307440 -0.571028 0.138480 0.283820 -0.185431 0.550587 
242200 0.560450 0.034211 -0.353862 -0.064977 -0.402808 -0.399973 0.028976 0.445430 0.128833 -0.131177 -0.158449 -0.163506 -0.156315 0.155117 0.317749 -0.591492 0.105141 0.266806 -0.164295 0.582756 
242300 0.222521 -0.204591 -0.376911 0.037820 0.057900 0.346940 -0.182198 0.424613 -0.643693 -0.116545 -0.154869 -0.149244 -0.129064 0.083142 0.367303 -0.603041 0.074505 0.248677 -0.195017 0.571120 
242400 -0.503685 -0.144595 0.184164 -0.092289 -0.169737 0.218921 -0.383895 -0.258632 -0.465580 0.418560 -0.101526 -0.158277 -0.087784 0.041988 0.422604 -0.538028 0.045726 0.309913 -0.285299 0.554590 
242500 -0.088759 -0.512507 0.189209 0.212103 0.559139 -0.144920 -0.409904 0.350811 -0.004053 0.154685 -0.071117 -0.147427 -0.067987 0.004364 0.444381 -0.517610 0.037827 0.338535 -0.331842 0.526323 
242600 -0.509116 -0.154919 -0.655615 0.015832 0.281356 0.264275 -0.102940 -0.234607 -0.261580 0.060459 -0.032674 -0.124576 -0.024208 -0.040362 0.472869 -0.491381 0.008204 0.351274 -0.387100 0.492779 
242700 0.554552 0.029585 0.054252 0.054353 0.457545 -0.051922 -0.120288 0.243975 -0.359837 0.519788 -0.066680 -0.194003 -0.006131 -0.250911 0.420374 -0.467325 0.026298 0.327969 -0.388911 0.490212 
242800 -0.329176 -0.480211 -0.200296 0.228816 0.172309 -0.052524 -0.027784 -0.030866 0.002531 -0.731016 -0.183539 -0.150411 -0.223496 -0.100210 0.349355 -0.559358 0.162849 0.282040 -0.233628 0.536768 
242900 -0.452490 -0.458160 -0.096069 0.084909 0.116188 -0.362116 -0.135029 0.223621 -0.233761 0.548992 -0.219925 -0.201541 -0.244637 0.018161 0.313952 -0.566408 0.086182 0.222971 -0.194228 0.580160 
243000 0.125244 -0.192756 0.040881 -0.617756 -0.115986 -0.116543 0.384107 -0.006161 -0.059418 0.621066 -0.232488 -0.176391 -0.215583 0.080684 0.299149 -0.580874 0.129667 0.189849 -0.153231 0.598840 
243100 0.464486 0.447466 -0.254003 0.041426 -0.103846 -0.185985 0.100821 0.151504 -0.367014 0.551907 -0.216157 -0.129089 -0.292221 0.118317 0.302642 -0.567945 0.125551 0.206741 -0.144179 0.586322 
243200 0.454589 -0.135458 -0.533553 -0.358498 -0.156960 0.004580 -0.064031 0.450157 0.248230 -0.262267 -0.239861 -0.098121 -0.372712 0.189059 0.238117 -0.545272 0.202275 0.210837 -0.154880 0.542960 
243300 0.301307 -0.508496 -0.389598 0.261678 -0.045430 -0.072106 0.040673 0.104698 -0.638151 0.057170 -0.253673 -0.089206 -0.364499 0.389008 0.121366 -0.496727 0.207870 0.177192 -0.169036 0.528070 
243400 0.127624 0.296687 -0.230389 0.145202 0.715725 -0.115668 0.078768 0.354753 0.251280 0.317315 -0.236932 -0.050083 -0.400581 0.393397 0.117179 -0.483559 0.250902 0.216158 -0.192247 0.481596 
243500 -0.350611 0.278403 0.079122 0.047706 -0.052667 0.265652 -0.402707 0.581657 -0.448358 -0.127119 -0.227191 -0.026198 -0.409486 0.541964 -0.075293 -0.373613 0.270394 0.133585 -0.175314 0.468344 
250200 0.422470 -0.097066 0.469895 -0.244241 0.199741 0.486280 0.196500 0.175970 -0.419011 -0.100649 0.354134 0.024552 0.091805 -0.604112 -0.042506 0.101816 0.040608 0.393331 -0.575126 -0.036113 
250300 0.441200 -0.153769 0.485297 -0.264862 0.155909 0.463906 0.183017 0.182805 -0.387284 -0.140051 0.390146 -0.068708 0.238510 -0.468814 -0.077042 0.165515 0.003091 0.394071 -0.611743 -0.059413 
250400 0.425293 -0.070852 0.462592 -0.255070 0.222027 0.467841 0.160842 0.149721 -0.452102 -0.119166 0.360436 -0.209444 0.357569 -0.402748 -0.068988 0.170415 -0.004950 0.366986 -0.603057 -0.063050 
250500 0.418616 -0.076375 0.413450 -0.348665 0.293610 0.265226 -0.101469 -0.029793 -0.540378 -0.258217 0.353342 -0.266225 0.374804 -0.119653 -0.003589 0.201145 0.021332 0.405559 -0.662377 -0.073001 
250600 0.422403 -0.091997 0.471276 -0.259746 0.204284 0.476404 0.172012 0.157138 -0.432790 -0.115166 0.370957 -0.122136 0.286554 -0.448054 -0.084600 0.145153 0.097938 0.414766 -0.590492 -0.077966 
250700 0.407164 -0.102231 0.486930 -0.252715 0.187970 0.484580 0.199130 0.176921 -0.409086 -0.119771 0.349708 -0.094645 0.218857 -0.532346 -0.084443 0.104307 0.046232 0.403817 -0.594531 -0.027797 
250800 0.342613 -0.066585 0.507415 -0.147116 0.291476 0.362575 0.245461 -0.034784 -0.523504 -0.217101 0.311824 -0.002690 0.078278 -0.675300 -0.119450 0.091442 0.040094 0.357773 -0.535926 0.033845 
251000 0.315287 -0.248093 -0.092423 -0.279844 0.042036 0.382221 -0.184877 -0.078815 -0.744551 0.097892 0.239044 -0.053361 0.053567 -0.732413 -0.115648 -0.008087 0.126328 0.374024 -0.472909 0.088180 
251100 0.228186 -0.095567 0.509208 -0.268418 0.468764 0.350798 0.412604 0.065169 -0.252766 -0.162106 0.286524 -0.045292 0.107876 -0.716885 -0.136718 0.045731 0.100597 0.356376 -0.480546 0.038191 
251200 0.300066 0.119990 0.539553 -0.214064 0.370944 0.187591 0.056965 -0.005756 -0.581272 -0.211371 0.328519 -0.032907 0.157247 -0.639752 -0.119320 0.060511 0.154065 0.400700 -0.504764 -0.000824 
251300 0.198360 0.090662 0.450776 -0.203317 0.316176 0.324905 0.320160 0.011195 -0.587600 -0.233376 0.352603 -0.129940 0.285872 -0.505822 -0.116864 0.122967 0.104361 0.403366 -0.563205 -0.040431 
251400 0.366943 -0.009269 0.495709 -0.233131 0.254316 0.405038 0.249856 0.048506 -0.449353 -0.264119 0.335314 -0.088178 0.239687 -0.557952 -0.114418 0.069941 0.215716 0.439207 -0.503489 -0.010435 
251500 0.483753 0.036445 0.122311 -0.149367 0.117855 -0.062334 -0.461051 0.032281 -0.691153 0.135302 0.279419 -0.064011 0.137158 -0.690333 -0.164193 0.038613 0.217305 0.392769 -0.434776 0.059044 
251600 0.054335 -0.243160 0.062723 -0.622466 0.032230 -0.427993 0.387719 -0.221193 0.104199 0.390122 0.277999 -0.053865 0.131868 -0.711020 -0.166084 0.036303 0.165717 0.368115 -0.447242 0.070560 
251700 -0.044358 0.123727 -0.330354 -0.308943 -0.411960 0.494479 -0.532377 -0.062017 0.232433 0.150423 0.216772 -0.096247 0.091011 -0.727304 -0.135218 -0.026494 0.228194 0.384228 -0.421001 0.102765 
251800 0.295185 -0.254070 0.161958 0.299050 0.330097 0.098505 0.175275 0.100260 -0.730547 -0.198779 0.165979 -0.124245 0.105507 -0.721952 -0.194427 -0.039947 0.286948 0.361600 -0.379574 0.167631 
251900 0.487575 -0.159192 0.195635 -0.239477 0.218799 0.232528 0.422836 -0.005214 -0.564679 0.204167 0.242574 -0.139729 0.196356 -0.677931 -0.129206 0.025907 0.271779 0.366186 -0.444166 0.029712 
252000 0.416546 0.186647 0.363658 -0.484508 0.211670 0.126212 0.119020 -0.499006 -0.173653 -0.265696 0.279840 -0.113589 0.173979 -0.606883 -0.167425 0.072911 0.274101 0.429148 -0.464400 0.043554 
252101 -0.210293 0.086837 0.425134 -0.195719 -0.053935 -0.266562 -0.447146 -0.526433 -0.102181 -0.409529 0.270463 -0.109721 0.188469 -0.661251 -0.205831 0.062393 0.231655 0.381263 -0.430086 0.108533 
252102 -0.205741 0.293255 0.541605 -0.243346 0.540065 0.126303 0.147876 -0.000396 -0.202257 -0.385644 0.218031 -0.121383 0.176412 -0.710855 -0.223919 0.035035 0.278205 0.340810 -0.369224 0.141600 
252201 -0.347335 -0.299199 -0.613107 -0.209212 0.023087 -0.097581 -0.053278 0.158608 -0.551069 0.168646 0.203194 -0.143186 0.185363 -0.688904 -0.192502 -0.019265 0.305767 0.378519 -0.369845 0.135195 
252202 -0.090404 0.737009 0.376835 -0.041915 0.118214 -0.131785 -0.036582 -0.191743 0.310411 0.372938 0.122353 -0.254193 0.134069 -0.726986 -0.151792 -0.027588 0.295475 0.334029 -0.366648 0.129688 
260100 0.002183 -0.759749 -0.115487 -0.437367 -0.140340 0.009295 0.322257 0.151267 -0.132913 0.232315 -0.062221 -0.308856 -0.064436 -0.752494 -0.195272 -0.163026 0.239874 0.241927 -0.301448 0.242259 
260200 -0.035474 -0.010069 -0.239919 -0.570169 -0.076914 -0.161162 0.236291 -0.337952 -0.092953 0.636720 0.006441 -0.246837 0.019845 -0.791365 -0.147550 -0.148726 0.226139 0.255247 -0.317208 0.227105 
260300 -0.052221 -0.150764 -0.077486 -0.650052 -0.120470 -0.206544 0.387859 -0.395326 -0.112475 0.411620 0.028541 -0.267021 0.048350 -0.764008 -0.178660 -0.111537 0.264081 0.286283 -0.330547 0.191106 
260400 0.004748 -0.135385 -0.169547 -0.637023 -0.089882 -0.165920 0.330783 -0.306674 -0.098901 0.546121 0.103378 -0.186759 0.068970 -0.761574 -0.171916 -0.069911 0.262652 0.326663 -0.352821 0.187247 
260500 -0.049923 -0.025010 -0.169040 -0.590713 0.019236 -0.132999 0.328853 -0.304622 -0.149486 0.614835 0.052693 -0.259136 0.125328 -0.729947 -0.183250 -0.099012 0.332484 0.294714 -0.322266 0.192098 
260600 -0.021495 -0.006838 -0.207238 -0.594483 0.032196 -0.101286 0.266310 -0.284176 -0.154363 0.645239 -0.040228 -0.327766 0.029372 -0.772889 -0.155188 -0.119311 0.252413 0.214410 -0.321587 0.203250 
260700 -0.024147 -0.037453 -0.188882 -0.598080 0.018953 -0.120879 0.289887 -0.307480 -0.149005 0.623607 -0.062421 -0.377565 0.047537 -0.708621 -0.176796 -0.168015 0.323818 0.252127 -0.290768 0.191536 
260800 -0.019025 -0.034154 -0.194800 -0.605668 0.014662 -0.116289 0.277708 -0.293856 -0.145091 0.628831 -0.102009 -0.343805 -0.028879 -0.725212 -0.194529 -0.175432 0.293940 0.210068 -0.274784 0.264523 
260900 -0.022575 -0.032701 -0.194973 -0.602467 0.019487 -0.121782 0.290589 -0.301779 -0.145114 0.621014 -0.163525 -0.462104 -0.004545 -0.684635 -0.074774 -0.097921 0.346843 0.127002 -0.293366 0.230869 
261000 -0.019864 -0.030694 -0.195532 -0.602177 0.017981 -0.117527 0.284261 -0.295869 -0.149316 0.626929 -0.103260 -0.436729 0.052706 -0.715025 -0.067071 -0.062734 0.337713 0.153991 -0.325246 0.180514 
270500 -0.010693 -0.063197 -0.189611 -0.623552 -0.007188 -0.123164 0.285612 -0.288361 -0.126720 0.612469 -0.186252 -0.451731 -0.108102 -0.692908 -0.122141 -0.156344 0.259226 0.138706 -0.283866 0.251123 
271200 -0.176523 -0.041338 -0.276728 -0.537239 0.022081 -0.141711 0.364837 -0.312987 -0.229821 0.545411 -0.272167 -0.408792 -0.267673 -0.603782 -0.172913 -0.253329 0.222254 0.078283 -0.151786 0.387265 
271300 -0.036751 -0.110018 -0.163655 -0.628211 -0.026074 -0.137631 0.311246 -0.321428 -0.112206 0.576811 -0.279602 -0.459324 -0.241596 -0.606749 -0.108239 -0.213310 0.237353 0.070593 -0.210402 0.348606 
271400 -0.013423 -0.042844 -0.194772 -0.606870 0.011713 -0.115123 0.279704 -0.289147 -0.141804 0.629617 -0.213261 -0.430306 -0.165892 -0.673024 -0.120987 -0.174866 0.282126 0.119318 -0.255579 0.290700 
271500 -0.009884 -0.070575 -0.181519 -0.624308 -0.015738 -0.128590 0.297411 -0.290870 -0.127040 0.605171 -0.258894 -0.518462 -0.124166 -0.614988 -0.063215 -0.128000 0.306542 0.073216 -0.279926 0.269212 
271800 -0.062192 0.060494 -0.187605 -0.562226 0.071170 -0.127463 0.282734 -0.338230 -0.145025 0.636000 -0.332083 -0.412060 -0.282366 -0.535665 -0.083235 -0.186897 0.328327 0.000370 -0.166794 0.419264 
280100 0.054862 -0.237624 -0.066979 -0.239810 0.409428 -0.055274 -0.298193 0.738026 -0.092868 0.256157 -0.222254 0.049128 -0.488362 0.456304 -0.213345 -0.287475 0.429205 0.115235 -0.182543 0.377495 
280400 -0.475538 -0.462154 -0.539726 0.301821 0.045909 -0.173449 0.087540 0.200336 -0.304096 -0.073568 -0.303207 -0.120751 -0.491910 0.112064 0.164622 -0.487051 0.207490 0.138353 -0.169816 0.532542 
280800 0.245535 0.283909 0.056671 0.494668 -0.162223 0.038725 0.389816 0.381252 -0.296020 0.445473 -0.364973 -0.345008 -0.519145 -0.308690 -0.137371 -0.228609 0.235664 0.051281 -0.160024 0.477551 
280900 -0.302233 -0.521463 0.033409 -0.158457 0.096319 -0.722353 0.054551 0.082754 0.179729 -0.193157 -0.353248 -0.305833 -0.565375 -0.258833 -0.078805 -0.268173 0.295032 0.125896 -0.161563 0.433491 
281900 -0.088543 0.102383 0.246242 -0.330835 -0.638364 -0.325806 0.273922 0.223318 -0.050456 -0.412896 -0.241546 0.075831 -0.433536 0.539645 -0.209295 -0.187130 0.413233 -0.029829 -0.138446 0.432543 
282700 0.281927 -0.131849 -0.071752 -0.303774 0.174363 -0.493464 -0.422897 0.142741 -0.445615 -0.366070 -0.357124 -0.312321 -0.478484 -0.381472 -0.121415 -0.186260 0.307980 0.010817 -0.165512 0.478176 
282800 -0.082780 -0.132408 -0.031235 -0.461916 -0.115701 -0.130129 0.542074 -0.458824 0.003215 0.476003 -0.354238 -0.226340 -0.476054 -0.344979 -0.174078 -0.223014 0.391679 0.013768 -0.162605 0.466440 
283100 0.044603 -0.154579 0.146511 0.548021 0.318512 0.048685 -0.286559 -0.056806 -0.009306 0.680496 -0.276959 0.097478 -0.656512 0.023740 -0.047630 -0.004350 0.319997 -0.132485 -0.175140 0.573854 
283200 -0.009482 0.140254 -0.273179 -0.666179 0.298459 0.282674 -0.048543 -0.045912 -0.081112 0.530841 -0.291262 0.113391 -0.656594 0.158181 -0.037576 -0.050815 0.390865 -0.102068 -0.154675 0.505035 
283800 0.470838 -0.066069 0.215807 0.551342 -0.023225 -0.214873 0.331451 -0.420748 -0.136986 0.266519 -0.308629 0.104515 -0.613259 0.241514 0.058431 0.023057 0.429039 -0.238927 -0.175184 0.428500 
290900 -0.013282 -0.156044 -0.137232 -0.650384 -0.069806 -0.155313 0.330053 -0.311813 -0.082878 0.540014 -0.138978 -0.488245 0.081034 -0.629012 -0.095073 -0.040710 0.405854 0.146923 -0.281501 0.252660 
291200 -0.035701 -0.053751 -0.177972 -0.606424 0.014111 -0.127241 0.319471 -0.323558 -0.136960 0.595410 -0.284392 -0.563148 -0.008965 -0.528966 -0.051011 -0.088206 0.410856 -0.001873 -0.264328 0.270263 
291600 0.006948 0.131275 0.221298 -0.522416 -0.120864 -0.266664 0.481431 -0.393268 0.325183 0.287974 -0.390254 -0.424337 -0.146988 -0.363874 -0.084108 -0.120723 0.552698 -0.099572 -0.212876 0.362320 
292200 -0.017775 -0.123464 -0.156324 -0.631472 -0.028586 -0.171450 0.378262 -0.341893 -0.098377 0.511257 -0.288573 -0.588833 0.056964 -0.478153 -0.016668 -0.031806 0.450519 -0.037630 -0.244180 0.269871 
292400 0.000911 -0.159372 -0.149100 -0.641766 -0.054803 -0.159209 0.358934 -0.317890 -0.075252 0.525932 -0.250705 -0.579102 0.102045 -0.496879 -0.004419 -0.012236 0.453242 -0.009556 -0.258923 0.267874 
292500 0.006950 -0.173655 -0.140400 -0.655280 -0.079516 -0.177021 0.355271 -0.314521 -0.060702 0.504189 -0.205759 -0.568647 0.100597 -0.521617 -0.035373 0.017440 0.440059 0.057131 -0.304362 0.246966 
300500 -0.036346 -0.168177 -0.129080 -0.617952 -0.053140 -0.193722 0.414619 -0.374412 -0.060328 0.464526 -0.256994 -0.605094 0.107697 -0.432152 -0.004641 0.021690 0.501550 -0.024473 -0.209491 0.270061 
300600 -0.018360 -0.178151 -0.129138 -0.630448 -0.055062 -0.183599 0.407633 -0.356101 -0.059309 0.469631 -0.290802 -0.629097 0.133754 -0.390222 -0.058796 -0.016136 0.471890 -0.058556 -0.254823 0.233979 
300700 -0.036776 -0.128855 -0.118149 -0.602260 -0.025379 -0.190620 0.431080 -0.390671 -0.099955 0.468981 -0.311628 -0.588369 0.126288 -0.381524 -0.053678 -0.039508 0.500636 -0.096995 -0.189393 0.307967 
300800 -0.033888 -0.184740 -0.113231 -0.609259 -0.057967 -0.222581 0.463094 -0.396530 -0.051178 0.391779 -0.317174 -0.610302 0.118877 -0.347026 -0.037557 -0.016863 0.486052 -0.104379 -0.191867 0.326687 
300900 -0.031523 -0.150474 -0.113304 -0.623041 -0.060685 -0.208070 0.459158 -0.382324 -0.072207 0.407626 -0.316848 -0.548549 0.116755 -0.398744 0.001893 -0.018289 0.504363 -0.162888 -0.195851 0.326285 
301100 -0.046424 -0.149851 -0.111128 -0.593804 -0.031272 -0.217872 0.490574 -0.413796 -0.088023 0.377296 -0.357205 -0.468870 0.086755 -0.332844 -0.016570 -0.048173 0.568737 -0.222961 -0.204479 0.341575 
301200 -0.097023 -0.215431 -0.103001 -0.601049 -0.160197 -0.339471 0.427668 -0.467298 0.055868 0.164363 -0.378318 -0.415688 0.005579 -0.336060 0.027060 -0.017528 0.569845 -0.291468 -0.190757 0.352146 
301600 -0.052318 -0.159504 -0.105467 -0.594616 -0.028023 -0.208638 0.479388 -0.419901 -0.076624 0.388347 -0.291823 -0.591490 0.167969 -0.302473 -0.031822 0.039030 0.539509 -0.119494 -0.151592 0.338247 
301701 -0.017183 -0.182524 -0.100677 -0.603589 -0.058942 -0.220984 0.459431 -0.401511 -0.056463 0.405154 -0.268072 -0.591284 0.185010 -0.340789 -0.048865 0.042240 0.548585 -0.075905 -0.224025 0.259017 
301702 -0.045063 -0.181668 -0.103148 -0.601601 -0.040629 -0.202113 0.465461 -0.410845 -0.070962 0.399272 -0.218332 -0.600218 0.160890 -0.350837 0.010121 0.150547 0.540798 -0.025348 -0.176774 0.309800 
301801 -0.042261 -0.175622 -0.105370 -0.607885 -0.042108 -0.207632 0.463608 -0.400947 -0.066425 0.402189 -0.166911 -0.566626 0.109930 -0.372733 -0.031399 0.170187 0.592723 0.080764 -0.200521 0.268440 
301802 -0.017411 -0.181285 -0.120692 -0.629748 -0.061739 -0.205748 0.434280 -0.367798 -0.063095 0.426244 -0.227824 -0.569640 0.144692 -0.420988 0.018228 0.104634 0.524939 -0.036413 -0.241725 0.280789 
301803 -0.022875 -0.216916 -0.100846 -0.613873 -0.070979 -0.215204 0.448815 -0.390521 -0.047418 0.397333 -0.203520 -0.661425 0.081477 -0.343226 -0.082285 0.200698 0.508576 0.023000 -0.157362 0.256245 
310200 0.429226 -0.265142 0.145208 0.627284 -0.207420 -0.164578 0.111648 0.275816 0.290970 -0.295943 -0.299849 0.090413 -0.488805 0.386046 0.051840 -0.008266 0.583412 -0.310559 -0.148669 0.228647 
310300 -0.483145 0.461497 -0.302013 0.180217 0.016776 -0.402898 0.003839 0.356073 0.292583 0.234277 -0.319575 0.129506 -0.557553 0.276913 0.082639 0.009778 0.483102 -0.316722 -0.203836 0.333735 
310400 -0.720922 -0.175259 -0.121322 -0.059184 -0.377702 0.314119 0.319993 0.268666 -0.105174 -0.066071 -0.303121 0.120805 -0.567876 0.244048 0.126432 0.074687 0.457553 -0.291165 -0.210835 0.389018 
310500 -0.363880 -0.438167 -0.100837 -0.168572 -0.084321 0.151270 0.318086 0.110199 -0.683610 -0.162415 -0.327803 0.046282 -0.592120 0.233864 0.129971 0.103631 0.440776 -0.322918 -0.175996 0.357685 
310600 0.377178 0.271041 -0.389430 -0.165466 0.138116 0.132353 -0.153414 0.577174 0.414084 0.201282 -0.324688 0.096387 -0.594969 0.104118 0.134077 0.027477 0.454316 -0.267504 -0.194845 0.431047 
310700 -0.311720 0.217980 -0.187930 0.448284 -0.010739 0.110926 0.653847 0.351357 -0.230776 0.048924 -0.325848 0.080013 -0.641478 0.036914 0.111148 0.048596 0.390217 -0.295915 -0.184472 0.431259 
310800 -0.201952 0.366442 -0.283156 0.024570 -0.691279 0.213176 -0.239219 0.402615 -0.038950 -0.001683 -0.345698 0.019982 -0.600801 0.024663 0.101520 0.063253 0.390941 -0.279881 -0.198662 0.483302 
310900 0.113645 0.243909 -0.544577 -0.332955 -0.442360 -0.400319 -0.022694 0.041671 -0.250998 0.314613 -0.384327 -0.051619 -0.538190 -0.034489 0.020119 0.011886 0.421228 -0.265396 -0.201990 0.519208 
320100 -0.130089 0.146645 -0.181474 0.040140 0.233447 0.464792 -0.636679 0.154489 0.206890 -0.429497 -0.164902 0.018121 -0.371850 0.651858 -0.413100 -0.294051 0.340185 -0.067576 -0.102569 0.146141 
320400 -0.197775 -0.255034 -0.222786 0.543999 -0.238063 0.103602 0.593172 0.308417 0.156905 0.106180 -0.193298 0.072432 -0.304796 0.641943 -0.359860 -0.326104 0.388190 -0.195006 -0.145694 0.081307 
320600 0.461312 0.490955 0.339459 -0.146017 -0.227266 -0.451131 0.236203 0.239071 -0.012123 -0.203315 -0.120596 0.088832 -0.360699 0.748354 -0.279017 -0.117436 0.362454 -0.199241 -0.059574 0.145490 
330100 0.085347 -0.197590 0.441026 0.152711 0.186688 -0.259443 0.376272 0.433228 0.468970 -0.290665 -0.125261 0.112245 -0.370442 0.572926 0.006515 -0.098111 0.654121 -0.257224 0.026781 -0.042603 
330200 -0.043486 -0.368097 0.083519 -0.067127 -0.344290 0.011730 0.645118 0.428414 -0.334567 0.144250 -0.249181 0.172276 -0.528587 0.408281 -0.126382 -0.059434 0.546503 -0.309336 -0.151618 0.159013 
340300 -0.169285 0.071217 0.022138 0.346634 -0.207496 0.329177 0.625587 0.311353 0.311205 0.330250 -0.258867 0.133996 -0.376657 0.391615 -0.093749 0.000257 0.573940 -0.507316 -0.150600 0.039426 
340400 -0.167522 0.083071 0.025763 0.349106 -0.198288 0.330425 0.628642 0.307749 0.307467 0.331000 -0.239410 0.143770 -0.383843 0.409515 -0.121084 -0.000652 0.552781 -0.516033 -0.142520 -0.012031 
340500 -0.165248 0.082526 0.026052 0.348223 -0.197272 0.330048 0.631366 0.306648 0.309663 0.327947 -0.272973 0.122037 -0.311948 0.302630 -0.079349 -0.026586 0.500492 -0.662631 -0.152096 -0.044589 
340600 -0.164825 0.089594 0.034064 0.350936 -0.189006 0.331945 0.640369 0.298269 0.302336 0.322698 -0.206511 0.204448 -0.199254 0.278766 -0.089857 -0.015416 0.483826 -0.729310 -0.144728 -0.053878 
350100 -0.156911 0.099096 0.045560 0.358056 -0.184678 0.340489 0.634210 0.306127 0.302132 0.313082 -0.154176 0.237133 -0.210626 0.378974 -0.131859 -0.106606 0.556052 -0.596417 -0.135814 -0.141098 
350400 -0.168845 0.086049 0.023791 0.352116 -0.195660 0.330132 0.631420 0.306750 0.306364 0.324992 -0.226602 0.151792 -0.345575 0.402580 -0.119247 0.012729 0.548419 -0.552000 -0.147901 -0.048929 
351000 -0.162488 0.111223 0.046572 0.366659 -0.175514 0.341980 0.636973 0.301366 0.294094 0.306296 -0.128039 0.259200 -0.155048 0.358140 -0.044959 -0.155876 0.493307 -0.670591 -0.107479 -0.182218 
351100 -0.160137 0.121151 0.056882 0.361983 -0.166124 0.341429 0.649790 0.287177 0.290326 0.303734 -0.126452 0.311702 -0.134225 0.305379 -0.111801 -0.117357 0.460227 -0.703092 -0.151353 -0.142310 
351400 -0.169312 0.094153 0.037593 0.354115 -0.177366 0.339229 0.651940 0.292713 0.285199 0.311572 -0.162324 0.264297 -0.143061 0.308830 -0.101110 -0.067803 0.473044 -0.712607 -0.173578 -0.106891 
351500 -0.159022 0.096569 0.042854 0.349529 -0.184901 0.338220 0.641013 0.300163 0.299456 0.319576 -0.170397 0.265986 -0.183951 0.291969 -0.103706 -0.038859 0.467544 -0.716595 -0.172044 -0.084627 
360200 -0.158573 0.148382 0.069270 0.386637 -0.147498 0.353971 0.638801 0.293083 0.280936 0.280376 -0.130758 0.280412 -0.127207 0.310430 -0.055422 -0.140640 0.470514 -0.710355 -0.125488 -0.164732 
380100 -0.142107 0.277293 0.126733 0.375083 -0.075870 0.314449 0.674479 0.186696 0.268717 0.282037 -0.063486 0.338974 -0.085074 0.283590 -0.034340 -0.136838 0.397682 -0.752358 -0.097480 -0.199514 
380200 -0.149134 0.220633 0.102359 0.391349 -0.112945 0.339685 0.647070 0.248629 0.279083 0.280896 -0.089045 0.336831 -0.116983 0.291058 -0.041895 -0.118215 0.415049 -0.740959 -0.121976 -0.168291 
380500 -0.168270 0.102811 0.044935 0.367783 -0.168238 0.346384 0.648756 0.298240 0.281312 0.294240 -0.128357 0.284472 -0.111456 0.279162 -0.106956 -0.072539 0.447450 -0.750378 -0.126060 -0.127965 
380700 -0.147301 0.192203 0.093323 0.369246 -0.128933 0.335585 0.661865 0.250381 0.281302 0.295263 -0.068044 0.372011 -0.064228 0.268358 -0.049421 -0.069228 0.390079 -0.765789 -0.127834 -0.136624 
381200 -0.156798 0.643651 0.168985 0.416057 0.144346 0.112237 0.494561 -0.100039 0.208332 0.167436 -0.010876 0.363871 0.052868 0.137169 -0.010067 -0.155852 0.297152 -0.824957 -0.101313 -0.205813 
381400 -0.154689 0.383849 0.136889 0.394190 -0.022655 0.266073 0.652719 0.111373 0.266441 0.271776 -0.044280 0.342442 0.036734 0.159395 -0.011006 -0.087397 0.345113 -0.837662 -0.086776 -0.133967 
381500 -0.151421 0.312783 0.124444 0.388138 -0.059826 0.299583 0.662570 0.165592 0.272253 0.281480 -0.031194 0.352107 0.034100 0.192812 0.024898 -0.098263 0.360277 -0.817713 -0.083752 -0.144792 
381700 -0.145555 0.209662 0.099882 0.360651 -0.114142 0.328717 0.673838 0.227757 0.280124 0.298875 -0.016205 0.337105 0.042996 0.155433 0.008263 -0.054249 0.333344 -0.853760 -0.027349 -0.127693 
381800 -0.169764 0.456816 0.129368 0.403784 0.008721 0.212239 0.625472 0.049849 0.273202 0.263174 -0.004243 0.337678 0.047282 0.132081 0.002743 -0.098981 0.317951 -0.847573 -0.042841 -0.187515 
381900 -0.186212 0.695208 0.122130 0.409566 0.165140 0.012120 0.408334 -0.177340 0.220920 0.157925 0.017556 0.372608 0.053684 0.149163 0.035784 -0.161426 0.290427 -0.821677 -0.048567 -0.215695 
390100 -0.132730 0.773453 0.069726 0.284097 0.283650 -0.236688 0.052290 -0.383852 0.108902 0.012874 0.005392 0.303828 -0.079923 0.200759 -0.002014 -0.251323 0.314862 -0.762797 -0.000791 -0.341764 
390200 -0.101697 0.771058 0.164844 0.297803 0.323446 -0.131199 0.144358 -0.364899 0.055662 -0.018636 -0.018318 0.322789 -0.028065 0.195832 -0.018587 -0.231445 0.321388 -0.786089 -0.064822 -0.277476 
390300 -0.114202 0.726798 0.218717 0.416947 0.242272 0.070600 0.352845 -0.173606 0.126808 0.051391 -0.022049 0.328156 -0.005754 0.183583 -0.006389 -0.196327 0.328040 -0.801577 -0.073941 -0.252791 
390400 -0.117179 0.778551 0.144409 0.304334 0.303537 -0.142245 0.145342 -0.354876 0.084973 0.001920 0.002117 0.346603 0.021787 0.164239 0.020666 -0.236014 0.279152 -0.794909 -0.084541 -0.281654 
390500 -0.135285 0.774831 0.095906 0.338439 0.296889 -0.188770 0.046045 -0.349038 0.097131 -0.020897 0.013022 0.290191 0.016653 0.138452 0.045318 -0.283450 0.249625 -0.790955 -0.044129 -0.352001 
390600 -0.181305 0.753072 0.018255 0.343078 0.265218 -0.253833 -0.007721 -0.360510 0.130857 -0.007224 0.000124 0.301214 0.008383 0.146620 0.025553 -0.288031 0.246848 -0.793557 -0.062896 -0.330855 
390700 -0.219516 0.726685 -0.036446 0.321591 0.238003 -0.301112 -0.015917 -0.382914 0.156063 0.021129 -0.008459 0.221636 -0.145468 0.174088 -0.014131 -0.310496 0.271131 -0.742720 0.044330 -0.419071 
400300 -0.257440 0.702258 -0.076260 0.310264 0.215689 -0.321649 -0.006652 -0.393583 0.176958 0.047264 0.081218 0.306215 0.095970 0.086201 0.102945 -0.184370 0.248167 -0.835925 0.069933 -0.270475 
400400 -0.253574 0.703509 -0.066195 0.290924 0.225804 -0.319703 0.015309 -0.411132 0.164343 0.047814 0.095330 0.293695 0.164699 0.039792 0.116150 -0.134656 0.272262 -0.841729 0.114908 -0.220195 
400500 -0.242937 0.704826 -0.067984 0.292694 0.219285 -0.327004 0.008072 -0.406875 0.172856 0.058323 0.123844 0.322650 0.149023 0.045477 0.119278 -0.052819 0.232225 -0.855793 0.163608 -0.161826 
400800 -0.363812 0.638564 -0.169683 0.293339 0.178449 -0.342952 -0.037154 -0.392173 0.197302 0.038320 0.158828 0.289470 0.124996 0.034285 0.168287 -0.131098 0.193770 -0.823809 0.199662 -0.269445 
410100 -0.268440 0.679886 -0.113312 0.337567 0.191269 -0.348687 -0.048581 -0.372474 0.195635 0.036987 0.011831 0.244415 -0.104136 0.188535 0.025256 -0.327488 0.269504 -0.732206 0.011714 -0.420655 
410200 -0.207099 0.733354 -0.024958 0.321893 0.241852 -0.295154 -0.012810 -0.380584 0.154759 0.022289 0.041924 0.281931 0.023556 0.096869 0.051513 -0.297486 0.208518 -0.797249 0.007192 -0.372196 
410500 -0.207441 0.732670 -0.025212 0.313874 0.234706 -0.300159 0.004121 -0.385502 0.161434 0.033753 0.042216 0.290336 0.088385 0.065502 0.046738 -0.276356 0.239043 -0.813962 0.000943 -0.321848 
410600 -0.222557 0.727149 -0.037962 0.325794 0.232220 -0.299744 -0.017018 -0.377640 0.163961 0.024133 0.037010 0.274827 0.043847 0.073882 0.039414 -0.312994 0.215732 -0.793625 -0.010718 -0.373770 
410700 -0.221597 0.725011 -0.038216 0.313458 0.232544 -0.305383 -0.007219 -0.387847 0.163285 0.032605 0.049770 0.276540 0.037508 0.079778 0.056029 -0.308155 0.208338 -0.793635 0.023407 -0.375990 
410800 -0.216372 0.722031 -0.041811 0.310732 0.225227 -0.316925 -0.006284 -0.390287 0.169032 0.038045 0.048636 0.278399 -0.047673 0.142237 0.015228 -0.330219 0.210268 -0.748142 -0.005420 -0.429405 
410900 -0.268291 0.681457 -0.105817 0.354252 0.192806 -0.340000 -0.068149 -0.359540 0.200057 0.015301 0.032536 0.185086 -0.106924 0.116491 0.039018 -0.326539 0.191357 -0.759172 0.066107 -0.462819 
411000 -0.356084 0.502322 -0.202732 0.399104 0.086095 -0.439407 -0.069006 -0.358014 0.281385 -0.088819 0.039555 0.162488 -0.097194 0.078937 0.009271 -0.309616 0.186526 -0.779704 0.110091 -0.453384 
411100 -0.313489 0.601317 -0.180669 0.332599 0.132721 -0.411459 -0.076665 -0.377138 0.247013 0.028962 0.064707 0.220842 -0.021081 0.044682 0.074705 -0.337209 0.151093 -0.785428 0.081939 -0.422930 
411200 -0.323847 0.631679 -0.177217 0.339970 0.154209 -0.371353 -0.072487 -0.360278 0.224959 0.042126 0.097689 0.244927 0.036649 0.044188 0.093030 -0.339167 0.170823 -0.763219 0.080092 -0.430562 
420100 -0.326028 0.216144 -0.080325 0.477260 -0.031292 -0.431056 0.010492 -0.287416 0.365335 -0.458020 0.084539 0.150336 -0.068088 0.044381 0.076611 -0.355364 0.145441 -0.741144 0.148230 -0.488951 
420200 -0.393817 0.518385 -0.254246 0.376714 0.089951 -0.413794 -0.097650 -0.332562 0.263490 -0.027468 0.109495 0.214958 0.037658 0.038488 0.090336 -0.339412 0.157853 -0.764274 0.122140 -0.437712 
420300 -0.375682 0.560987 -0.242836 0.327666 0.104372 -0.404986 -0.097535 -0.350859 0.260792 0.047821 0.128445 0.211599 0.083821 -0.009455 0.124723 -0.307173 0.141900 -0.781447 0.135516 -0.415383 
420400 -0.378002 0.554005 -0.257068 0.314607 0.096811 -0.411580 -0.089269 -0.352964 0.262452 0.070203 0.112742 0.222441 0.082900 -0.022240 0.085783 -0.301920 0.162371 -0.793894 0.138397 -0.395147 
420500 -0.403590 0.596397 -0.218738 0.294408 0.137567 -0.361193 -0.068850 -0.365701 0.240727 0.033015 0.117152 0.233307 0.121567 0.018443 0.133989 -0.274724 0.171343 -0.802379 0.143932 -0.359738 
420600 -0.413735 0.628446 -0.194406 0.256692 0.153208 -0.324811 -0.079475 -0.366267 0.243474 0.038379 0.135850 0.263750 0.116452 0.010439 0.131289 -0.236730 0.181429 -0.810407 0.152306 -0.334902 
420700 -0.566315 0.523976 -0.267807 0.178959 0.102997 -0.286623 -0.111282 -0.335998 0.286403 -0.030396 0.146347 0.204462 0.094657 -0.005218 0.139328 -0.276089 0.160200 -0.779112 0.216086 -0.390872 
420800 -0.522504 0.440514 -0.343678 0.268743 0.045100 -0.381169 -0.116614 -0.313677 0.288450 0.008918 0.138465 0.219713 0.094620 -0.005620 0.135372 -0.276668 0.145950 -0.788610 0.186172 -0.388370 
421200 -0.755927 0.401316 -0.242075 -0.015977 0.074386 -0.064171 -0.141515 -0.236470 0.309466 -0.165225 0.197823 0.193872 0.057209 -0.009579 0.193133 -0.258232 0.123125 -0.746093 0.286217 -0.402738 
430101 -0.103968 -0.236496 0.138623 0.239378 -0.255670 -0.370423 0.151589 -0.180742 0.475883 -0.609959 0.129624 0.026885 -0.158652 0.008642 0.025566 -0.407976 0.062666 -0.623615 0.215466 -0.592354 
430102 -0.030318 -0.270520 0.247325 0.214884 -0.215887 -0.286689 0.217974 -0.172066 0.393097 -0.676840 0.108203 -0.049418 -0.259318 0.025085 -0.011714 -0.343331 0.054858 -0.605133 0.249255 -0.607156 
430200 -0.320940 -0.120483 -0.108846 0.321900 -0.241714 -0.456197 0.028064 -0.210238 0.491550 -0.462454 0.136599 0.071341 -0.066049 -0.006217 0.117242 -0.401264 0.051356 -0.679957 0.215848 -0.534343 
430300 -0.397113 0.074241 -0.134337 0.380013 -0.132834 -0.435122 0.004189 -0.254866 0.442770 -0.454244 0.147653 0.106865 -0.021549 -0.010312 0.109730 -0.344925 0.087801 -0.722122 0.234237 -0.501155 
430400 -0.426527 -0.123552 -0.107399 0.171030 -0.251915 -0.383672 0.034307 -0.217238 0.536799 -0.463503 0.176020 0.056491 -0.074594 0.007504 0.143580 -0.340394 0.037876 -0.682658 0.295696 -0.518487 
430500 -0.193700 -0.264897 0.007508 0.235891 -0.306519 -0.411688 0.097957 -0.162597 0.517178 -0.519290 0.122811 -0.042666 -0.118872 -0.101721 -0.038773 -0.372985 0.067939 -0.639475 0.266985 -0.577211 
430600 -0.087386 -0.263415 0.159145 0.251127 -0.255252 -0.334861 0.143914 -0.144098 0.457438 -0.637631 0.107794 -0.061556 -0.202450 -0.048717 -0.143541 -0.369681 -0.001875 -0.586183 0.213884 -0.628174 
430700 -0.016572 -0.256118 0.246643 0.254848 -0.222395 -0.277397 0.163103 -0.126556 0.409212 -0.686925 0.070932 -0.130813 -0.299325 0.020469 -0.106272 -0.392707 0.032914 -0.512730 0.222039 -0.639572 
430800 -0.118785 -0.278799 0.100463 0.295246 -0.263077 -0.332512 0.105887 -0.105624 0.444154 -0.641469 0.104014 -0.128676 -0.272975 -0.018402 -0.084663 -0.387432 -0.014897 -0.502312 0.238864 -0.656432 
430900 -0.130303 -0.263598 0.096533 0.254498 -0.267340 -0.371938 0.139227 -0.165364 0.471829 -0.600241 0.137709 -0.040055 -0.153074 -0.106950 -0.048113 -0.358110 -0.012508 -0.637829 0.282181 -0.572185 
431200 -0.010309 -0.267661 0.234188 0.125599 -0.269262 -0.338605 0.214907 -0.190890 0.483535 -0.595018 0.090039 -0.181399 -0.292757 -0.057081 -0.209412 -0.300829 -0.002048 -0.500415 0.261205 -0.645774 
431301 0.021198 -0.246378 0.288230 0.214489 -0.229362 -0.274607 0.175540 -0.139348 0.431153 -0.667552 0.059613 -0.239721 -0.366998 -0.009662 -0.171951 -0.333395 -0.021030 -0.434333 0.256260 -0.639315 
431302 0.015135 -0.252957 0.277466 0.212169 -0.236623 -0.282579 0.173909 -0.139654 0.443747 -0.656719 0.044954 -0.218438 -0.336007 -0.030950 -0.181016 -0.355661 0.029383 -0.464850 0.250217 -0.630545 
431400 0.046579 -0.232768 0.302731 0.221305 -0.231019 -0.262715 0.149179 -0.113561 0.441647 -0.671145 0.057291 -0.206612 -0.367388 0.020708 -0.088133 -0.309126 0.062808 -0.510948 0.316715 -0.591591 
440101 -0.514713 -0.077980 0.156140 -0.291243 -0.159809 0.081610 0.027304 -0.112047 0.520172 -0.551099 0.265740 -0.036745 -0.117548 -0.003538 0.223500 -0.197787 0.063943 -0.576238 0.517612 -0.470179 
440102 -0.349425 -0.033897 0.316953 -0.273883 -0.150716 0.103875 0.005234 -0.090521 0.573396 -0.575128 0.301456 -0.054933 -0.127915 -0.005246 0.231661 -0.196091 0.034552 -0.528243 0.527563 -0.488919 
440201 -0.566548 0.092772 0.119733 -0.469188 -0.000739 0.339972 -0.087691 -0.020652 0.418480 -0.370296 0.296791 -0.045702 -0.098138 -0.020928 0.248190 -0.151945 0.048627 -0.556822 0.550651 -0.446587 
440202 -0.444377 0.067112 0.246278 -0.447532 -0.062326 0.263959 -0.074023 -0.049501 0.534236 -0.412542 0.327916 -0.096153 -0.092188 -0.036143 0.249233 -0.141521 0.030893 -0.493732 0.590637 -0.444632 
440300 -0.475929 0.163693 0.037976 -0.505413 0.112451 0.438470 -0.195972 0.053108 0.445381 -0.212886 0.323139 -0.038252 -0.085738 -0.007654 0.283166 -0.073613 0.061752 -0.542016 0.589836 -0.394468 
440600 -0.292175 0.135793 0.163471 -0.493601 0.117149 0.401882 -0.243167 0.006638 0.612839 -0.125898 0.348084 -0.144013 -0.156774 -0.027016 0.249410 -0.074973 0.016772 -0.431773 0.645648 -0.401738 
440700 -0.266866 0.102683 0.309024 -0.471627 -0.069561 0.231812 -0.130903 -0.040720 0.658243 -0.299431 0.332270 -0.111587 -0.102634 -0.023852 0.271434 -0.125663 0.028606 -0.483412 0.588265 -0.442734 
440800 -0.215045 0.037565 0.356058 -0.384936 -0.123694 0.141967 -0.101614 -0.076927 0.703284 -0.362056 0.319556 -0.113377 -0.183435 -0.015140 0.229758 -0.116041 0.023489 -0.480326 0.573876 -0.473603 
440900 -0.169799 0.114280 0.331830 -0.467390 -0.066013 0.213496 -0.159201 -0.033366 0.702464 -0.244319 0.324764 -0.135619 -0.134500 -0.035609 0.260066 -0.140512 0.018415 -0.462096 0.610005 -0.428278 
450300 0.060955 -0.233388 0.312361 0.087213 -0.271124 -0.317521 0.194633 -0.181025 0.511990 -0.574042 0.170860 -0.196980 -0.275246 -0.068602 0.051402 -0.296577 -0.004791 -0.490628 0.410264 -0.593198 
460100 0.055985 -0.243334 0.326424 0.125431 -0.238329 -0.288063 0.221258 -0.181602 0.454498 -0.622161 0.026599 -0.315248 -0.421349 0.005861 -0.134959 -0.320241 0.055764 -0.388290 0.306915 -0.594557 
460200 0.099677 -0.211468 0.363557 0.140408 -0.232536 -0.269750 0.185786 -0.153017 0.468697 -0.623709 0.030202 -0.326135 -0.428018 -0.004104 -0.167343 -0.334269 -0.000946 -0.349373 0.268716 -0.612778 
460301 0.073829 -0.220795 0.333175 0.202311 -0.222669 -0.250439 0.158158 -0.113751 0.445718 -0.667042 0.066975 -0.283723 -0.406805 0.014565 -0.155047 -0.313369 -0.000156 -0.372241 0.288016 -0.636833 
460302 0.040132 -0.248561 0.322672 0.139952 -0.232126 -0.286900 0.226349 -0.191363 0.442436 -0.626981 0.048652 -0.293374 -0.398150 -0.004852 -0.162304 -0.327975 0.015327 -0.379978 0.285153 -0.627039 
460400 0.036368 -0.244995 0.316363 0.165128 -0.221967 -0.269185 0.211001 -0.165812 0.431470 -0.656803 0.074223 -0.254910 -0.334217 -0.034465 -0.198094 -0.317222 0.003202 -0.428346 0.275242 -0.646144 
460500 0.043578 -0.234889 0.327191 0.141990 -0.235183 -0.280122 0.197125 -0.173917 0.460077 -0.633371 0.134460 -0.198943 -0.332223 -0.043850 -0.152245 -0.255508 -0.021007 -0.493981 0.342413 -0.616344 
460600 0.096545 -0.214326 0.356506 0.147256 -0.241246 -0.269615 0.167020 -0.140261 0.481858 -0.620737 0.089908 -0.265663 -0.405654 -0.004860 -0.159719 -0.299277 -0.022841 -0.374459 0.292280 -0.644604 
460700 0.077848 -0.220054 0.355901 0.168067 -0.225291 -0.250831 0.178793 -0.136598 0.445434 -0.654136 0.055881 -0.306419 -0.460071 0.015801 -0.151590 -0.304266 -0.027184 -0.332093 0.281500 -0.620681 
461000 0.115568 -0.210976 0.368849 0.095631 -0.258226 -0.295534 0.181606 -0.174106 0.508518 -0.566598 0.077788 -0.291782 -0.467969 0.023136 -0.143422 -0.306826 -0.026013 -0.308390 0.294156 -0.626307 
470100 -0.040821 -0.027221 0.451812 -0.254500 -0.230026 -0.050439 -0.019554 -0.122892 0.701264 -0.407402 0.289502 -0.136022 -0.200581 0.020534 0.212406 -0.182307 0.040958 -0.463004 0.549217 -0.510872 
480100 0.086797 -0.194071 0.373007 0.030009 -0.277842 -0.281036 0.148595 -0.171810 0.575380 -0.525289 0.177852 -0.213165 -0.327078 -0.028643 0.013198 -0.248058 -0.005349 -0.471578 0.437860 -0.582482 
480200 -0.047203 -0.109884 0.407219 -0.109445 -0.248642 -0.134070 0.066392 -0.135648 0.640529 -0.543147 0.266304 -0.131502 -0.218099 0.021995 0.175746 -0.241538 0.030441 -0.475423 0.503121 -0.542611 
480300 0.025294 -0.095945 0.446759 -0.120458 -0.265929 -0.148905 0.042445 -0.133975 0.662001 -0.474514 0.270302 -0.165073 -0.227503 0.019887 0.171890 -0.156853 0.022651 -0.473999 0.543410 -0.522401 
480400 0.109066 -0.173635 0.398310 0.058050 -0.266485 -0.258145 0.124297 -0.147481 0.564592 -0.549833 0.209702 -0.229728 -0.303150 0.003116 0.026237 -0.229219 0.018229 -0.431999 0.488408 -0.576727 
480500 0.086801 -0.208466 0.370020 0.094734 -0.251138 -0.275047 0.182839 -0.166321 0.501311 -0.593289 0.081180 -0.281678 -0.438349 0.011633 -0.105572 -0.276910 0.002936 -0.388447 0.355309 -0.597339 
490300 -0.172672 -0.015165 0.200670 -0.329678 0.256432 0.427503 -0.318933 -0.107378 0.676686 0.036463 0.351805 -0.174388 -0.181884 -0.002443 0.257588 -0.030405 0.021988 -0.399308 0.659034 -0.388846 
490400 -0.051820 0.105918 0.303376 -0.425213 0.016363 0.249833 -0.243774 -0.016637 0.760492 -0.111885 0.348795 -0.200067 -0.179221 -0.023844 0.228141 -0.076658 0.014685 -0.385019 0.635388 -0.442186 
490500 0.004999 0.058168 0.195368 -0.344218 0.168867 0.326744 -0.341562 -0.029168 0.762022 0.080420 0.346554 -0.198263 -0.186405 -0.014394 0.253728 -0.071525 0.005550 -0.382077 0.641668 -0.422367 
490600 -0.050782 -0.147502 0.169299 -0.122887 0.368992 0.416274 -0.357313 -0.177387 0.661619 0.159950 0.363478 -0.176652 -0.208698 0.033767 0.286142 0.036740 0.035085 -0.348660 0.687707 -0.336183 
490700 -0.023722 -0.257607 0.186156 0.003213 0.421435 0.387248 -0.331424 -0.267843 0.578903 0.232667 0.367452 -0.247575 -0.183257 -0.006661 0.260836 0.007742 0.015583 -0.308364 0.689789 -0.361695 
490800 0.169530 -0.099933 0.287325 -0.114342 0.226706 0.254730 -0.341508 -0.146177 0.765385 0.159847 0.374356 -0.214857 -0.194062 -0.007899 0.272391 -0.041692 0.006856 -0.320203 0.649946 -0.418366 
490901 0.141146 -0.319966 0.201358 0.133016 0.386576 0.256431 -0.307657 -0.309613 0.555998 0.323445 0.374140 -0.264510 -0.218007 -0.003574 0.249291 -0.015635 -0.007250 -0.271643 0.673058 -0.391502 
490902 0.189404 -0.210891 0.252657 -0.005237 0.304077 0.239433 -0.327355 -0.242019 0.679649 0.279892 0.359578 -0.252872 -0.212038 0.003105 0.252073 -0.011340 0.000084 -0.301205 0.683918 -0.373700 
491000 0.102382 -0.304073 0.175418 0.131248 0.416264 0.309770 -0.329908 -0.280241 0.551542 0.297076 0.374444 -0.283731 -0.183587 0.006831 0.288899 -0.015294 0.005772 -0.236835 0.688173 -0.363503 
491100 0.064906 -0.377503 0.153562 0.182161 0.439244 0.286716 -0.279832 -0.345640 0.475121 0.312826 0.352505 -0.291015 -0.148621 0.079694 0.348946 0.041626 0.089439 -0.254840 0.675215 -0.332050 
491200 0.022066 -0.421126 0.158415 0.231299 0.447948 0.280696 -0.255687 -0.384501 0.398892 0.302972 0.376301 -0.342261 -0.178849 0.080332 0.331193 0.040397 0.015871 -0.182010 0.657707 -0.354309 
491300 0.033180 -0.406839 0.173270 0.206655 0.440714 0.285534 -0.257059 -0.377780 0.427467 0.305563 0.339977 -0.346560 -0.232954 0.085576 0.308634 0.024976 0.039153 -0.189807 0.669607 -0.347720 
491400 0.154429 -0.331195 0.223064 0.138998 0.377982 0.240838 -0.288104 -0.328033 0.547951 0.325038 0.363353 -0.278594 -0.224725 0.026216 0.272821 -0.016547 0.029524 -0.227445 0.681377 -0.384173 
500100 0.163288 -0.065692 0.475234 -0.170190 -0.163929 -0.064388 -0.104442 -0.145315 0.778312 -0.213067 0.304228 -0.191883 -0.201104 0.018788 0.229035 -0.143564 0.013423 -0.428490 0.585749 -0.479455 
500200 0.210160 -0.243988 0.450574 -0.006717 0.068471 0.031448 -0.178170 -0.308316 0.746587 0.058031 0.294872 -0.301246 -0.223094 0.021372 0.228967 -0.080929 0.042197 -0.350692 0.625772 -0.443556 
500300 0.191425 -0.311961 0.283418 0.098007 0.310247 0.192394 -0.271372 -0.325358 0.618777 0.283640 0.351739 -0.267581 -0.241299 0.062902 0.247242 -0.034273 0.038146 -0.270136 0.654884 -0.420586 
510100 0.137391 -0.189738 0.404212 0.068644 -0.256241 -0.276535 0.155298 -0.169898 0.534888 -0.543879 0.109882 -0.298705 -0.477968 0.095970 -0.026654 -0.291107 0.022917 -0.275933 0.360576 -0.607375 
510200 0.150393 -0.182319 0.413517 0.055808 -0.273672 -0.289481 0.150006 -0.171594 0.548159 -0.508833 0.105605 -0.311705 -0.380127 -0.003530 -0.041583 -0.257799 0.063048 -0.403336 0.406134 -0.589398 
510300 0.195314 -0.148317 0.439810 0.010613 -0.270734 -0.274042 0.109723 -0.164457 0.596358 -0.450761 0.202380 -0.265277 -0.320873 0.038181 0.057838 -0.236400 0.001611 -0.415887 0.461298 -0.582463 
520100 0.117251 -0.210805 0.374669 0.082490 -0.246244 -0.289081 0.218129 -0.179812 0.476456 -0.586093 0.072015 -0.349112 -0.423598 0.122311 -0.014987 -0.270712 0.054780 -0.370987 0.366993 -0.574207 
520200 0.133131 -0.199524 0.378764 0.091341 -0.256477 -0.289105 0.172461 -0.161684 0.516153 -0.564802 0.076965 -0.300982 -0.479277 0.039055 -0.064209 -0.298043 0.030138 -0.315182 0.345587 -0.599686 
520300 0.150640 -0.181869 0.402915 0.088270 -0.262624 -0.274121 0.138953 -0.146900 0.542450 -0.542997 0.122387 -0.349568 -0.458566 0.101278 0.011271 -0.217410 0.042354 -0.299452 0.423926 -0.568956 
520400 0.151266 -0.181361 0.412734 0.081865 -0.255904 -0.266788 0.149592 -0.149413 0.524795 -0.557136 0.055363 -0.374364 -0.456204 0.101466 -0.012519 -0.289131 0.083835 -0.274650 0.346902 -0.593139 
