77 20
0 0.520020 -0.177965 -0.041873 0.064851 0.213501 0.486703 -0.007483 0.399810 -0.459067 -0.197079 0.062369 0.071428 0.309586 0.587116 0.052471 -0.373884 -0.382130 -0.295875 0.417221 0.016697 
1 0.533615 0.179143 -0.306088 -0.078587 0.313001 0.395016 0.012984 0.364955 -0.355605 -0.263581 0.012296 0.264988 0.069991 0.371757 -0.257660 -0.516228 -0.338667 -0.045570 0.504625 0.286758 
2 0.410836 -0.268642 -0.419893 0.065199 0.214422 0.095721 -0.492687 -0.505799 0.026504 0.155145 0.321304 -0.208651 -0.128440 0.443374 0.123833 -0.295043 -0.199859 -0.476890 0.295075 0.428169 
3 0.383489 0.528961 -0.562010 -0.229969 0.305414 0.113178 -0.059251 0.123481 -0.087851 -0.268017 -0.046326 -0.024181 0.324321 0.558425 -0.307876 -0.340823 0.028701 -0.528512 0.172435 0.243754 
4 -0.065973 0.188849 -0.485921 -0.003263 0.010924 0.261027 -0.750131 -0.040497 0.297734 0.051156 0.298172 -0.289517 0.134796 0.245154 -0.257279 -0.099083 0.252988 -0.519696 0.095613 0.574252 
5 0.230111 -0.061863 -0.068409 0.454498 0.126279 0.197858 -0.677286 -0.415723 0.208806 0.041684 -0.920127 -0.014547 -0.056636 -0.016329 -0.140345 0.006498 0.159127 -0.114270 0.269374 0.137838 
6 0.000736 0.327226 0.390199 0.575254 0.292182 0.270947 -0.274712 -0.403055 0.020784 -0.112324 0.199783 0.324058 -0.005959 0.677020 -0.198654 0.147704 0.179804 -0.172183 -0.519322 0.061075 
7 -0.569236 -0.295495 0.149722 0.103370 -0.045427 -0.159542 0.042993 -0.361828 0.383609 0.498106 0.304097 -0.027102 0.434616 0.035140 -0.081342 0.169811 0.642513 0.394148 0.313881 0.120478 
8 0.113488 0.105454 0.099997 -0.258410 -0.234612 -0.664456 0.039682 0.155516 -0.256950 -0.557581 -0.027462 0.003318 0.214752 0.641644 0.250527 -0.294596 -0.209150 0.063991 0.513394 0.283631 
9 0.316049 0.227758 0.224391 -0.119988 -0.357302 -0.565042 -0.172248 0.032803 -0.247871 -0.494337 0.034202 0.119473 0.512304 0.144046 -0.422495 -0.533634 -0.253740 0.069028 0.189932 0.364503 
10 0.368827 0.309407 0.144877 -0.167386 -0.283051 -0.547927 -0.159355 0.006017 -0.217584 -0.515861 0.082035 0.162026 0.238523 0.404555 -0.205910 -0.617051 -0.235515 -0.236582 0.379151 0.260986 
11 0.491283 0.419035 -0.048951 -0.209895 -0.137243 -0.336327 -0.101134 0.114866 -0.283080 -0.548717 0.010453 0.039984 0.385391 0.345610 -0.262905 -0.513565 -0.338773 -0.119094 0.419399 0.304311 
12 0.523186 0.471761 -0.252993 -0.222862 0.045121 -0.083149 -0.094126 0.199304 -0.242896 -0.522987 0.135546 0.202574 0.331541 0.355668 -0.181336 -0.525714 -0.161014 -0.397407 0.350602 0.296874 
13 0.322194 0.605315 -0.353572 -0.289120 -0.047473 -0.302577 -0.153969 0.002839 -0.007778 -0.451220 -0.006730 -0.004174 0.145093 0.415054 -0.256094 -0.507891 0.019530 -0.539158 0.208009 0.385665 
14 0.357170 0.333485 0.108187 -0.188840 -0.347961 -0.474831 -0.214990 -0.006605 -0.147518 -0.547070 -0.030547 -0.029190 0.133659 0.320287 -0.420007 -0.482569 0.049851 -0.406744 0.272754 0.475570 
15 0.339015 0.385493 -0.111145 -0.219723 -0.333221 -0.418355 -0.326047 -0.066522 -0.054789 -0.525397 0.113924 0.009046 0.125653 0.391157 -0.463593 -0.238322 0.341079 -0.482380 -0.009152 0.444210 
16 0.323385 0.360719 0.129367 -0.224438 -0.356494 -0.449959 -0.233378 -0.010142 -0.089573 -0.553221 0.005402 0.346340 0.480826 0.405711 0.151088 -0.294157 -0.169570 -0.072446 0.388207 0.436076 
18 0.268805 0.306963 0.089064 -0.178414 -0.486646 -0.460108 -0.156342 -0.035619 -0.107635 -0.554917 -0.118497 0.132513 -0.033950 0.427831 -0.195247 -0.486310 0.006145 -0.414951 0.350059 0.463492 
20 0.248087 0.189671 0.095957 -0.102419 -0.587326 -0.368569 -0.269321 -0.072576 -0.153767 -0.548215 0.154800 -0.301755 -0.053110 0.321066 -0.422332 -0.166506 0.396558 -0.326518 -0.109788 0.545035 
21 -0.357580 0.061615 -0.380217 0.235988 -0.435253 0.330750 0.181357 -0.366928 -0.358885 -0.270035 -0.117055 -0.410753 0.189618 0.110556 -0.011519 0.393869 0.275668 -0.657617 -0.134894 0.295783 
22 -0.049609 0.247037 0.183831 -0.079837 -0.718528 -0.141600 0.114457 -0.059622 -0.210433 -0.546877 -0.168368 -0.105655 0.358039 0.473864 -0.471651 0.178951 0.411796 -0.259399 -0.245305 0.237134 
23 -0.431934 0.181731 -0.207793 0.293867 -0.166262 0.223209 0.174552 -0.475059 -0.493919 -0.270742 0.044684 0.088956 -0.615246 0.106415 0.295205 -0.292258 0.504323 -0.089471 -0.001495 0.406607 
27 -0.536740 -0.378376 0.222495 0.118651 -0.088690 -0.154112 0.068013 -0.337250 0.343368 0.487113 -0.033675 0.083724 -0.428849 0.130921 -0.213939 0.755028 -0.193586 -0.025120 0.184382 0.320725 
30 -0.204367 0.359715 0.479530 -0.359295 -0.219238 0.269283 0.521212 0.190742 0.179073 -0.095427 -0.198191 0.113746 0.094167 0.479524 0.171162 0.292425 0.253362 0.470297 -0.492826 -0.256736 
31 -0.547857 -0.361317 0.190479 0.118847 -0.025148 -0.104617 0.067147 -0.326646 0.351879 0.521818 -0.300337 -0.381603 0.061205 -0.055223 0.238855 -0.335570 -0.171641 0.061180 -0.654785 0.354648 
32 -0.164823 0.533899 0.636755 -0.078009 0.347598 0.300497 0.073371 -0.189386 0.144099 -0.055724 -0.091091 0.484940 -0.162326 -0.048368 0.624868 0.487536 0.266481 0.053984 -0.080989 -0.138601 
34 -0.313258 0.368804 0.445669 -0.089426 -0.069846 0.052341 0.515974 0.480135 0.197440 -0.126001 -0.014958 0.425544 -0.193006 -0.066960 0.450780 0.368057 -0.202173 0.623785 -0.074321 -0.052730 
38 -0.318320 0.344885 0.369927 0.040307 -0.134051 0.036115 0.500575 0.569531 0.187111 -0.109683 -0.000052 0.334099 -0.051219 0.002132 0.418039 0.355568 -0.477427 0.587695 0.047601 -0.094749 
40 -0.337059 0.382440 0.323538 0.073325 -0.116104 -0.017292 0.485719 0.568320 0.220347 -0.093998 -0.041378 0.598531 -0.054446 -0.171997 0.500495 0.208260 -0.260492 0.482876 -0.071566 -0.086521 
42 -0.357789 0.262580 0.311160 0.154896 -0.050995 0.028330 0.494000 0.595484 0.171021 -0.225694 -0.035522 0.362975 0.198315 0.219186 0.696458 -0.015645 -0.190652 0.451740 -0.016437 -0.231581 
45 -0.334257 0.317742 0.299775 0.071827 -0.126990 0.019777 0.429392 0.612254 0.249686 -0.232798 -0.077927 0.177484 0.466494 0.175665 0.386592 0.005728 -0.086123 0.552873 -0.007792 0.501318 
55 -0.098823 0.294197 -0.022639 0.766709 -0.009768 -0.067982 0.160239 0.492843 0.189742 0.077707 0.077412 -0.201453 -0.233609 0.509479 0.478865 0.275911 -0.368239 0.266235 0.355737 -0.028508 
57 0.181010 0.298734 0.378624 -0.425725 -0.470906 0.268240 0.426577 0.122893 0.047187 0.245749 0.036037 0.472845 0.361824 -0.259300 0.240419 -0.283220 -0.414438 0.115175 0.040675 0.502267 
58 0.144005 0.345970 0.442394 -0.420810 -0.445856 0.240999 0.433302 0.134033 0.013072 0.154986 -0.034409 0.556775 0.392682 -0.322473 0.447557 0.147042 -0.396323 0.143684 0.002939 0.175999 
59 -0.210963 0.328039 0.413014 -0.414020 -0.224762 0.156702 0.552992 0.304079 0.175718 -0.040963 0.109364 0.257971 0.230369 -0.266017 0.591198 0.339708 -0.086574 0.554174 -0.010489 0.134256 
63 0.041622 0.349936 0.847070 -0.304376 -0.072953 0.179669 0.045329 0.123962 0.011558 0.102382 -0.289444 0.322649 0.311740 0.290230 0.444928 -0.070913 -0.461147 0.229852 -0.051678 0.399445 
75 -0.184181 -0.086882 0.104602 0.074740 0.515408 -0.296190 -0.337860 0.152279 -0.590171 0.320917 -0.055662 -0.369579 -0.213675 0.692194 0.338327 0.051683 -0.055677 -0.181873 0.417095 -0.090790 
76 0.536399 -0.094333 -0.123012 0.034469 0.257775 0.469973 -0.016351 0.391504 -0.453234 -0.201916 0.180049 0.546724 0.355901 -0.136382 0.109160 -0.188771 -0.070015 -0.594127 0.105070 0.327002 
19 0.137721 0.319414 0.036907 -0.273160 -0.581587 -0.360973 -0.037092 0.108810 -0.227648 -0.519081 0.069797 0.177657 0.220227 0.377687 -0.312736 -0.244918 0.463721 -0.128387 0.116315 0.607932 
24 0.257070 0.227473 0.263994 -0.325656 -0.589684 -0.433531 0.086380 0.092559 -0.165645 -0.356768 0.056546 0.083194 0.638392 0.442167 0.150695 -0.173396 -0.268277 0.250310 0.368359 0.252454 
28 -0.231463 0.053627 0.199843 -0.340075 -0.084728 0.116853 0.760048 0.112386 0.127396 -0.400742 0.029223 0.438000 0.332799 0.389093 0.482155 -0.347010 0.148183 0.080356 -0.102979 0.391464 
37 -0.298133 0.409121 0.396715 -0.053017 -0.069076 0.058099 0.473716 0.574722 0.139254 -0.035950 0.124714 0.438929 0.095231 0.097052 0.423913 0.547603 -0.210643 0.325377 0.320505 0.201904 
60 -0.310455 0.493694 0.564919 0.017889 -0.075815 0.204130 0.241029 0.392612 0.178249 -0.221364 -0.125067 0.278124 0.300181 0.174046 0.408653 0.211345 -0.042971 0.293081 0.314712 0.623020 
62 0.238255 0.005994 0.439173 -0.058572 -0.562247 -0.278223 0.224549 0.267503 -0.069851 -0.475927 0.090372 0.176086 0.531846 0.355923 0.251766 0.016923 0.009513 0.377925 0.144951 0.568933 
65 -0.165222 -0.075734 0.303505 -0.278930 -0.041806 -0.471528 0.440220 0.500539 -0.292338 -0.207770 -0.056921 0.004176 0.551387 0.368750 0.383005 -0.278409 0.146152 0.267494 0.084107 0.482231 
66 -0.377184 0.268696 0.361441 0.198733 0.072050 -0.286045 0.349500 0.580510 -0.091741 -0.246634 0.030231 0.132486 0.575745 0.297505 0.403343 -0.123209 -0.000921 0.353508 -0.169810 0.479449 
26 0.013905 0.271825 0.537873 -0.176180 -0.320130 0.304288 0.482345 0.194874 0.310559 -0.208369 -0.405384 0.073409 0.330398 0.400530 0.545062 -0.233474 -0.268500 0.054485 -0.150833 0.333577 
29 0.041341 0.368679 0.522846 -0.188495 -0.426062 0.027528 0.576392 0.129129 -0.119910 0.088886 -0.171372 0.319388 0.166841 0.112730 0.395034 -0.077912 0.083888 -0.097085 -0.172517 0.787230 
33 -0.291930 0.367073 0.485715 -0.246324 -0.142469 0.156544 0.498281 0.399943 0.157992 -0.073731 0.084073 0.260683 -0.128899 -0.151775 0.561475 0.434070 -0.141280 0.578054 -0.159747 0.045041 
35 -0.094708 0.456366 0.502924 0.189561 -0.006563 -0.100766 0.656460 0.210977 0.017805 -0.089046 0.144739 0.297177 0.422360 0.152807 0.563144 0.253071 -0.252992 0.473290 0.061377 0.126678 
39 -0.319428 0.137215 0.313351 -0.303478 0.001131 0.047837 0.554897 0.547551 0.127309 -0.250259 0.125452 0.164541 0.441120 0.274764 0.509686 -0.045397 -0.166006 0.571992 0.138744 0.226456 
41 -0.291212 0.346269 0.315063 0.072828 -0.158326 -0.040255 0.511199 0.595411 0.192586 -0.105404 -0.059340 0.358780 0.123967 0.086410 0.401980 0.276370 -0.481046 0.609258 -0.009083 0.065342 
43 -0.422945 0.022065 0.120265 0.029311 -0.043163 -0.104545 0.488993 0.597934 0.228367 -0.379111 0.143088 0.420667 0.227861 -0.024362 0.504813 0.071052 -0.430171 0.500993 0.190727 -0.133226 
44 -0.227574 0.040333 0.294494 -0.213702 -0.151089 -0.382239 0.360880 0.594514 -0.046114 -0.399307 0.087843 0.285768 0.352003 0.230481 0.418063 0.009283 -0.486471 0.425930 0.349253 0.136684 
48 0.066245 0.277926 0.346704 -0.134135 -0.038528 -0.236049 0.531559 0.607338 0.246888 -0.102963 0.025641 0.378366 0.353806 0.246567 0.459497 0.072521 -0.238167 0.360094 0.407563 0.318296 
50 -0.243318 0.170692 -0.142386 0.465792 -0.275770 0.066933 0.461600 -0.255644 -0.384511 -0.409412 -0.212311 0.232024 0.255434 0.668871 0.308945 0.083041 -0.087612 0.029513 0.113951 0.514373 
67 -0.368102 0.197298 0.155334 0.164788 -0.162686 -0.038164 0.594685 0.531920 0.071074 -0.323616 -0.077402 0.264394 0.488861 0.184180 0.384733 0.069907 -0.421564 0.466272 0.128774 0.294248 
68 -0.423517 -0.032917 0.005675 0.050310 0.002537 -0.178081 0.474070 0.578365 0.205574 -0.428669 -0.104535 0.418982 0.281376 -0.010503 0.498049 0.032066 -0.593875 0.357384 0.032888 -0.060582 
72 -0.083416 0.354995 0.253141 0.096136 0.046323 -0.190965 0.499080 0.696869 0.124999 0.068942 -0.021034 0.514085 0.299518 0.050398 0.475960 -0.023417 -0.509734 0.197616 0.063679 0.336157 
17 -0.107439 -0.030477 -0.067421 -0.479285 -0.290119 -0.551617 0.342661 0.369423 -0.274532 -0.188573 -0.227689 0.097618 0.386834 0.402108 0.210384 -0.136966 0.108449 -0.003951 0.150597 0.727887 
69 -0.219768 0.491968 0.363932 0.196852 0.178301 -0.160557 0.632359 0.023360 -0.263773 -0.104419 -0.114338 0.193456 0.426415 0.331620 0.457653 -0.007747 -0.229677 0.431261 0.126927 0.439711 
36 0.144744 -0.106270 0.211048 -0.246054 -0.364187 -0.264863 0.283747 0.528041 0.450078 -0.313015 -0.017061 0.231392 0.266413 0.350588 0.439355 -0.147718 -0.501343 0.175869 0.282211 0.418936 
64 0.191158 0.491083 0.021686 0.207533 -0.030916 -0.478730 0.493411 0.387268 0.234889 -0.003681 0.078608 0.323586 0.300462 0.345999 0.387393 -0.019487 0.087609 0.274440 0.199433 0.637104 
25 0.252516 -0.108525 0.015648 0.231222 -0.778967 -0.236069 0.410963 -0.008096 -0.117244 -0.159780 0.036633 0.085342 0.165207 0.417967 0.254314 -0.202147 0.267952 -0.233280 -0.042429 0.745538 
56 -0.189134 0.479872 -0.016882 0.395790 -0.110999 -0.196635 0.428929 0.211399 -0.441125 0.320577 0.109331 0.451891 0.303617 0.290914 0.060254 -0.251805 0.111758 0.150148 0.017004 0.710400 
61 0.076973 -0.100668 0.133431 0.251490 -0.598749 -0.065323 0.551826 0.256418 0.071796 -0.405840 -0.117093 0.101529 0.556291 0.383029 0.188105 -0.063412 0.057208 -0.018877 0.102328 0.682866 
70 -0.330792 -0.070682 -0.116209 -0.157775 0.133544 -0.338797 0.525928 0.407608 0.259640 -0.452115 0.027767 0.357271 0.298895 0.142547 0.462878 -0.088121 -0.466850 0.304980 0.039396 0.476858 
71 0.090877 -0.146280 0.274415 0.293903 0.076091 -0.140335 0.564043 0.218616 0.382626 -0.520421 -0.127225 -0.006514 0.390679 0.473375 0.570396 -0.015031 -0.006195 0.316533 -0.055313 0.422125 
73 0.194042 -0.418532 0.146241 -0.001595 -0.442935 -0.189774 -0.267766 -0.448560 -0.503604 -0.084037 -0.008476 -0.457094 0.076622 0.218556 -0.298039 -0.194875 -0.454116 -0.556222 -0.211353 0.224226 
74 0.397687 0.362805 0.537478 -0.231562 -0.326457 -0.056297 0.239789 0.236207 0.298081 0.236274 -0.021382 0.159936 0.433274 0.432431 0.305453 -0.082058 -0.149174 0.104551 0.122135 0.671643 
52 -0.111726 0.453565 -0.204746 0.526258 0.309316 0.071091 -0.034768 -0.261432 -0.533918 0.087020 0.056768 0.262686 0.055112 0.474289 0.594740 0.297350 -0.230139 0.087151 -0.228542 0.380610 
47 -0.500383 0.358309 0.154428 0.401354 0.222835 -0.109520 0.004959 0.572804 -0.018572 -0.214883 -0.176202 0.486460 0.307167 0.203350 0.416825 0.179535 -0.357002 0.209068 0.178970 0.432945 
49 -0.117457 0.471124 0.172608 0.322349 -0.436306 0.036775 0.351642 0.451265 -0.221014 0.250379 -0.010634 0.312820 0.361734 0.528636 0.010124 0.052609 0.104023 0.283444 -0.035363 0.629636 
51 0.513907 0.273207 -0.340320 -0.044676 -0.138735 -0.005436 0.514340 -0.239285 0.184987 0.410054 0.248201 0.141005 -0.182019 0.248885 0.143317 0.129631 0.185556 0.192229 0.205091 0.820153 
54 0.287972 0.456907 0.173607 0.053492 0.320946 0.196341 0.501109 -0.021979 0.465874 0.255186 0.058220 0.011591 0.394531 0.127156 0.473636 -0.054677 -0.067295 0.391686 -0.173412 0.639776 
46 0.176624 -0.460115 0.216383 -0.602990 0.055171 -0.113125 0.200740 0.388046 -0.061215 -0.369073 0.248094 0.289558 0.232942 0.265748 0.276836 0.450600 0.185313 0.341224 0.337296 0.430696 
53 0.138896 -0.205551 0.358579 -0.385454 -0.272538 0.499828 -0.102192 -0.214024 0.259806 -0.462006 -0.268984 -0.065048 0.466165 0.422551 0.160841 0.141871 -0.323020 -0.078252 0.292125 0.534563 
