77 40
0 0.296475 0.006538 -0.015911 -0.103396 0.127345 0.326379 0.042500 0.112397 -0.284409 -0.022469 -0.551665 -0.277500 -0.048708 0.144357 0.092062 0.359461 -0.056044 -0.208467 -0.184018 -0.244626 0.487777 0.073088 0.191214 0.326210 0.021165 -0.092923 -0.301948 -0.265791 -0.014099 0.249933 0.200080 0.122994 -0.161113 -0.202243 0.192431 0.382595 0.249115 0.091431 -0.065903 0.001164 
1 0.340719 0.148563 -0.198845 -0.090084 0.208360 0.276096 0.038943 0.183809 -0.166888 -0.115846 -0.552791 -0.251790 -0.156431 0.097139 0.112268 0.094496 -0.037474 -0.325605 0.025664 -0.292353 0.001984 -0.020145 0.214334 0.372679 -0.188333 -0.090531 -0.050344 0.125774 0.143945 0.191280 -0.002780 0.252025 -0.534814 -0.056483 0.263395 0.405217 0.186232 -0.056154 -0.260830 -0.056994 
2 0.218144 -0.420882 -0.280481 0.090688 0.126318 0.122432 -0.194154 -0.226944 -0.099481 0.277990 -0.245071 0.013255 0.205376 0.146512 0.196814 -0.202981 0.356482 -0.279620 -0.237726 -0.124333 0.114479 -0.138166 -0.548852 0.308086 -0.144795 -0.292512 0.130996 0.021178 -0.038719 0.237558 0.160308 0.344327 -0.419574 -0.009007 0.187933 -0.019207 0.063616 -0.006138 -0.033122 0.168302 
3 0.295990 0.219798 -0.384863 -0.033268 0.256920 0.196594 0.008418 0.206869 0.013130 -0.148830 -0.392999 -0.129583 -0.185739 0.049521 0.129410 -0.190773 0.060212 -0.387747 0.248885 -0.260303 0.291512 0.060939 0.262124 0.288947 -0.293493 -0.405113 0.022749 -0.377821 0.129331 0.271930 0.339787 0.217498 -0.004289 -0.110294 0.137194 0.006726 -0.075476 0.264106 -0.014123 -0.073864 
4 -0.020615 -0.052709 -0.483815 0.016835 -0.312899 0.183866 -0.547933 -0.113032 0.114887 -0.014868 -0.019833 -0.042014 0.148771 0.165816 0.137068 -0.093404 0.448092 -0.133818 -0.022919 0.076027 0.386218 -0.354671 -0.072281 -0.101683 -0.124462 -0.003641 0.245650 -0.192285 -0.039062 0.361618 0.008925 0.472764 -0.154003 -0.272969 -0.079244 -0.007154 0.331340 0.102105 -0.046650 -0.117612 
5 0.442367 0.164398 -0.292629 0.181777 0.063394 -0.117774 -0.331828 -0.081818 -0.159632 0.150296 0.277507 -0.114188 0.322149 -0.162137 -0.042932 0.181296 0.173385 -0.303113 -0.123747 0.289417 -0.093904 -0.066052 0.388339 0.146037 -0.087920 -0.072084 0.283101 0.388164 0.241529 0.092185 0.089106 0.206267 0.155751 0.024141 0.211984 0.175309 0.268247 0.232509 0.464064 0.108337 
6 0.500491 0.180135 -0.203319 0.073207 0.169989 -0.108572 -0.151742 0.010960 -0.182594 0.115629 0.447294 -0.029269 0.160637 -0.337637 -0.122211 0.138412 -0.089886 -0.203483 -0.148211 0.336966 -0.020359 0.331727 0.171033 0.125064 -0.146737 0.298143 0.261349 -0.246570 -0.225334 0.156686 0.038638 0.259987 -0.249357 -0.095899 -0.084984 -0.168089 -0.057753 0.244987 -0.471466 0.261207 
7 -0.308043 -0.384636 0.115798 0.149650 0.086407 0.019178 0.087509 -0.109061 0.111661 0.321334 0.491771 0.316145 0.202977 0.030360 -0.018976 0.153088 0.139427 0.299330 0.083665 0.233471 0.316119 0.034508 -0.170044 -0.166418 -0.227577 0.299736 0.162494 0.090115 0.305397 0.090333 -0.073226 0.331920 -0.128672 0.114003 -0.140212 0.133710 -0.340564 0.354553 0.285378 -0.242750 
8 0.107745 0.320264 -0.000308 -0.178401 -0.169294 -0.382022 -0.130987 0.002301 -0.050633 -0.354903 -0.329381 -0.240024 -0.178023 -0.174732 -0.151941 -0.335077 -0.318969 -0.102078 -0.191704 -0.145295 -0.002915 0.132719 0.151243 0.367244 0.182881 -0.204405 -0.304694 -0.060330 0.193865 0.287900 0.224404 0.341603 -0.341080 0.170987 -0.072675 0.314239 0.239863 0.012971 0.042603 -0.237260 
9 0.072535 0.273300 0.167038 -0.117394 -0.333714 -0.407898 -0.191985 -0.106382 -0.070593 -0.269931 -0.209889 -0.276829 -0.186524 -0.189502 -0.139430 -0.312697 -0.277385 0.022806 -0.295745 -0.032518 0.308457 0.148251 0.302087 0.322678 -0.237189 -0.233562 -0.110312 0.155911 0.255308 0.213210 0.069881 0.102581 -0.291816 -0.159702 0.008510 0.149159 0.070979 -0.248677 -0.067348 -0.458005 
10 0.126690 0.306892 0.112655 -0.117040 -0.279584 -0.371242 -0.188820 -0.090760 -0.050077 -0.294219 -0.270370 -0.285411 -0.204180 -0.178440 -0.113624 -0.360577 -0.255505 -0.047200 -0.265519 -0.073480 0.030412 0.294586 0.310682 0.359258 -0.043639 -0.325273 -0.161391 0.087830 0.220178 0.122234 -0.099905 0.176537 -0.254810 -0.034648 0.076369 0.140567 0.213837 -0.328879 -0.152197 -0.414606 
11 0.185884 0.371335 -0.009180 -0.121527 -0.210930 -0.289365 -0.155935 -0.026101 -0.035045 -0.320031 -0.332787 -0.290340 -0.246027 -0.162082 -0.088100 -0.381177 -0.233957 -0.150718 -0.174356 -0.114378 0.194662 0.088041 0.248299 0.388390 -0.140118 -0.325870 -0.098097 0.060648 0.225050 0.263253 0.099889 0.223770 -0.314796 -0.122990 0.090006 0.207203 0.214170 -0.270488 -0.117676 -0.352977 
12 0.281220 0.378473 -0.211494 -0.112572 -0.001653 -0.042341 -0.093799 0.121518 -0.005104 -0.326445 -0.435339 -0.251505 -0.250347 -0.070028 0.023458 -0.330163 -0.078298 -0.308004 0.044442 -0.235449 0.305616 0.130448 0.327385 0.476702 -0.041578 -0.263072 -0.101098 -0.079938 0.187342 0.183288 -0.022988 0.274316 -0.212782 -0.183102 0.276794 0.133649 0.150686 -0.149467 -0.240434 -0.216810 
13 0.181553 0.399339 -0.251886 -0.073743 -0.086907 -0.192835 -0.158861 0.069276 0.144100 -0.334231 -0.245035 -0.136278 -0.234074 -0.128764 -0.008326 -0.525226 -0.022389 -0.274404 0.104856 -0.136835 0.258441 0.071848 0.246975 0.298739 -0.067129 -0.160779 0.129549 -0.099326 0.162642 0.274461 0.004310 0.396426 -0.109919 -0.209565 0.068239 0.083405 0.433466 -0.199185 -0.288385 -0.288964 
14 0.137233 0.359359 0.046974 -0.142319 -0.323963 -0.325881 -0.213877 -0.072547 0.004329 -0.352528 -0.253636 -0.238441 -0.176945 -0.162666 -0.085785 -0.396358 -0.171305 -0.108314 -0.228894 -0.078936 0.062501 0.203967 0.204625 0.303600 -0.198397 -0.436206 0.113215 -0.024911 0.292289 0.256005 0.031553 0.339361 -0.099452 -0.099234 0.063439 0.023320 0.194011 -0.302551 -0.099558 -0.383202 
15 0.096206 0.351826 -0.050947 -0.122870 -0.371769 -0.334252 -0.273237 -0.084855 0.092355 -0.350079 -0.160876 -0.158411 -0.139141 -0.163496 -0.077731 -0.476643 -0.057686 -0.133071 -0.184595 -0.031346 0.109819 0.352460 0.325288 0.184620 -0.265543 -0.271476 0.260646 -0.229767 0.018602 0.170182 -0.051834 0.382621 -0.206925 -0.016680 0.195966 -0.224845 0.080514 -0.182112 -0.029406 -0.328502 
16 0.097811 0.377346 0.092342 -0.158879 -0.340791 -0.347407 -0.224653 -0.081054 0.042181 -0.364907 -0.179340 -0.205223 -0.180521 -0.202738 -0.091487 -0.390274 -0.159852 -0.039464 -0.220500 -0.032917 0.042898 0.252337 0.365818 0.388994 0.068432 -0.301897 -0.188142 0.048504 0.293830 0.329386 0.072279 0.319895 -0.282997 -0.089832 0.108574 0.092188 0.163768 -0.210606 0.023870 -0.182193 
18 0.090894 0.381316 0.019215 -0.161354 -0.418266 -0.341618 -0.153664 -0.052267 0.044628 -0.389339 -0.127439 -0.165915 -0.119060 -0.175610 -0.091894 -0.419134 -0.150882 -0.101505 -0.197226 -0.059109 0.052549 0.253937 0.280590 0.319162 -0.079296 -0.380175 0.123246 -0.099347 0.257054 0.318599 -0.014355 0.434696 -0.071410 -0.150966 0.124147 0.031984 0.246962 -0.228431 -0.073479 -0.237981 
20 0.055296 0.333182 0.008093 -0.165647 -0.488914 -0.345266 -0.206947 -0.095181 0.038358 -0.357149 -0.065446 -0.128490 -0.058559 -0.130879 -0.071979 -0.438109 -0.089411 -0.107939 -0.247024 -0.011442 -0.024514 0.155480 0.043867 0.169883 -0.340534 -0.395689 0.315686 -0.218947 0.130485 0.268324 0.078233 0.449205 0.021970 -0.072091 -0.140853 -0.283154 0.009463 -0.143623 -0.092576 -0.303973 
21 -0.001812 0.063793 -0.155342 -0.185947 -0.376017 0.004073 0.325687 0.039270 -0.299781 -0.072346 0.435613 -0.043262 0.303663 0.310580 0.273550 -0.228547 -0.202330 -0.139774 0.042626 -0.153108 0.201648 0.022294 0.051404 -0.142420 0.166904 0.056946 0.356565 -0.169115 -0.079680 0.195611 0.336652 0.245321 -0.112398 0.211303 0.293059 -0.520885 0.167131 -0.081537 0.185401 -0.217958 
22 -0.070009 0.296538 0.096467 -0.256376 -0.526974 -0.150154 0.227683 0.041325 -0.171476 -0.352014 0.226181 -0.068215 0.116568 0.098084 0.122452 -0.312753 -0.247165 -0.198594 -0.141625 -0.112246 -0.181990 0.286432 0.270159 -0.018186 -0.392273 -0.052873 0.399344 -0.040755 0.006637 0.290990 0.326686 0.309472 -0.097921 -0.061994 -0.101757 -0.294768 0.141362 0.050952 0.029284 -0.269039 
23 0.029823 0.105795 -0.097644 -0.121309 -0.222731 0.004201 0.348594 -0.014016 -0.367409 0.031858 0.480032 -0.100176 0.220509 0.273751 0.313420 -0.189165 -0.299312 -0.101812 0.122355 -0.208215 0.163151 0.116349 -0.161028 0.162246 0.203759 -0.299602 0.404477 -0.166549 0.080680 0.181945 -0.442692 0.364361 0.120564 0.121432 -0.195493 0.122688 -0.021655 -0.113798 0.082045 0.337522 
27 -0.335739 -0.299619 0.152075 0.128097 -0.029864 -0.165652 0.019447 -0.173635 0.182454 0.228930 0.530263 0.324633 0.156083 -0.065139 -0.072592 -0.064557 0.100668 0.328101 0.036469 0.263993 -0.315315 0.124878 -0.053945 -0.337042 0.024054 0.120242 -0.074330 -0.070365 0.021171 0.530575 0.233286 0.068516 -0.052451 -0.366184 0.133508 -0.016858 -0.098629 -0.240289 0.281243 0.316817 
30 -0.043762 0.401434 0.313698 -0.204274 -0.046363 0.124017 0.214542 0.086276 0.143438 -0.283810 0.170104 0.429829 -0.223362 -0.120235 -0.126557 0.319837 -0.255838 0.018953 0.227741 -0.103207 -0.188794 0.286227 0.266498 0.025729 -0.086912 0.408057 0.032690 0.305666 -0.137137 -0.042501 0.137048 0.030478 -0.069916 0.084451 -0.382395 -0.073353 0.186393 0.516329 0.191360 0.016601 
31 -0.319215 -0.369453 0.129623 0.144215 0.067234 -0.020982 0.075288 -0.125322 0.127792 0.305356 0.501733 0.329611 0.187631 0.009323 -0.032438 0.105997 0.126349 0.314155 0.079410 0.243261 0.168457 -0.295728 0.249733 0.282756 0.003116 -0.282009 0.137033 0.122019 -0.244255 0.032615 0.187607 -0.150382 -0.157618 0.189462 -0.564996 -0.315012 0.039635 0.067524 0.130232 0.088466 
32 0.148723 0.480235 0.256932 -0.221368 0.148910 0.045861 -0.272835 -0.099103 -0.165345 -0.065893 0.013548 0.380123 -0.007233 0.204024 0.049284 0.209905 -0.169584 0.235039 0.364725 0.205302 0.138083 0.357897 -0.323731 -0.040521 0.336452 0.277602 -0.212979 0.190034 -0.231975 0.038936 -0.290745 0.043300 -0.062396 -0.055560 0.009472 -0.186044 0.192757 0.295663 0.317229 0.256982 
34 -0.215384 0.453175 0.308899 -0.073619 -0.009187 0.036909 0.229261 0.283625 0.128945 -0.276574 0.066816 0.098687 -0.146624 -0.004706 -0.149769 0.432878 -0.223808 0.153554 0.304239 0.089801 -0.264798 0.235451 -0.060992 -0.019789 0.453587 0.320194 -0.406084 0.120683 0.028320 -0.013578 -0.235602 -0.121369 -0.000071 0.075616 -0.231224 0.107222 -0.245076 0.139795 0.170138 0.363516 
38 -0.225706 0.476155 0.247457 0.014938 -0.056436 -0.022620 0.218017 0.295423 0.133518 -0.271341 0.101790 -0.025843 -0.146590 -0.033787 -0.166006 0.432262 -0.191333 0.112139 0.354442 0.089661 -0.229348 0.262187 0.014304 -0.003400 0.441095 0.302245 -0.493917 0.177618 -0.031680 0.009619 -0.014077 -0.272111 -0.072054 0.136118 -0.267480 0.144498 -0.144446 0.002109 0.259131 0.193701 
40 -0.239326 0.473997 0.233822 0.057121 -0.086854 -0.072347 0.214776 0.295400 0.134177 -0.255857 0.130084 -0.071765 -0.081622 -0.052130 -0.187127 0.437524 -0.181206 0.129494 0.334259 0.106078 -0.108202 0.257150 0.032414 0.120377 0.373064 0.252836 -0.483101 0.300073 -0.015590 -0.010169 -0.308413 -0.217978 -0.077243 -0.098784 -0.231597 0.067200 -0.155887 0.128799 0.111390 0.331567 
42 -0.266896 0.438666 0.277940 0.108626 0.015064 -0.043217 0.229236 0.329494 0.128617 -0.304711 0.068442 -0.038605 -0.063405 -0.076114 -0.176000 0.470912 -0.235362 0.084032 0.157380 0.136897 -0.081005 0.288688 0.056291 0.255823 0.483975 0.170257 -0.571129 0.145290 0.071210 0.031049 -0.039011 -0.053016 -0.156913 0.185642 -0.162269 0.262754 -0.017255 0.114069 0.195074 0.121575 
45 -0.226395 0.422081 0.390209 0.046468 -0.162016 0.007650 0.279843 0.457407 0.113347 -0.320313 -0.065462 -0.004131 0.073049 -0.209555 -0.018448 0.292114 -0.091729 0.124947 0.109393 0.108011 -0.023381 0.185258 0.327334 0.176811 0.319968 0.222871 -0.241330 0.256673 0.215771 0.391098 0.047669 0.105303 -0.234813 -0.012690 -0.310061 -0.028360 -0.283788 0.000959 0.320171 0.048867 
55 -0.123317 0.297183 0.090596 0.479899 -0.177065 -0.162942 0.302342 0.136163 0.018635 0.074997 -0.020339 -0.433547 0.222599 0.028051 -0.260081 0.287474 0.227667 0.018751 0.207100 -0.008274 0.004080 0.101878 -0.173166 0.040532 0.296238 0.196778 -0.192259 -0.204954 -0.107755 0.207462 0.266719 0.051361 -0.192510 0.305902 -0.098029 0.505682 0.117529 -0.292803 0.281285 0.222419 
57 0.057975 0.325778 0.445455 -0.263035 -0.353175 0.178122 0.331780 0.014283 -0.021150 0.019053 -0.122517 0.418977 -0.175044 -0.173833 -0.137027 0.126446 0.246735 0.058261 0.068229 -0.015339 0.188849 0.232077 0.374371 0.308506 0.226820 -0.135466 -0.345586 0.150667 0.264377 0.237962 -0.217188 0.001234 -0.108046 -0.284593 -0.028103 -0.072631 -0.198648 -0.381827 0.037615 -0.064226 
58 0.037865 0.471539 0.449650 -0.256782 -0.433434 0.056617 0.171202 0.016249 -0.021730 -0.170315 -0.201446 0.289206 -0.234940 -0.203379 -0.133796 -0.033705 0.118136 0.056157 -0.013742 -0.029232 0.087083 0.276730 0.337784 0.291960 0.354696 0.059607 -0.513355 0.222646 0.162681 0.071708 -0.174184 -0.103965 -0.141466 0.006839 -0.139334 -0.042752 -0.127943 -0.307338 0.070262 -0.210264 
59 -0.097362 0.353243 0.332889 -0.256352 -0.084563 0.062113 0.296039 0.158567 0.155401 -0.236928 0.051314 0.376943 -0.273321 -0.025879 -0.181029 0.346298 -0.230291 0.079268 0.216777 -0.077696 -0.051428 0.159512 -0.057044 -0.040449 0.397362 0.169627 -0.327028 0.324234 0.114341 0.087218 -0.156902 -0.160306 -0.083113 0.129129 -0.444060 -0.119188 -0.337460 -0.070501 0.377262 0.033550 
63 -0.080901 0.358664 0.362962 -0.239978 -0.295732 -0.126179 0.072534 0.013115 0.010939 -0.046751 0.013486 0.096305 -0.116150 -0.183851 -0.365603 0.426046 -0.014187 -0.017551 0.377017 -0.223131 -0.049261 0.217128 0.184472 0.182318 0.350885 0.112124 -0.301518 0.253444 0.087224 0.403337 -0.113907 0.159763 -0.321141 -0.140838 -0.308881 -0.006426 -0.085838 0.129245 0.305052 0.219060 
75 -0.163650 -0.166824 -0.202827 0.171352 0.191211 -0.128811 -0.321872 0.058615 -0.130940 0.164518 0.033549 -0.578791 -0.179056 0.072885 0.091255 -0.034881 -0.279843 0.406112 0.177394 0.112852 -0.316113 -0.122824 -0.118406 0.096942 0.211904 -0.156164 -0.183753 -0.396136 0.068530 0.184664 0.232916 0.459407 -0.130183 0.269350 0.121759 0.205985 0.273297 0.272951 0.010643 0.037810 
76 0.319539 0.027865 -0.074145 -0.097048 0.149147 0.313271 0.024096 0.122001 -0.265450 -0.038236 -0.571267 -0.294883 -0.078899 0.135034 0.102953 0.275938 -0.049288 -0.239412 -0.145056 -0.262940 0.319214 -0.295365 0.362574 0.310925 0.201379 0.073480 0.046353 -0.012548 0.160584 0.117300 -0.208444 0.294707 -0.072604 -0.204840 0.368073 -0.239479 -0.245445 -0.191124 -0.131183 0.102865 
19 0.077693 0.394909 -0.011000 -0.198179 -0.379753 -0.314648 -0.096325 0.042652 0.007664 -0.387478 -0.112186 -0.140720 -0.168106 -0.095058 -0.107449 -0.476058 -0.206246 -0.178192 -0.089074 -0.063403 0.124219 0.261713 0.218602 0.255448 -0.184771 -0.312845 0.267704 0.009886 0.249526 0.376263 -0.183722 0.495759 -0.079503 -0.184905 -0.119793 0.109513 0.122939 -0.120767 -0.033514 -0.134967 
24 0.024852 0.402145 0.181253 -0.182257 -0.389919 -0.358974 0.023105 0.078309 0.043602 -0.332444 -0.074468 -0.117549 -0.255009 -0.215811 -0.023371 -0.358527 -0.320436 0.077479 -0.046230 -0.027034 0.179846 0.306844 0.192429 0.273855 -0.059822 -0.179658 -0.051225 0.054135 0.259787 0.331873 0.144635 0.346931 -0.352605 0.105261 -0.126977 0.122149 0.092080 -0.119828 0.095408 -0.450292 
28 -0.126895 0.156366 0.247729 -0.135273 -0.079189 0.103604 0.418815 -0.014808 -0.088788 -0.394057 -0.034371 0.217729 0.027745 -0.254375 -0.421990 0.223211 -0.307799 0.053217 0.282876 -0.066571 0.199432 0.021247 0.396999 0.506081 0.224642 0.011021 -0.000182 0.296463 -0.006300 0.201083 -0.092789 0.241405 -0.384823 0.062096 -0.341374 -0.144540 0.011183 0.039079 0.076407 0.057886 
37 -0.124350 0.455457 0.251734 -0.021499 0.000013 -0.024384 0.145873 0.304612 0.070991 -0.274126 0.139786 0.018762 -0.138258 -0.043561 -0.140030 0.408832 -0.300696 0.096768 0.406496 0.160436 -0.069309 0.243223 -0.007888 -0.072153 0.370499 0.393928 -0.469792 0.152177 0.214696 0.242182 -0.005986 0.038386 -0.184852 0.004310 -0.130430 0.161952 -0.331212 -0.004379 0.317266 0.019906 
60 -0.189581 0.484106 0.433118 -0.003172 -0.031490 0.138020 0.073337 0.315192 0.162505 -0.262808 0.251132 -0.198633 -0.077115 -0.064640 -0.324860 0.121096 -0.257363 -0.045464 0.123539 -0.073812 0.099867 0.143212 0.401746 0.292187 0.223757 -0.008329 0.107459 0.242794 0.130132 0.382848 0.175437 0.241389 -0.293875 0.149177 -0.349053 -0.122680 0.014120 -0.049496 0.310849 -0.069106 
62 0.139957 -0.192564 0.511361 0.137172 -0.289779 -0.036734 0.118867 0.285621 -0.143178 -0.248627 -0.178717 0.279153 -0.250349 0.065572 0.171840 -0.122229 -0.382380 -0.154876 0.078525 -0.044756 0.115271 0.158587 0.295337 0.274571 0.232049 0.048645 -0.166067 0.195371 0.185300 0.458065 0.018487 0.282897 -0.371991 -0.013234 -0.206610 -0.014260 -0.225402 -0.164569 0.305160 0.000934 
65 -0.055654 0.242169 0.261716 -0.168604 0.039701 -0.482052 0.248695 0.418976 -0.080357 -0.370071 0.037664 -0.086993 -0.024196 0.088721 -0.032113 -0.080114 -0.050590 -0.398831 0.177710 0.092110 0.179037 0.214026 0.271794 0.461196 0.316802 -0.072058 -0.160415 0.106057 0.107054 0.355150 0.108098 0.373449 -0.362829 0.180018 -0.143185 0.038433 0.023802 -0.020547 0.123736 -0.044232 
66 -0.226946 0.317961 0.291494 0.110562 -0.016237 -0.337601 0.125267 0.372263 -0.042072 -0.349467 0.238804 -0.223337 -0.260485 0.159631 0.110390 0.280973 -0.112564 0.124929 0.137961 0.138246 0.115716 0.169125 0.281926 0.394721 0.343086 0.023222 -0.146876 0.231949 0.000595 0.320234 0.076329 0.129481 -0.437307 0.170407 -0.373191 -0.039182 -0.107695 0.025406 0.168615 0.046909 
26 0.073813 0.132325 0.596165 -0.244694 -0.117315 0.235045 0.459963 0.126599 0.221703 -0.114122 0.208954 0.008461 -0.095284 -0.275125 -0.089929 0.051256 0.017010 -0.187581 -0.138235 -0.095767 0.076513 0.157910 0.314913 0.462963 0.345079 -0.157817 -0.047424 0.198443 0.077837 0.178454 -0.047525 0.251443 -0.305569 0.257692 -0.283859 0.081277 0.319686 -0.018981 0.130421 -0.013238 
29 0.071680 0.529213 0.289659 -0.210513 -0.420573 -0.216287 0.099100 -0.082032 -0.053114 -0.322902 0.001529 -0.074960 -0.251924 -0.330644 -0.127595 -0.085296 -0.129881 0.140514 0.023601 0.011844 0.124059 0.326308 0.299801 0.384362 0.163849 -0.163094 -0.018958 0.307686 0.117850 0.426604 -0.014149 0.190117 -0.328008 -0.129786 -0.247772 -0.072409 0.036258 -0.080366 0.245989 -0.021595 
33 -0.196595 0.449856 0.333022 -0.170972 -0.055596 0.059870 0.196193 0.207617 0.088026 -0.285307 0.103252 0.213421 -0.210557 -0.073116 -0.167712 0.389187 -0.245078 0.095108 0.287698 0.063729 -0.194703 0.214426 0.018664 -0.024447 0.463047 0.279950 -0.368059 0.149754 0.016512 0.023293 -0.202189 -0.152978 0.034989 0.057652 -0.443745 0.032360 -0.257720 0.049161 0.216795 0.284690 
35 -0.041611 0.534050 0.481390 0.131916 -0.076950 -0.224508 0.273373 0.057769 0.050459 -0.325622 0.054921 0.172111 -0.052117 0.012687 -0.083974 0.240756 -0.246228 0.060172 0.108916 0.210495 -0.022201 0.276667 0.221425 0.135095 0.394095 0.256750 -0.382693 0.211219 0.006939 0.296219 0.141244 0.022752 -0.269657 0.126479 -0.330164 0.025919 -0.113141 0.044472 0.339196 0.083061 
39 -0.161063 0.336772 0.231521 -0.236322 0.035010 -0.166246 0.218610 0.243376 0.117142 -0.355741 0.080554 0.101617 -0.216969 0.132446 -0.247557 0.441351 -0.219791 -0.151893 0.210605 0.147616 0.099847 0.158705 0.255562 0.233236 0.366043 0.095385 -0.341665 0.268849 0.072628 0.224242 0.073793 0.003884 -0.330685 0.169719 -0.453977 0.043440 -0.156854 -0.061476 0.276609 0.031274 
41 -0.227857 0.471263 0.229027 0.048880 -0.089247 -0.067057 0.252994 0.321257 0.145099 -0.242028 0.080830 -0.083220 -0.064943 -0.105589 -0.207609 0.445356 -0.169290 0.112855 0.314352 0.036916 -0.192570 0.263497 0.165901 0.069973 0.422602 0.317508 -0.497602 0.207757 0.027365 0.132138 0.044109 -0.196568 -0.136584 0.052441 -0.293564 0.125806 -0.163436 0.029614 0.250114 0.136162 
43 -0.289621 0.282070 0.130302 0.008156 0.056697 -0.094635 0.309571 0.383021 0.175403 -0.385011 0.004071 -0.069801 0.006173 -0.134226 -0.092029 0.473672 -0.198725 0.029041 0.215232 0.208239 -0.005566 0.307752 0.109229 0.164452 0.430672 0.247218 -0.606314 0.160998 0.110340 -0.058151 -0.077997 -0.223641 -0.119879 0.119120 -0.185504 0.110424 -0.218440 -0.088601 0.104905 -0.112951 
44 -0.033920 0.157075 0.308019 -0.212262 -0.147278 -0.435491 0.077675 0.340336 -0.059216 -0.501901 -0.195067 -0.084715 0.041270 -0.383190 0.110173 -0.010471 -0.134665 -0.072401 -0.097960 0.081510 0.039491 0.208596 0.274158 0.308438 0.436604 -0.027636 -0.497521 0.170848 0.138319 0.252832 0.051930 0.023817 -0.280471 0.085274 -0.214304 0.145443 -0.049100 -0.170366 0.190603 -0.097094 
48 -0.103986 0.146279 0.476509 -0.022074 -0.104060 -0.129317 0.454033 0.500689 0.142597 -0.024882 -0.077282 -0.241328 -0.196303 -0.209277 -0.066067 0.110450 -0.079235 0.102752 0.234345 0.006351 -0.017080 0.264792 0.251790 0.290698 0.311486 0.038724 -0.402511 0.111041 0.264110 0.398052 0.066322 0.148201 -0.367481 -0.025230 -0.117876 0.222560 -0.035194 -0.080234 0.175654 -0.128929 
50 -0.112885 0.223502 -0.205125 0.287958 -0.201857 0.087661 0.274493 -0.161310 -0.378014 -0.385846 -0.226439 0.118997 -0.399217 0.116014 -0.091420 0.191227 0.122884 0.037484 0.182383 0.194358 0.172677 0.211258 0.341846 0.411387 0.221172 0.124053 -0.140173 0.134602 0.121639 0.344657 0.084736 0.284388 -0.412894 0.090847 -0.277892 0.035930 -0.044696 0.002365 0.229109 -0.063225 
67 -0.320801 0.299192 0.217049 0.198111 -0.095028 -0.091505 0.324010 0.256789 0.201798 -0.299523 -0.153749 -0.202845 0.125962 -0.111420 0.006637 0.320899 -0.242318 -0.067376 0.326213 0.191549 -0.010032 0.170156 0.298375 0.246707 0.297576 0.158844 -0.462877 0.246671 0.099457 0.190670 0.138416 -0.191933 -0.259372 0.083479 -0.335789 -0.017254 -0.229757 -0.129217 0.216486 -0.162109 
68 -0.286245 0.217115 0.100975 0.033138 0.052258 -0.170397 0.302248 0.390758 0.090947 -0.458040 -0.020993 -0.095296 0.031426 -0.210966 -0.013257 0.460769 -0.151216 0.029857 0.165822 0.216778 -0.059150 0.258515 0.165621 0.185885 0.467129 0.168430 -0.652851 0.149115 0.061620 0.036105 -0.049378 -0.234758 -0.120078 -0.011099 -0.183721 0.089341 -0.151788 -0.148552 0.092457 -0.008687 
72 -0.218472 0.233281 0.320490 0.136045 -0.074736 -0.316450 0.358754 0.469798 0.153276 0.161948 -0.080087 -0.227684 -0.289889 -0.220448 -0.122882 -0.010419 -0.156105 -0.114949 0.167595 0.000258 0.031368 0.281307 0.258111 0.326196 0.454883 0.020564 -0.471095 0.160614 0.178063 0.202881 -0.102826 -0.043637 -0.215432 0.028822 -0.149328 0.094271 -0.150649 -0.266792 0.139325 -0.121374 
17 -0.063999 0.248297 -0.156490 -0.315382 -0.161166 -0.373957 0.058246 0.207931 -0.003221 -0.220931 -0.116510 -0.338750 -0.097473 -0.262715 0.123659 -0.349021 -0.291260 -0.023213 -0.066971 -0.339442 -0.032426 0.267401 0.377825 0.248233 0.162553 -0.082928 0.004575 0.108442 0.154372 0.528749 0.223359 0.328028 -0.300644 -0.047282 0.000884 -0.132973 0.034696 -0.161789 0.197728 -0.200785 
69 -0.191194 0.499889 0.265756 0.044293 0.128221 -0.227692 0.321679 -0.015133 -0.046641 -0.171559 0.040372 -0.138531 -0.271450 -0.084479 -0.349683 -0.169337 -0.310801 -0.266679 0.095426 0.089166 -0.056000 0.199581 0.193923 0.269976 0.210795 -0.015100 -0.346866 0.108174 0.221219 0.363526 0.250220 0.119803 -0.405468 0.103521 -0.322772 0.210421 -0.094312 -0.071042 0.212278 -0.170947 
36 0.134185 0.126685 0.102440 -0.166245 -0.264705 -0.260466 0.020769 0.252971 0.223620 -0.375628 -0.186240 0.026745 0.166111 -0.019231 -0.244751 0.312977 -0.413871 0.132624 0.300756 0.183905 0.005034 0.193028 0.215278 0.310548 0.420059 -0.055426 -0.246482 0.096331 0.065710 0.411346 0.038957 0.210924 -0.274100 0.080482 -0.384607 -0.098400 -0.107233 -0.116256 0.250278 0.154851 
64 0.291637 0.447816 0.043924 0.145222 0.171485 -0.168786 0.324897 0.391486 0.046670 -0.046291 0.029674 0.274197 -0.079263 0.178294 -0.316594 -0.000157 -0.073652 0.032240 -0.377147 0.085340 0.112038 0.348047 0.195694 0.382231 0.440452 -0.016881 -0.173670 0.242857 0.169043 0.389927 0.051067 0.336171 -0.225850 0.083084 -0.129514 0.069496 0.062395 -0.052586 0.056246 0.113648 
25 0.153921 0.037200 0.036955 0.187714 -0.555616 -0.252447 0.086638 -0.063371 -0.066397 -0.262995 0.088306 -0.148689 -0.020457 -0.169403 -0.265306 -0.151639 -0.463776 0.030772 -0.333978 -0.028395 0.196074 0.206800 0.302050 0.521690 0.285903 -0.146250 -0.021967 0.105992 0.103578 0.306943 -0.035654 0.313581 -0.256080 0.203812 -0.294074 -0.069120 0.047376 -0.105213 0.108116 -0.112362 
56 -0.294483 0.515426 -0.039232 0.346498 -0.054717 -0.134007 0.304999 0.030722 -0.320250 0.222679 -0.165444 0.103023 -0.043932 -0.257792 0.156166 0.124911 -0.284518 0.137620 0.091479 -0.065792 0.044313 0.295843 0.279219 0.438572 0.222384 -0.127316 -0.127766 0.193475 0.117370 0.466014 -0.035722 0.266202 -0.318593 -0.097514 -0.219413 -0.123101 -0.085886 -0.100405 0.161018 -0.003152 
61 0.112567 -0.076027 0.219459 0.192114 -0.413668 -0.039249 0.292028 0.136403 -0.047789 -0.381351 0.211711 0.170747 0.129432 0.173611 -0.007599 0.196670 -0.419798 -0.332869 -0.103326 0.122079 0.035439 -0.030271 0.416498 0.455298 0.169605 -0.159445 0.004487 0.217179 0.058915 0.402120 0.165724 0.267087 -0.249926 0.036430 -0.276379 -0.049613 -0.029776 -0.194552 0.173260 0.200801 
70 -0.220305 0.148672 0.068661 -0.200829 0.146068 -0.277465 0.403339 0.276416 0.143113 -0.469857 -0.008479 0.099569 0.203463 -0.052490 -0.088897 0.392026 -0.096865 -0.144480 0.211098 0.122935 0.025089 0.283679 0.261798 0.285709 0.370951 0.086131 -0.367734 0.187862 0.147261 0.286005 0.045294 0.079546 -0.310476 0.035327 -0.384373 -0.004471 -0.196643 -0.121020 0.206301 0.006478 
71 0.088223 0.036727 0.145465 0.155654 -0.002883 -0.309556 0.316318 0.188255 0.219562 -0.521592 -0.109047 -0.260866 0.116193 -0.361477 0.036247 0.238232 0.217911 0.228199 0.107740 0.023197 0.075832 0.121129 0.313284 0.330297 0.459020 0.135111 -0.138664 0.111587 0.132367 0.289758 0.083341 0.195307 -0.308371 0.189394 -0.385600 -0.033174 -0.081029 0.113293 0.253884 0.022826 
73 -0.093108 -0.076007 0.171688 0.060991 -0.359378 -0.307342 -0.154090 -0.348324 -0.077237 -0.084298 -0.331456 -0.131384 -0.125353 0.449112 -0.102408 -0.125900 -0.379867 0.070755 0.209296 0.081317 0.041068 0.077931 0.327216 0.310034 0.276802 -0.013953 -0.329049 0.030327 0.056884 0.449153 -0.038143 0.098735 -0.341188 0.178902 -0.273329 -0.089601 -0.154174 -0.125978 0.331742 0.077584 
74 0.210800 0.443490 0.347360 -0.221445 -0.335790 -0.140008 0.107715 0.120934 0.290980 0.064282 -0.226000 -0.147604 -0.346898 -0.043337 -0.099062 0.176772 0.071253 0.001590 0.150368 -0.279224 0.004016 0.260410 0.261727 0.260977 0.194483 -0.035781 -0.272667 -0.023447 0.157604 0.478427 0.224403 0.284585 -0.449241 0.064888 -0.187785 0.139880 0.111016 0.006624 0.140634 -0.058987 
52 0.077185 0.381378 -0.201347 0.242463 0.145721 0.070485 -0.082851 -0.071206 -0.327420 -0.114270 -0.211148 0.023528 0.161432 -0.148237 -0.019241 -0.416797 -0.324773 0.086889 0.343123 0.304702 -0.003630 0.268091 -0.138937 0.316618 0.374049 0.265352 -0.198892 -0.058318 -0.249190 0.182023 -0.031837 0.153628 0.118746 -0.063743 -0.079874 -0.223995 -0.298835 0.198436 0.397488 0.272110 
47 -0.468480 0.355585 0.178617 0.253491 -0.004752 -0.181866 0.012106 0.365149 -0.051212 -0.152523 -0.143316 0.270952 -0.223278 -0.105873 0.183415 0.383194 -0.108317 -0.048481 0.046273 0.117218 -0.044942 0.276520 0.169773 0.213128 0.402266 0.183035 -0.346366 0.260528 0.203005 0.320694 -0.006849 0.177071 -0.313206 0.060979 -0.178149 0.040158 -0.171401 0.007836 0.350534 0.034201 
49 -0.133884 0.390953 0.260087 0.286210 -0.327536 0.041260 0.230957 0.348254 -0.127263 0.152949 -0.021234 -0.175598 0.104001 0.229549 -0.416262 -0.150725 0.216974 0.005561 0.054406 -0.124984 0.098753 0.196724 0.303805 0.326352 0.121538 -0.016192 -0.104311 0.157248 0.193631 0.509363 0.131081 0.228746 -0.269406 0.131618 -0.371391 0.035762 -0.061527 -0.090948 0.278249 -0.130610 
51 0.279243 0.273036 -0.266281 -0.008826 -0.191426 -0.094969 0.352541 -0.226825 0.207958 0.273667 -0.153823 0.203113 -0.159445 0.275171 0.090938 -0.033868 -0.128744 0.457532 0.044933 -0.183164 -0.119883 0.072538 0.251523 0.345462 0.253766 -0.228781 -0.090250 0.015725 -0.033013 0.535747 0.193852 0.195822 -0.311276 0.051196 -0.225778 0.048746 0.241375 0.020585 0.187310 0.248903 
54 0.249125 0.333965 0.061162 0.009111 0.193050 0.208024 0.282800 0.063706 0.174036 0.085979 -0.035139 0.125320 -0.126327 -0.355829 0.036439 -0.445503 0.012116 0.047105 -0.321613 0.393965 0.083524 0.126502 0.177734 0.134577 0.419433 0.216900 0.029136 0.191939 0.181615 0.436362 0.043596 0.125084 -0.290965 -0.115441 -0.377458 -0.267864 -0.184906 -0.084785 0.066776 0.260133 
46 0.233103 -0.136367 0.103662 -0.358532 0.134894 0.069733 0.121610 0.389398 -0.099641 -0.338983 -0.206878 0.224344 -0.097558 0.280769 0.124304 0.179528 -0.131978 -0.110591 -0.303229 0.350291 -0.034140 0.355734 0.005813 -0.033106 0.210784 0.332831 -0.072791 0.084111 0.284274 0.422698 -0.013262 0.485796 -0.225832 0.007076 0.108298 0.117391 -0.196462 0.086412 0.283772 0.069065 
53 -0.082012 -0.143263 0.279511 -0.216682 -0.232317 0.233965 -0.055245 -0.208042 0.305935 -0.223762 -0.506068 0.168553 -0.099319 0.291242 0.010491 -0.025422 0.241266 0.075166 -0.268396 0.181960 -0.177123 0.010347 0.339002 0.295150 0.188807 -0.142336 -0.270323 -0.035950 0.147358 0.398681 0.191393 0.292387 -0.368770 0.162931 -0.131273 0.127108 0.331666 -0.012244 0.107557 0.125618 
