77 10
0 0.590358 -0.031795 -0.229848 -0.265162 0.726173 -0.178805 0.494796 0.388403 0.649371 -0.388156 
1 0.549438 0.329270 -0.424476 -0.152401 0.621525 -0.087284 0.581300 0.452920 0.549286 -0.384214 
2 0.361814 -0.269760 -0.645883 0.559126 -0.257939 -0.468739 0.245842 0.106887 0.810075 -0.228471 
3 0.339367 0.627019 -0.605449 0.042216 0.351179 -0.192062 0.380741 0.561562 0.597226 -0.382254 
4 0.099022 0.064996 -0.717723 0.565677 -0.388399 -0.215790 0.055750 0.407645 0.840760 -0.277984 
5 0.328722 -0.518822 -0.514334 0.370178 -0.470314 -0.042440 0.703560 0.383138 -0.594642 0.052988 
6 -0.519747 -0.089271 0.027269 0.475426 -0.703647 -0.509308 0.084344 -0.343098 0.777199 0.108339 
7 -0.589748 -0.649777 0.274178 0.366915 -0.142084 0.919433 -0.249701 0.161472 0.177227 0.186572 
8 0.351260 0.596312 -0.043202 -0.510738 -0.508240 -0.353530 0.604189 0.342428 0.600248 0.180049 
9 0.503385 0.460237 0.242413 -0.395390 -0.565410 0.030105 0.167554 0.826816 0.417927 -0.335756 
10 0.556513 0.581486 0.130336 -0.341049 -0.467831 -0.148603 0.473595 0.527613 0.555084 -0.408816 
11 0.649014 0.651693 -0.118418 -0.363478 -0.089093 0.008574 0.394667 0.700337 0.477053 -0.355125 
12 0.533462 0.753800 -0.298960 -0.240472 -0.000767 -0.149966 0.337424 0.616905 0.578648 -0.385032 
13 0.301848 0.820806 -0.320155 -0.104639 -0.348878 -0.329006 0.306621 0.635316 0.506410 -0.371027 
14 0.487725 0.621808 0.055338 -0.373247 -0.482809 -0.152932 0.452046 0.656078 0.447210 -0.376606 
15 0.362208 0.629313 -0.085361 -0.281107 -0.621661 -0.145670 0.349662 0.641442 0.551466 -0.375438 
16 0.388181 0.595080 0.165941 -0.415949 -0.542813 -0.430009 0.494945 0.669691 0.335440 -0.095477 
18 0.339633 0.581367 0.024463 -0.379405 -0.634125 -0.143384 0.322798 0.724528 0.506905 -0.305530 
20 0.283819 0.516263 -0.067243 -0.435599 -0.677238 -0.207207 0.051073 0.471773 0.800187 -0.302636 
21 -0.352487 -0.216185 -0.595029 -0.656733 -0.208947 -0.820545 0.132692 0.431729 0.323487 0.134402 
22 -0.138126 0.350953 -0.024447 -0.873098 -0.307987 0.145343 0.439219 0.601762 0.650887 -0.013803 
23 -0.427826 -0.206651 -0.594392 -0.634937 -0.133469 -0.874173 0.056469 0.280561 0.224628 0.321652 
27 -0.587607 -0.497462 0.333393 0.335889 -0.428109 -0.114627 0.543617 -0.740754 0.119503 0.358250 
30 -0.547389 0.443892 0.494361 -0.408237 0.303769 -0.078533 -0.087732 -0.574335 -0.107172 0.802988 
31 -0.605521 -0.579251 0.307868 0.366398 -0.262262 -0.835768 -0.368589 0.220204 -0.257721 0.225220 
32 -0.700432 0.318335 0.632172 -0.062741 0.066939 0.080791 0.254548 -0.721177 -0.171772 0.615692 
34 -0.487409 0.432611 0.574119 -0.373010 0.326391 0.096555 -0.007380 -0.703648 -0.234510 0.663707 
38 -0.533950 0.462160 0.512322 -0.349296 0.341795 0.063927 -0.130732 -0.644107 -0.304154 0.686614 
40 -0.556651 0.480583 0.491413 -0.314685 0.344479 -0.003089 -0.033507 -0.662633 -0.317868 0.677307 
42 -0.492550 0.467583 0.519672 -0.341468 0.390001 -0.174449 -0.328058 -0.190764 -0.085965 0.904525 
45 -0.391340 0.539106 0.566321 -0.233109 0.425627 -0.042191 -0.187461 0.448927 0.113168 0.865295 
55 -0.521878 0.455410 0.393212 -0.302087 0.523806 -0.249718 0.556928 -0.484123 0.578878 0.240829 
57 0.158495 0.137583 0.554774 -0.780237 -0.198513 -0.451427 0.473469 0.730960 0.080883 0.176623 
58 0.198660 0.444426 0.490719 -0.697650 -0.188411 0.105898 -0.097049 0.772601 0.069787 0.614479 
59 -0.536775 0.468018 0.511092 -0.357257 0.322465 0.436266 -0.308906 -0.223658 -0.331587 0.744498 
63 -0.290332 0.368139 0.674522 -0.430237 0.374295 -0.213997 0.698753 -0.150867 0.269974 0.608525 
75 0.686730 -0.665341 0.185291 0.029979 -0.224703 -0.225455 0.673421 -0.078353 0.677303 -0.175486 
76 0.649600 0.085584 -0.290757 -0.253414 0.649566 -0.124532 0.214398 0.795509 0.432529 -0.344398 
19 0.322746 0.534829 -0.013804 -0.535610 -0.568088 0.106943 0.405306 0.745761 0.507905 -0.100817 
24 0.387241 0.449953 0.247330 -0.531561 -0.551233 0.310963 0.185491 0.798942 0.433719 0.206093 
28 -0.526495 0.470338 0.422550 -0.530193 0.204774 0.076740 -0.305482 0.750511 0.293331 0.501480 
37 -0.422653 0.531262 0.574089 -0.288516 0.355396 0.539023 0.210796 -0.253846 -0.058266 0.772779 
60 -0.327661 0.555240 0.660933 -0.181819 0.338313 0.071477 0.310498 0.695969 0.145668 0.626810 
62 0.729316 0.041003 0.508122 0.081370 -0.449008 0.412534 0.216420 0.544457 0.444936 0.537194 
65 0.124719 0.256691 0.442730 -0.783582 0.329461 -0.033859 -0.025248 0.932078 0.126601 0.336777 
66 -0.227044 0.632273 0.608855 0.002167 0.421869 0.025481 -0.069267 0.553210 0.283819 0.779717 
26 -0.119466 0.466525 0.634354 -0.593620 0.115294 -0.558236 0.074018 0.664230 0.359460 0.335383 
29 0.052398 0.241428 0.797898 -0.549412 0.021733 0.227786 0.551759 0.605169 0.119815 0.512923 
33 -0.489770 0.412750 0.557178 -0.360891 0.386099 -0.035659 -0.103691 -0.622042 -0.300641 0.714602 
35 -0.100223 0.520834 0.776648 0.060896 0.334360 0.526944 0.141133 0.067533 0.392607 0.737367 
39 -0.402752 0.230461 0.466286 -0.731021 0.181285 0.104621 0.198196 0.448375 0.032443 0.864685 
41 -0.513933 0.490954 0.519608 -0.330708 0.339819 -0.098451 0.141954 -0.509166 -0.137614 0.831847 
43 -0.619943 0.415538 0.362147 -0.438668 0.345570 0.362844 -0.178243 -0.508218 -0.208545 0.731299 
44 -0.160353 0.102835 0.592082 -0.757304 0.199100 0.209471 0.065450 0.583956 0.170040 0.762837 
48 0.048232 0.350255 0.898744 -0.229514 0.120739 0.582711 -0.024370 0.370456 0.133099 0.710564 
50 -0.177436 0.414835 -0.585359 0.665181 -0.106386 -0.160125 0.311172 0.337457 0.661080 0.571514 
67 -0.580500 0.560978 0.355762 -0.114089 0.456882 -0.399891 0.037263 0.305545 0.277648 0.817467 
68 -0.657078 0.460779 0.292732 -0.439990 0.276853 -0.095544 -0.144770 -0.545150 -0.205396 0.794063 
72 -0.018270 0.565860 0.807277 0.076744 0.147928 -0.029089 0.329854 0.145153 0.392684 0.845624 
17 -0.276470 0.080614 -0.239122 -0.892007 -0.253398 -0.347034 0.315318 0.657793 0.264006 0.527021 
69 -0.394586 0.539894 0.571401 -0.148069 0.452098 0.222308 0.289410 0.319382 0.362016 0.796091 
36 0.373101 -0.241700 0.098953 -0.675924 -0.579406 0.098600 0.167930 0.347462 0.490070 0.775358 
64 0.270625 0.699065 0.251934 0.582263 0.188599 0.235385 0.370394 0.195538 0.377899 0.791429 
25 0.703385 -0.242972 -0.238209 0.185174 -0.595970 0.139040 -0.046047 0.632189 0.691982 0.316300 
56 -0.445285 0.769938 -0.240196 0.376376 0.097791 -0.281901 0.516153 0.391114 0.501121 0.500026 
61 0.717666 -0.241605 0.027571 0.402407 -0.513704 -0.178015 -0.125485 0.723206 0.538441 0.373656 
70 -0.640176 0.229967 -0.024725 -0.683795 0.262875 -0.103770 0.073662 0.204557 0.163010 0.956760 
71 0.577198 0.217618 0.743663 0.250909 -0.059118 -0.048966 -0.259251 0.427368 0.259162 0.824974 
73 0.469876 -0.622708 -0.446720 0.086928 -0.429344 -0.178417 0.001170 0.691254 0.517349 0.471894 
74 0.324805 0.472844 0.686333 -0.356352 -0.269963 -0.198412 0.266355 0.716404 0.470365 0.393966 
52 0.031974 0.536889 -0.316503 0.658093 0.421269 0.012162 0.324807 -0.039829 0.688169 0.647449 
47 -0.504954 0.715193 0.188058 0.209958 0.392519 0.139694 0.574105 0.066449 0.295689 0.747691 
49 0.061414 0.766240 0.230822 0.576652 -0.152641 -0.052455 0.458735 0.590550 0.558014 0.355923 
51 0.554269 0.033215 -0.442881 0.141837 -0.689508 -0.025283 0.408083 0.221095 0.469145 0.750899 
54 0.424782 0.244349 0.330766 0.344763 0.729100 0.453102 0.249327 0.226864 0.142951 0.812793 
46 0.216197 -0.597052 0.260058 -0.713681 0.140774 0.497952 0.387568 0.053445 0.207176 0.745692 
53 -0.113285 -0.431115 0.616180 -0.557924 -0.332189 -0.349670 -0.053821 0.827913 0.142111 0.411337 
